operator -0.55165 0.37639 0.095851 0.20341 -0.18813 0.51069 -0.36286 0.28207 0.46269 0.27764 0.49809 0.42686 -0.24274 -0.43538 0.017056 -0.079309 -0.33404 0.9756 0.50687 -0.23396 0.99349 1.9549 0.6857 0.73139 0.31059 0.22137 0.078505 -1.1506 0.0072031 0.2646 0.72735 -0.51207 0.5926 -0.39353 -0.32099 0.19217 0.29635 0.70352 -0.11012
stalin 0.029823 -0.67162 -0.021156 0.16215 0.37335 -0.47934 0.32452 -0.89027 -0.9122 -0.079273 0.13907 -0.88329 1.2312 0.21488 1.5342 0.61394 -0.0094747 -0.58366 0.17081 0.53974 1.5439 0.076226 -0.44474 -0.4811 -0.31354 0.94904 0.25158 -0.085734 -0.37336 0.48345 -0.52787 -0.50625 -0.031692 0.47253 -0.062067 0.27228 0.449 -1.2264 -0.13966
uniform 0.18653 0.62603 -1.1665 0.89771 -0.53817 0.8897 0.095498 -0.0017376 -1.0375 -0.23457 0.28622 0.31224 -0.15544 -0.16632 -0.50812 0.77373 0.28502 -0.26767 -0.16206 0.7819 1.1925 1.7498 0.74858 -0.28395 -0.82368 0.84627 -0.00080693 0.17553 -0.19899 0.06993 -0.08831 0.0008884 -0.15155 -0.16646 0.58352 -0.16554 -0.26601 -0.31441 -0.11023
jamaica -0.081209 0.9262 -0.79581 -0.015346 -0.25083 -0.85773 0.35934 -0.02965 0.14435 0.57355 0.32742 0.30625 0.3901 -0.41408 -0.13993 0.44782 -0.56854 0.28428 1.2633 -0.18831 0.045669 0.38752 0.461 -1.1805 0.29029 0.020541 -0.49585 -0.39973 -0.42579 0.044468 0.70183 0.030341 0.2171 -0.0695 -0.35452 -0.053613 -0.092042 -0.11015 0.0020949
espionage -0.015117 -0.96994 0.16096 1.0687 0.48639 -0.41721 0.92676 -0.54275 -0.15884 0.17426 0.40748 0.27861 -0.10827 0.56276 0.066817 0.033116 0.026127 -0.47261 0.33906 0.8414 1.1815 0.99367 0.77299 -0.6281 -0.22194 -0.30603 0.70167 -0.21156 -0.22967 0.2136 0.45871 -0.86061 0.83677 0.19957 -0.59911 -0.033566 -0.32314 -0.059523 -0.41345
crime -0.65998 -0.4203 0.43938 0.82433 0.20074 -0.87495 0.29658 -0.74023 0.45249 0.71521 -0.021832 0.66793 -0.69675 -0.2816 0.17816 -0.26451 -0.21192 -0.046468 -0.3416 0.36881 1.474 1.4884 0.49011 -0.58272 -0.57206 0.90758 0.16403 0.30687 -0.13125 0.66309 -0.46149 -0.82215 -0.33363 -0.45058 -0.1148 -0.066636 0.13258 -0.005387 -0.32109
day 0.42742 1.129 -0.83981 -0.47955 -0.18319 0.24588 -0.029048 -0.49573 -0.026547 0.76369 0.57039 -0.28324 0.3833 -0.074012 -0.4574 0.65592 -0.0022426 0.10777 0.24333 0.12931 1.0476 2.1535 0.60561 -0.54019 -0.18484 -0.019265 0.31006 -0.10041 -0.38982 -0.34424 -0.15675 -1.0446 0.12899 -0.22875 -0.23498 0.013424 0.32535 0.049695 0.02438
reaction -0.283 -0.32129 -0.011339 0.085108 -0.72874 -0.32795 -0.33524 0.17929 -0.20917 0.49578 -0.4212 0.20333 0.66346 0.16727 0.94185 -0.29832 -0.33717 -0.34408 -0.20025 1.1229 0.36027 0.97605 0.0050693 0.24872 0.37878 1.2258 -0.23827 -0.25517 -0.13079 -0.41742 0.55051 -0.68414 0.072187 0.075583 -1.0177 -0.7995 0.79175 0.14142 -0.24686
improving -0.73122 -0.39317 -0.065082 0.46447 -0.60119 0.31672 -0.47553 0.11048 0.040504 -0.60729 -0.39025 -0.45196 -0.90845 0.60816 -0.29826 0.26078 0.53732 0.42692 -0.029444 0.26566 1.5849 1.0668 -0.3901 -0.72201 -0.51151 -0.1047 -0.24157 0.83866 0.20121 -0.5329 -0.065164 -0.17018 0.27724 0.51783 0.018618 -0.030569 -0.079953 -0.023994 -0.42128
texas 0.61696 0.33356 -0.87586 -0.0051696 -0.98285 -0.051122 -0.41628 -0.37757 0.66729 0.54748 -0.51538 -0.40509 -0.24456 0.019988 -0.77432 -0.17472 -0.42877 -0.32409 0.21442 -0.33092 -0.39 1.802 0.81874 -0.49344 0.70698 0.76036 0.5876 -0.041568 -0.4991 -0.0089866 0.31472 -0.27487 -0.1926 -0.17207 -0.5838 -0.64371 0.46071 0.32132 -0.060431
heroin 0.24753 0.43082 0.73792 1.0364 0.42882 -0.90556 1.0618 -0.29797 -0.26122 1.0518 -0.23441 1.6263 0.028275 0.76611 0.40247 0.49034 -0.62969 0.040634 -0.16717 0.022279 0.99081 0.97694 -0.54681 0.21448 0.16894 -0.86274 1.2392 0.14181 0.3832 1.4003 -0.59655 -0.54729 0.028816 -0.35327 0.27727 -0.5095 -0.94933 -0.67442 -0.20814
cell 0.5646 -0.16238 0.19646 0.54557 0.35064 -0.22561 0.91107 0.92409 -0.69064 -0.37207 0.012134 0.71955 0.46578 0.67348 -0.41679 -0.12426 -0.35115 -0.36367 -0.42604 0.47491 0.65416 1.5118 0.76834 -0.37164 0.88374 0.96746 0.23388 0.53099 0.44748 -1.0953 0.64685 -0.13178 0.92792 0.558 0.17504 0.80912 0.016775 -0.14992 -0.74729
actress -0.14116 -0.0088659 0.074083 0.20679 -0.41996 -0.20774 0.45641 0.17936 2.2639 -0.20825 1.4324 0.44075 0.48381 -0.19902 0.49023 -0.3438 0.64086 -0.16487 0.064489 -0.23637 1.3471 -0.4223 -0.072079 -0.062847 -0.55274 0.14808 0.95667 0.1609 -0.58087 0.95336 -0.051126 0.10772 -0.050672 -0.75436 -1.0303 0.29553 0.12623 0.89003 -0.21105
exile -0.50193 -0.38323 -0.22723 0.4759 0.64705 0.098736 0.1582 -0.25478 0.070378 0.27887 -0.018407 -0.11584 1.3934 0.081189 0.36472 0.97925 -0.32569 -0.80268 0.62271 -0.30592 1.1903 1.0549 0.40967 -0.15922 -0.16655 0.55314 -0.12483 -0.10913 -1.2492 -0.65797 0.21232 -0.61243 0.30021 0.95535 -0.55638 0.6016 0.02764 -0.20959 0.3124
action -0.52062 0.050359 -0.45622 0.067293 -0.47326 -0.3427 -0.3881 -0.32947 0.18733 1.0086 0.01307 0.035201 -0.27827 -0.10851 0.23574 -0.085442 -0.27218 -0.43363 -0.46305 0.23799 1.1776 1.7648 0.61523 -0.24286 -0.2642 1.1915 -0.43394 0.5634 -0.44134 -0.3453 -0.24844 -0.87395 0.21348 0.041693 -0.87984 -0.57858 0.48505 0.33035 -0.068042
oxford 0.78408 -0.021897 -0.70783 0.038258 -0.36053 0.12886 0.73595 0.36359 -0.14766 -0.0081659 0.23172 -0.39925 -0.13439 0.083096 -1.0824 -0.33136 -0.68213 -0.10563 0.80598 0.82444 -0.12603 -0.087791 -0.12721 -0.60488 -0.61419 0.048978 -0.0080447 -0.26409 0.35624 -0.88874 0.86116 0.029697 0.14001 -0.21441 0.64169 0.74366 0.52234 -0.19261 0.29122
exchange -0.45544 0.10284 -0.21429 -0.53772 -0.12793 0.30742 0.11981 -0.20729 -0.70717 0.24862 0.0734 0.15014 0.009597 0.42861 0.88962 0.075817 -0.2249 0.16955 0.23448 0.35033 0.87824 2.3112 0.37269 -0.747 -1.0172 0.112 0.47328 -0.82789 0.15709 -0.043473 -0.52698 -1.3288 -0.63969 0.3256 -0.19583 -0.13823 -0.16936 1.0025 -0.19984
cannon 0.49832 0.21203 -0.22837 0.096895 -0.47085 -0.62532 0.67301 -0.62456 -0.30264 0.93892 0.33052 -0.33516 0.55315 0.58746 0.35963 -0.44972 0.18854 -0.14003 -0.39169 0.053385 0.20909 0.15593 0.23946 0.52896 -0.054966 -0.33586 0.61397 0.28661 0.83245 0.073405 0.064195 -0.71171 -0.16472 0.037996 -0.27886 0.18322 0.57237 -0.028534 0.22233
carbon -0.36055 0.41034 -0.29465 0.7189 -0.44767 -0.51282 0.015249 0.43986 -0.89257 0.34912 -0.09279 0.13882 -0.02083 0.29218 0.46428 -0.38454 0.82204 0.036016 -0.93545 -0.022302 0.70527 1.292 0.11649 0.41257 -0.46754 1.0195 0.68941 0.21844 1.1334 0.86396 1.1231 -0.64539 -0.13385 0.59337 0.62288 -0.14525 -0.025109 -0.48734 -0.89687
wedding -0.12223 0.65792 0.031021 0.52177 0.14411 0.7426 0.76975 -0.10652 0.56459 -0.60725 0.20563 -0.42129 -0.13613 -1.0942 0.13778 0.62495 -0.054266 -0.87047 0.73506 -0.011622 0.19697 0.85861 0.4523 -0.33525 0.41855 -0.27029 0.07157 -0.66427 -0.10804 0.015635 0.20264 -0.13938 -0.049799 -0.52733 -0.78638 1.0009 -0.71381 -0.4121 0.37831
socialism -0.046417 -1.4825 -0.24103 0.15077 0.43132 0.092594 -0.25449 -0.21526 -0.84969 0.46405 -0.15237 -0.52181 0.30088 -0.012459 0.82909 0.10138 0.20281 -0.65964 -0.9565 -0.63366 1.0189 0.46916 0.22406 -0.35348 -0.56721 0.66092 -0.16577 0.19505 -0.32829 -0.52918 -0.12484 -1.0507 0.5289 0.669 -0.74145 0.12779 1.1449 -0.94489 -1.2694
mirror -0.49846 0.54436 0.1205 0.031217 -0.20273 0.32814 0.029627 0.52772 -0.60687 0.18672 0.94345 0.58531 -0.25101 -0.31613 -0.084935 -0.77592 -0.08871 0.38673 -0.030926 0.35227 1.0061 0.79958 0.032677 -0.071215 -0.59085 0.23949 0.49903 0.042883 0.8676 -0.000307 0.90062 -0.53503 0.27433 -0.95922 -0.23766 0.92392 -0.093272 0.28058 -0.49458
guilt -0.57777 0.10879 0.45984 0.14442 1.0761 -0.41945 0.46987 -0.77434 0.61837 -0.19258 -0.31582 0.75404 0.15821 -0.13647 0.94162 0.63109 -0.62994 -0.85211 0.041895 -0.20214 1.0133 0.75603 0.26794 0.7015 0.30569 0.40635 0.71988 -0.30695 0.0011236 0.17365 0.11766 -0.88815 0.31058 -0.22755 -0.18852 0.44676 0.4395 -0.062454 -0.71131
capitalism -0.48113 -1.1435 0.024768 -0.23156 0.89927 -0.14808 -0.1273 -0.61369 -0.52856 0.39647 -0.0871 -0.39979 0.0071466 0.024217 0.15119 -0.8198 0.8643 -0.68444 -0.21028 -0.64571 0.81841 0.38363 -0.094005 -0.16914 -0.51137 0.51075 0.49135 0.10297 -0.58412 0.29562 -0.16024 -0.93375 0.63627 0.36275 -1.018 0.12341 0.74016 -0.78056 -0.88007
wheat 0.57006 -0.11361 -0.72242 -0.36415 -0.31724 1.0836 0.6338 0.099525 -0.047811 -0.15823 0.082363 0.15286 -0.60818 0.55522 0.29268 -0.035007 -0.53852 -0.56233 -0.19174 -0.37705 0.52536 1.1791 -0.34334 0.65815 0.051596 0.43958 0.18305 -0.44487 -0.18448 0.68895 0.15879 -0.89824 0.16765 -0.615 0.91556 -0.91478 -0.56945 -0.57778 0.32326
awards -0.076642 0.40814 -0.56646 0.070424 -0.68992 -0.0046758 0.095351 0.061255 1.2869 -0.87882 1.3691 0.61751 0.83817 -0.87306 -0.78863 -0.90373 0.3384 -0.36095 -0.28882 -0.50714 0.68853 1.3394 0.57089 -0.52937 -0.38348 -0.0035287 -0.34861 0.040525 -0.45048 0.55286 -0.54981 -0.46078 -0.58617 -0.14594 -0.57368 -0.32881 -0.17043 1.0491 0.32766
battleship 0.54206 -0.32255 -0.37151 0.78099 0.48322 -0.86848 0.13833 -0.36045 -0.26659 0.65044 0.56696 -1.2526 0.11891 -0.20366 -0.085504 -0.098245 0.33395 0.32909 0.1339 -0.27386 0.18099 0.5475 1.1555 -0.64912 -0.4465 -0.040173 -0.38524 0.77884 0.63791 0.30741 0.25556 -0.099497 1.3762 -1.1001 -1.0447 1.0559 0.45558 -0.074585 0.14657
responsible -0.33821 -0.045568 -0.089962 0.39776 -0.4125 0.65134 0.26042 -0.48236 0.75567 -0.18774 -0.98607 -0.12112 0.16902 0.43901 0.047319 0.6768 -0.02849 0.58439 -0.79555 0.23113 1.2296 1.4808 0.42315 0.0026377 -0.11216 1.2975 0.19115 0.073435 -0.28698 0.017792 -0.081583 -1.0051 0.64628 -0.026721 -0.5524 0.11941 -0.14854 0.20382 -0.82628
chemistry 0.90008 -0.41064 -0.70009 0.75217 -1.0341 0.001241 1.1733 0.045969 0.0724 -0.75556 0.1112 0.2987 0.57265 -0.25625 -0.5173 -0.83806 -0.95156 0.51696 -0.57053 0.59934 0.44328 0.34213 0.026492 -0.15365 -0.48405 0.96825 0.86692 -0.16468 0.86467 0.11415 0.63236 -0.17753 -0.24963 0.97331 -0.8827 -0.0168 1.4081 0.71684 -0.64125
disaster 0.055263 -0.10184 0.14196 0.24125 0.026307 0.07228 -0.28551 -0.70352 0.30434 -0.065866 -0.63428 -0.77381 -0.42983 -0.735 -0.16492 -0.16953 -0.48813 0.55951 -0.65858 0.041649 0.96387 1.485 0.9432 -0.31933 0.03785 0.67738 -1.0753 -0.31967 -0.43758 0.33838 0.10112 -0.77515 -0.072695 0.25063 -0.85576 -0.42178 0.040749 0.67009 0.30217
judging -0.21764 0.68167 0.093299 0.029939 0.25106 0.29731 -0.61003 -0.033026 0.034748 -0.98205 0.21119 0.0071802 -0.15825 0.14919 -0.12 -0.37759 -0.0021318 -0.27076 -0.44016 0.45193 0.63559 0.5034 -0.019669 -0.53392 0.1744 0.54514 -0.0059841 -0.022201 -0.094453 0.52736 -0.19269 -0.2996 -0.2715 -0.65578 -0.24903 -0.47774 0.27188 -0.14075 0.072402
essay 0.25578 -0.10803 -0.099711 -0.13067 -0.37419 -0.54444 -0.35402 -0.14238 -0.33777 0.058119 0.66526 -0.191 0.10819 0.14747 -0.22715 -0.23332 0.21637 -0.3779 -0.18808 0.78617 0.35048 0.4467 -0.097735 0.13018 0.075766 0.95958 0.51783 0.27339 0.53343 0.074936 0.14092 -0.67057 -0.9879 -0.35003 -0.39794 0.63445 0.35332 0.3259 -0.85197
homer 0.13938 -0.7033 -0.68459 -0.40378 -0.11767 -0.20067 0.2592 -0.47711 0.37021 0.8666 1.4663 -1.3342 0.26955 0.61131 -0.97626 0.025407 0.038868 -0.26665 0.63375 -0.55166 0.08589 0.42585 1.5154 -0.7517 0.87575 0.34247 1.1732 -0.22877 -0.6562 -0.94875 -0.47753 -0.40205 -0.317 -0.22387 -0.02865 -0.26804 -0.69292 -0.42749 -0.09823
rowing 0.22112 1.348 -0.90994 0.1821 0.2019 0.40427 -0.19019 -0.29119 -0.17611 -0.11863 0.16309 -0.78133 0.44097 0.17511 -0.94447 -0.55169 -0.61353 0.6372 0.29092 -0.39099 0.57669 -0.23178 0.39636 -1.0365 0.6603 -0.55023 -0.46001 -0.25037 0.70831 0.34636 1.1553 -0.12059 0.19206 -0.07732 0.047424 0.21018 0.44645 -0.23365 0.094055
paris 0.40056 0.56145 0.17908 0.050464 -0.064805 -0.25491 0.29661 -0.38406 -0.3654 0.15749 0.82612 -0.1881 0.9173 -0.47742 0.93976 -0.25522 -0.52545 0.18139 0.51924 0.071476 0.55699 0.69801 0.13714 -0.24939 -0.90352 -0.2329 -0.93519 -0.72123 -1.0439 -0.46385 1.2457 -0.99085 0.037708 -0.43544 -0.40406 0.98038 0.64597 1.1849 -0.40988
turks -0.48859 -1.0342 0.90559 0.0025288 0.33525 0.042071 0.068323 -1.041 0.36639 0.66708 0.24518 0.15233 0.6341 -0.6728 0.76983 0.18012 -0.24775 -0.99618 0.090818 -0.37243 1.2074 0.55838 0.10724 -0.17763 0.13564 0.1334 -1.1406 -0.34135 -0.1159 0.2817 -1.017 -0.081083 0.9736 -0.44971 -0.48341 -0.57111 -0.2504 -0.44963 0.32283
scientist 0.97437 -0.88398 -0.26493 0.56192 0.0012279 0.32318 -0.0017719 -0.71059 0.21244 -0.55719 0.040575 0.048617 -0.067447 0.29628 -0.69194 -0.56883 -0.35192 -0.48632 -1.0182 0.92641 0.40735 0.56221 0.14901 0.68781 0.30004 0.59369 0.37919 0.31814 -0.14928 -0.13258 0.86962 -0.2418 -0.22237 0.2312 -1.1054 0.71309 -0.019686 0.66301 -1.2007
season 1.1514 0.54402 -0.90197 -0.41669 -0.9858 0.5835 -0.56379 0.15913 0.86645 -0.39026 0.92115 0.037316 0.055504 -0.61437 -0.78414 0.48042 -0.012972 0.43858 0.72607 -0.33508 0.90494 0.64373 1.2306 -0.95707 -0.51568 0.76059 -0.14341 -0.01049 -0.49545 0.21362 -0.90065 -0.56199 0.11715 -0.62424 0.587 -0.40111 0.44392 -0.31401 1.1755
aircraft 0.76923 -0.41845 -0.35906 0.8075 -0.8981 0.61308 0.23257 0.56694 0.18971 0.60499 0.55169 -0.71557 -0.072287 -0.0083502 1.161 0.10056 0.78212 0.21828 -0.25032 0.047259 1.2197 2.5794 0.49056 0.35126 0.31829 -0.42488 -0.657 -0.43194 -0.0832 -0.30108 0.28665 -1.3116 0.5439 -0.34816 0.23561 0.46441 -0.13664 0.87997 -0.0037035
pacific 0.20552 0.34814 -0.94066 -0.30406 0.10128 0.022532 0.062767 -0.12539 -0.75141 0.82545 0.1113 -0.26833 0.15146 0.054235 0.74138 -0.37313 -0.26483 0.84131 0.039896 -0.70111 -0.42781 2.2507 1.14 -1.2615 -0.017741 -0.10924 -1.0925 -0.66109 -0.081143 -0.56693 -0.15353 -0.67928 1.0407 -0.32517 -0.021228 0.38247 -0.42821 0.73325 -0.40412
trade -0.55616 -0.24898 0.44383 -0.99393 -0.79459 0.43296 0.04844 -0.71495 -0.86286 0.76708 0.56727 0.09236 -0.13466 -0.052757 0.38462 0.50071 0.16092 -0.57431 -0.35717 0.23192 0.59564 2.3063 0.96044 -1.0516 -0.85635 -0.49 0.49853 0.27742 -0.30826 -0.80948 -0.97876 -1.5801 -0.021581 -0.32046 -0.47097 -0.66812 -0.73315 0.34811 -0.12599
athletics -0.34653 0.48056 -1.3551 -0.3521 -0.51917 0.68686 0.32498 -0.951 -0.10309 -0.54048 0.17479 -0.073086 0.54771 0.57253 -1.1762 -0.21289 -0.6181 0.13462 0.55275 -0.32584 0.031514 0.83807 0.98784 -0.9731 -0.12319 0.60356 -0.21119 0.27246 -0.73682 0.15006 0.48013 -0.53055 -0.51125 0.43213 0.40048 -0.34399 0.30981 -0.17369 0.37523
immunity -0.64554 -0.081986 0.18482 -0.77556 0.34735 0.25065 -0.23116 -0.07509 -0.12027 -0.81887 0.85921 0.56784 -0.75198 -0.75226 0.1076 0.86792 -0.94987 -0.14714 -0.13685 0.0055503 0.92162 1.1854 0.85209 0.05714 0.099128 0.80915 0.48422 0.55564 0.14425 -0.21724 -0.6937 -0.91302 -0.21957 0.69744 -0.35026 -0.0083826 0.41937 0.60068 -0.29309
asylum -0.63953 -0.21856 0.61108 0.58341 0.75179 0.078634 0.31314 -0.38272 -0.063859 0.053926 -0.28489 0.72731 0.25237 -0.40085 -0.095098 0.25788 -0.50387 -0.37956 0.53374 0.46089 0.97924 1.6026 -0.44279 -0.53533 0.011797 0.68914 -0.37542 -0.80754 -0.76016 -0.25737 -0.24636 -0.435 0.076928 0.23558 -0.56107 0.55118 -0.34771 0.28469 1.0397
boston 0.60616 -0.37996 -1.2807 -0.10802 -0.45026 -0.38168 0.52805 -0.29295 -0.031682 -0.26679 0.39651 0.13638 -0.21107 0.070236 -0.51574 -0.73617 -0.61508 0.040713 0.533 0.11749 -0.43315 1.1446 0.9002 -1.2236 -0.16951 0.075836 0.36044 -0.75108 -1.0099 -0.20952 0.048011 -0.9528 0.49032 -0.46511 0.046877 0.36507 -0.3767 0.31939 0.39183
weapon 0.77009 -0.22438 0.58913 1.4367 -0.4369 -0.25607 0.23345 -0.95932 -0.40016 0.66236 0.50005 -0.39156 -0.187 0.63142 -0.078574 0.51585 -0.35099 -0.39403 -0.92607 0.44106 1.1181 1.1984 -0.1928 0.29476 0.025797 0.4082 0.48093 0.031266 0.67024 0.44557 -0.34679 -0.7328 -0.47212 0.36631 -0.25055 0.84891 0.3634 -0.10228 -0.36095
springfield 0.43423 0.18892 -0.38495 0.23158 -0.84423 -0.22869 -0.18048 -0.44605 -0.46837 0.29872 -0.34402 -0.40696 -0.019935 1.2083 0.21356 -0.38106 -0.008796 0.0094765 0.53303 -0.29915 -0.54381 0.22793 0.064495 -0.20296 0.0064394 0.12981 0.95885 -0.35642 -0.30095 -0.21878 0.93262 -0.41599 0.27474 -0.0077922 1.0355 0.21853 0.63833 -0.49625 0.4003
pet 0.16879 0.18396 0.62417 -0.23767 -0.5862 0.52779 -0.13605 0.45317 0.3186 0.46484 -0.35507 -0.51706 -0.73807 0.5347 -0.28535 -0.05178 -0.6662 0.73209 -0.34221 0.1526 0.30638 0.6754 -0.065256 0.69389 0.74317 0.88187 -0.29548 -1.0734 -0.0241 0.27129 0.096007 -1.0227 -0.0049869 -0.056739 -0.27251 0.65312 -0.19836 -0.23211 -0.19539
religion -0.2882 -0.98393 0.571 0.50296 -0.012365 0.52527 0.63542 -1.4124 0.41574 0.077298 0.28658 0.40884 -0.20989 0.11836 -0.057143 0.050364 -0.12316 -1.4332 -0.53511 0.63921 0.2794 1.4301 0.036431 0.060694 0.2212 0.87979 0.58127 -0.12393 0.4893 0.54346 -0.70061 -0.798 0.18789 0.4711 -0.34757 0.43477 0.28996 -0.6924 -1.0258
italy -0.20139 0.36966 -0.25451 0.34228 -0.49452 -0.9644 0.61792 -0.84522 0.57194 -0.076681 -0.14779 0.27701 0.46624 -0.73481 1.0047 1.2234 -0.58175 -0.21793 0.69001 0.43628 1.0221 0.89965 0.49407 0.019445 0.26784 0.23343 -1.0096 0.55367 -0.31111 0.44332 -1.2125 -0.095157 0.45307 -0.91525 -0.73779 0.67259 0.082787 0.26177 0.025906
alternative 0.010014 -0.30658 0.078135 0.60109 -0.17519 -0.44593 -0.16573 0.54014 0.45362 0.14517 -0.85633 0.54759 -0.27949 0.77853 -0.56577 -0.22991 0.1755 -0.20578 -0.64871 0.02383 0.30649 1.5062 0.28792 -0.12142 -0.070867 1.532 -0.23738 -0.29974 -0.26533 -0.14078 0.41034 -0.40841 -0.28682 0.67135 -0.21882 -0.25384 -0.028274 -0.0068008 0.060652
forest -0.13243 0.73563 -0.40207 -0.5769 -0.20483 0.26341 -0.42977 -0.26586 0.47824 -0.11281 -0.093104 -0.23002 -1.2648 -0.36222 -0.34484 -0.27788 0.096147 0.43127 -0.034062 -0.034357 0.74702 1.308 -0.050792 0.43306 -0.12208 0.86892 0.73954 -0.30585 0.89918 -0.49852 0.32606 -0.47404 0.073757 0.095009 1.5468 -0.58513 1.3002 0.049069 0.026521
apollo 0.12887 0.14064 -0.51 0.19684 0.056127 0.46549 0.36801 0.55465 0.60498 -0.04102 0.0018488 -0.078733 0.2736 -0.059206 -0.019531 -0.066504 0.84594 0.024337 0.19789 -0.325 0.057099 0.77849 0.33878 -0.31088 0.43438 -0.46419 -0.18839 -0.58271 -0.66864 0.26695 0.50387 -0.9129 0.7579 0.44579 0.026885 0.62797 0.33652 -0.13487 -0.14928
palestinians 0.073253 0.22102 1.3155 0.25628 0.030102 1.1074 0.085584 -1.6326 0.5944 0.92048 0.66679 -0.067995 0.59391 -0.1546 0.36531 0.88475 0.42328 -1.1716 -0.98566 0.43712 2.1018 0.63415 0.1059 -0.16944 -0.14567 0.95027 0.54334 0.20383 -1.1896 -0.42037 -0.030064 -0.9415 0.57439 0.93433 0.2853 -0.69784 -0.72045 0.38628 1.1708
republic -0.23687 0.23691 0.10656 0.39857 -0.37444 0.1198 0.65174 -0.57365 -0.53491 0.18051 0.073078 0.59768 0.61239 -0.33218 1.3366 0.76334 -0.34819 -0.64554 0.43592 -0.14303 0.74172 1.7581 0.67514 -0.025401 -0.47358 0.47885 -0.46694 0.50967 -0.40032 0.023728 -0.10292 -1.3198 -0.30684 0.19522 -0.69718 -0.10087 0.72913 0.41098 -0.45533
food 0.057221 0.14601 0.40202 -0.28858 -0.56369 0.27037 0.51702 -0.87284 -0.062587 0.043016 -0.25194 -0.43112 -1.1396 0.092425 0.39978 -0.58893 -0.85088 0.4219 -0.26712 0.55075 0.74411 2.3525 -0.15421 0.39833 0.080708 0.97057 0.20899 -0.70564 -0.071761 0.62856 -0.69127 -0.93347 0.70845 -0.3639 -0.44699 0.37019 -0.50354 -0.35776 -0.067904
threats -0.72995 -1.0204 0.057885 0.55256 0.036987 0.147 0.47086 -1.2032 -0.27358 -0.042571 -0.12292 0.095137 -0.065935 0.079466 0.17431 0.10406 0.2565 -0.083646 -0.57544 0.60815 0.99635 0.95658 0.078443 -0.43748 -0.29862 0.80472 0.31397 -0.33695 -0.19836 -0.70425 0.45221 -1.2333 0.075125 -0.37873 -0.56673 0.2065 0.082556 0.47605 0.12842
coin -0.015847 0.32968 -0.063392 -0.41821 0.31545 -0.40512 0.57306 0.35254 -0.8479 0.26284 1.1529 1.0104 0.20178 -0.31181 -0.97565 0.12225 -0.62752 -0.27431 -0.82369 -0.020388 0.60815 0.80728 0.27806 0.28231 0.33321 0.22638 -0.54287 -0.25497 0.22678 1.0635 -0.49847 -0.9015 -0.75569 -0.64421 -0.47087 -0.015975 -0.40056 -0.34135 -0.29859
perjury 0.17176 0.087975 0.17384 -0.13156 1.3516 -1.3611 1.0383 -0.66889 -0.47853 -0.6308 -0.39812 -0.084342 -0.38641 0.024309 0.12435 0.88764 -0.57559 -0.47434 -0.51878 0.67361 0.7432 0.53625 0.73566 -1.1935 -0.15078 0.37607 1.7919 -0.15949 -0.25467 -0.30273 0.42103 -0.46704 -0.37501 -0.39447 -0.38331 -0.52432 0.070239 0.18809 -0.34171
intelligence -0.35372 -0.70531 0.084464 0.88768 -0.41641 0.36703 0.60834 -0.86764 0.34833 -0.29865 -1.2564 0.29402 0.086692 0.31915 -0.79353 0.045172 0.58118 -0.47237 -0.22823 1.0845 1.5825 1.3285 0.48737 0.17115 0.51749 0.23246 -0.31772 0.76459 -0.13554 -0.97654 -0.17109 -1.1941 -0.18596 0.22696 -0.45574 -0.37083 0.22161 0.23286 -1.0727
extended -0.1956 0.66671 -0.73126 -0.51953 -0.11109 0.46571 -0.23406 -0.17609 -0.17981 0.35061 0.18041 -0.45543 0.12294 0.13048 0.43561 0.71195 0.28722 -0.24248 1.1322 -0.20569 0.70609 1.6643 0.62522 0.017738 -0.14721 0.6459 -0.42376 -0.32667 0.046624 -0.54888 -0.44891 -0.53701 -0.013572 0.63415 0.30902 -0.18521 -0.1561 -0.14009 0.15281
costume -0.027619 0.74504 -0.28528 0.78003 -0.71526 0.19577 0.063291 0.22833 0.060224 -0.50157 0.48452 -0.4572 -0.13705 -1.1866 -0.22597 -0.20977 0.4653 -0.15163 0.065334 -0.0061532 0.58263 0.14833 0.3395 0.24431 -0.097522 0.27972 0.16229 -0.016695 -0.32252 0.46436 -0.54967 -0.01637 -0.44267 -0.2002 -0.16892 0.58673 -0.7074 -0.19957 -0.14437
mountain -0.18627 0.64247 -0.50697 -0.67281 0.50306 0.20075 -0.23043 -1.1056 0.036661 0.17478 -0.53874 -0.56493 -0.56563 -0.30574 -0.067653 -0.15899 -0.29198 0.42914 0.6806 -0.85985 0.73039 1.6809 0.30555 0.72495 0.47214 0.27802 0.53154 -0.66747 0.084124 0.27703 0.56838 0.14842 -0.88688 0.094083 0.9043 -0.20848 0.93306 -0.212 -0.09229
english 0.029171 -1.0811 -0.43389 0.50238 -0.62341 0.16262 0.71884 -0.30793 0.72563 0.15083 0.48439 -0.064146 -0.10334 0.26119 -0.83917 -0.69166 0.12135 -0.018173 0.45907 -0.10849 0.36329 0.80457 0.20743 0.47796 -0.83575 0.65499 0.035596 -0.69975 0.86352 -0.74666 0.012201 -0.67234 -0.099388 -0.37342 0.028452 0.02899 0.87748 0.12113 -0.23581
tenor -0.42837 -1.094 -0.62103 -0.081135 -0.37628 -1.2546 0.57005 0.39522 0.33637 -0.25905 0.21914 -0.2718 0.41684 0.38004 0.98404 0.81874 0.95096 -0.068247 -0.13795 -0.38678 0.14663 -0.55767 1.1803 0.63026 -0.21431 -0.72792 0.32744 0.21363 0.16995 -0.30283 -0.51249 1.639 0.2233 -0.19721 -0.44387 -0.86621 0.26388 0.66729 -0.79326
rhodes 0.6079 -0.74485 -0.62342 -0.21504 0.019904 0.22234 1.0749 -0.17429 0.35078 0.071994 0.35916 -0.77573 0.11881 -0.21804 -0.57489 0.11029 -0.11831 0.042444 0.28445 -0.34632 -0.51269 -0.17675 1.0702 -0.20791 -0.32538 -0.0078727 0.72197 -0.70116 -0.10931 0.28462 -0.22093 0.081109 -0.71341 0.98028 -0.14242 0.47691 -0.3246 0.46735 0.62338
extracts 0.48087 0.32898 -0.11453 -0.25162 0.48924 -0.19316 0.29799 0.75096 -0.21426 -0.28516 -0.21366 0.37251 -0.19264 0.60718 0.054362 -0.4101 -0.062583 0.042922 -0.10847 0.46721 0.26944 -0.17389 -0.066931 0.41722 -0.082383 0.54449 0.71959 -0.078222 0.69189 -0.28977 0.34461 -0.84963 0.40291 -0.4004 0.63565 -0.089483 -0.042894 -0.33741 -0.99153
ship 0.45003 0.035466 0.067024 0.49851 0.6606 0.50062 0.23956 -0.20526 -0.028385 0.89669 0.39525 -1.7402 0.53652 -0.084067 0.12256 0.020607 0.038937 0.53705 0.45976 0.73131 1.1158 1.9533 0.4521 -0.42491 -0.27821 -0.011544 -0.64076 -0.2096 0.5549 0.19193 0.225 -0.69782 1.2222 -0.97585 -0.56321 0.83752 -0.22346 -0.018123 -0.24275
mud -0.10315 0.25175 0.32799 0.017283 0.50284 0.80501 8.1658e-05 0.57952 -0.025881 0.11752 -0.37761 -0.95933 -0.14982 -0.21095 -0.58642 -0.79663 -0.7266 0.49647 0.20357 -0.77978 0.65539 1.0221 0.77531 -0.22583 0.32335 0.83398 0.76284 -0.15373 0.32611 0.53144 0.49407 0.17191 -0.03089 0.25341 0.3597 -0.51066 0.81809 -0.8832 0.048975
plates 0.27525 0.6659 0.33873 0.18017 -0.43867 0.62728 1.0309 -0.063718 -1.1511 0.39839 1.0423 -0.081091 0.1898 -1.0116 0.25389 -0.082881 -0.88067 -0.23603 -0.29362 0.30211 0.89148 1.2439 1.0405 -0.40517 0.64667 0.70196 -0.19406 -0.69692 1.2629 0.37991 0.5715 0.24774 0.22246 -0.43574 -0.87705 -0.23849 -0.67299 -0.46637 -0.62589
drawing -0.49917 0.14647 -0.21055 -0.12147 -1.1147 -0.23546 -0.45078 0.40384 -0.13627 -0.081286 0.51159 -0.4561 -0.19181 -0.7119 -0.23476 -0.065514 -0.20363 -0.73215 0.043143 0.13911 1.282 0.92468 0.039217 0.30177 -0.25306 0.50823 -0.040206 -0.19442 -0.093539 -0.30246 0.043951 -0.72932 -0.69006 -0.16667 -0.39924 0.28395 -0.10059 -0.33481 0.15575
poet -0.01631 -1.6979 -0.50994 0.075101 -0.37313 -0.15497 -0.35422 -0.92789 1.0254 0.022193 0.76219 -0.55266 1.1613 0.068634 -0.45886 0.2204 -0.019674 -0.6409 0.28033 0.48539 0.31209 -0.26283 0.36968 0.78258 -0.65171 0.56594 1.3027 0.11131 0.25621 -0.03738 0.60584 -0.15815 -0.18087 0.011496 -0.89389 0.051289 0.37667 0.51784 -1.2888
farley -0.28196 0.38908 0.59364 -0.30171 -0.53974 0.063769 0.29533 -0.2905 0.41685 0.58423 0.23886 0.11805 -0.155 0.66809 0.26696 -0.36728 0.59132 1.1067 -0.18339 0.03364 -0.088751 -0.63737 -0.22302 0.068901 0.40935 -0.15948 0.13196 -0.31725 -0.43728 -0.19972 -0.14704 -0.66095 -0.087207 -0.13768 -0.83534 0.26122 0.12849 -0.18199 -0.22266
relay -0.42428 0.39903 -0.33312 0.44004 0.71014 0.49546 -0.2427 -0.29695 -1.2401 -0.28653 0.27331 0.15861 1.2648 -0.14972 -0.80569 -0.16031 -0.29236 -0.21556 0.48643 -0.35358 0.65621 0.99079 0.14438 -0.87991 0.75541 0.35236 -0.26716 -0.58656 -0.15139 0.26714 0.97568 0.29472 0.26109 0.38579 0.38786 0.073223 0.31835 -0.19625 0.37293
animal 0.11117 -0.085524 -0.13056 -0.74412 -0.10143 0.89751 -0.066392 -0.079865 0.26122 0.54656 0.22806 -0.23035 -0.699 0.68517 -0.63929 -0.53772 -0.52698 0.18891 -0.82934 0.61774 0.86424 1.3397 0.16629 0.68787 0.31441 1.5333 -0.13868 -0.18159 0.31648 0.18079 -0.29204 -1.0866 0.23721 0.044727 0.41954 0.62314 0.30602 -0.24754 -0.6734
chronicle -0.010742 -0.031548 -0.48514 -0.28956 -0.54424 0.10133 -0.16326 -0.21625 0.014876 -0.6766 -0.2221 0.79001 -0.13263 -0.15438 -0.39017 -1.0026 -0.44515 -0.43556 0.93827 0.85477 -0.45147 0.8528 0.36716 -0.2147 -0.49476 0.71777 0.60073 -0.37508 -0.12561 -0.07429 0.058267 -1.6109 0.24109 -0.55132 -0.057951 0.50102 -0.51732 0.33742 -0.5865
composer 0.041145 -1.1241 -0.89369 0.37007 -0.48917 -0.54438 -0.23344 -0.24743 1.0331 -0.85737 0.58553 -0.28024 1.1781 0.11125 0.91228 0.22608 1.1534 -1.2351 0.037121 -0.25205 -0.15672 -0.19677 0.68902 0.88673 -0.26211 0.41914 0.92868 -0.31084 0.045569 0.4767 -0.18839 0.54596 0.23973 0.19575 -0.7035 0.1998 0.41762 0.72366 -1.2125
actor -0.55205 -0.59301 -0.47014 -0.031901 -0.38634 0.01707 0.13164 0.38118 1.9534 0.1561 1.3215 0.3034 0.84957 0.040226 0.36107 0.17481 0.31874 -0.38143 -0.34601 -0.41587 1.0128 -0.26143 0.094743 0.26976 -0.27021 0.3809 1.1302 -0.01499 -0.31073 0.47966 -0.00707 0.28075 -0.49213 -0.10478 -1.1412 0.16096 0.17815 1.0138 -0.30356
citizenship -1.1777 -0.42036 0.78603 0.69615 0.5661 0.07904 0.49388 -0.50018 0.29568 -0.78827 0.24023 0.64942 0.51763 -0.79203 -0.26975 1.0496 0.047322 -0.91414 -0.027063 0.12776 1.2438 1.6564 -0.047715 0.15985 0.26517 0.88853 -0.025676 -0.71115 -0.018394 0.079241 -0.66379 -0.99895 0.10567 0.28709 -0.79945 0.65709 0.38505 0.042765 0.50136
funeral -0.36508 0.63788 -0.37519 0.29886 0.63044 0.61755 0.29606 -0.36696 0.48248 -0.26066 0.28299 -0.75642 0.471 0.13943 0.3931 0.82097 -0.098848 -0.45484 0.20189 0.63612 0.085912 1.2262 0.61977 -0.10037 0.82826 -0.12014 0.0036017 -0.68032 -0.076399 -0.38635 0.64056 -0.1123 -0.24054 -0.17178 -0.37016 0.46942 1.0534 -0.54333 0.008233
casey -0.11762 -0.14831 -0.35694 -0.0050219 0.025623 0.11951 0.24805 -0.87684 0.61284 0.33511 0.24556 0.38919 0.51436 0.40009 -0.89079 0.54128 0.49309 -0.24234 0.10635 -0.027713 -0.23025 -0.39255 0.42851 0.22523 0.82428 0.22895 0.034355 -0.2075 -0.98417 -0.48614 0.3166 -0.61288 -0.010566 0.14081 -0.31358 -0.21229 0.4273 -0.045421 -0.028992
coordinator 0.95781 0.27534 -0.407 -0.0744 -0.70357 0.43373 0.14094 -1.4086 0.28043 -1.1306 -0.178 0.034112 -0.0079252 0.068417 -1.0023 0.55163 0.17871 0.19972 -0.73682 0.092635 0.022439 0.39858 0.4559 0.12273 0.24827 0.4194 0.047193 0.55654 -0.83771 -0.26383 -0.79866 0.081128 -0.1783 0.76416 -0.52967 0.12709 0.52365 0.59969 0.77674
libya 0.098798 0.88493 0.12433 0.13748 -0.15578 0.26889 0.83863 -0.39327 -0.17843 -0.44026 0.15584 -0.21129 0.27592 -0.46545 0.86287 0.84253 -0.1827 -0.21319 -0.064036 -0.0088548 1.4857 0.8876 -0.19353 -0.18608 -0.19484 0.52005 -0.51128 0.69411 -0.28447 -0.20662 0.404 -0.20068 0.29753 0.55889 -0.50587 0.0046505 -0.45853 0.40318 0.11158
poles -0.76681 0.12617 -0.16097 -0.14976 0.0060437 0.37877 0.083557 -0.19656 -0.17352 0.37783 1.1447 -0.14498 1.1437 -0.45132 1.0918 0.1644 -0.44807 -0.80564 -0.39499 -0.22584 1.4365 1.1898 0.39229 0.11033 0.045702 0.3772 -0.24672 -0.65324 0.59278 0.19298 1.177 0.27744 0.7447 -0.26113 0.035889 0.36692 0.27029 -1.0296 0.36603
neutral -0.14814 -0.14615 -0.68526 0.31882 -0.057425 0.14159 -0.072444 0.51353 -0.39777 0.38048 -0.32091 -0.54786 -0.027817 0.89241 0.5625 -0.32454 -0.3499 -0.39364 -1.3312 0.47559 0.68365 1.471 -0.20166 0.045613 -0.32697 0.9668 -0.12976 -0.015856 0.24645 0.18674 -0.14293 0.1976 0.57154 0.34247 -0.7667 -0.1583 -0.37053 0.73701 0.35373
sentenced 0.096108 0.46618 -0.40273 0.80171 1.1322 -0.015192 0.36637 -1.4744 0.68203 0.72764 -0.19232 0.30112 0.52738 1.1806 -0.0039227 1.0711 -0.39183 0.25199 0.35485 -0.14435 1.6351 1.2949 0.70877 -0.49041 -0.92297 0.065138 0.64018 -0.40821 -0.27773 0.85735 0.01847 -0.24065 0.025323 -0.022992 -0.33584 -0.081171 -0.14799 0.41982 -0.42937
classics 0.79063 -0.62831 -0.82775 -0.09383 0.037844 -0.02893 0.75357 0.44359 0.55315 -0.02361 0.33697 0.20099 -0.1195 -0.027985 -0.1252 -0.91478 -0.17182 -0.3308 0.47834 0.12281 0.066158 0.67302 0.53631 0.27958 -0.49681 0.32891 0.29909 -0.028127 0.14582 0.5083 -0.032867 0.18971 0.87792 0.57484 0.36107 0.027645 0.2259 -0.92817 -0.39305
war -0.18961 -0.81103 0.17359 -0.017903 -0.35961 0.16133 0.40454 -0.85926 -0.44406 0.89111 0.36994 -0.70059 0.88317 -0.40334 0.25491 0.29233 -0.37992 -0.54725 -0.1322 0.26397 1.7453 1.7781 0.60787 0.16995 -0.053037 1.0207 -0.11157 0.83537 -0.77896 0.21978 -0.13605 -1.7038 1.0149 0.30523 -0.70008 0.08678 0.9448 -0.39687 0.4731
species 0.43925 -0.272 -0.46751 -1.247 0.48755 0.90707 -0.24055 0.24016 0.77985 -0.07757 1.1568 0.47588 -0.14 0.89225 0.10827 -0.09568 0.36659 0.66888 -1.7511 0.30283 0.89019 1.2187 0.44341 -0.48604 0.31178 2.0035 -0.63591 -0.5004 -0.00082271 0.22116 -1.0332 -0.65083 -0.19029 -0.29222 0.91766 0.43394 -0.3976 0.68147 -1.2621
ashes 0.11068 0.33163 -1.1695 0.28746 0.11384 0.34398 0.32093 0.084073 0.46963 0.42671 0.81305 0.50452 0.061665 0.12628 0.10572 0.64541 -1.1298 0.4117 0.34515 0.3187 0.91836 0.13719 -0.097788 -0.4476 0.4287 0.56969 0.11066 0.63435 0.25273 0.075982 -0.50448 -0.68159 0.28192 -0.81391 1.36 0.60319 1.1395 -0.54277 0.50484
gulf -0.26169 0.10548 -0.045818 0.19478 -0.91395 0.42229 -0.3187 -0.34603 -0.36812 0.43028 -0.16743 -0.74978 0.80936 -0.02732 0.16165 -0.21397 -0.20648 0.35181 0.00044506 -0.3342 0.47502 1.4295 1.0674 -0.32446 0.59947 0.39767 -0.77086 0.60903 0.09754 -0.25381 0.24233 -0.39179 1.1899 -0.0017696 -1.1057 -0.62732 -0.3937 1.027 -0.00010135
jazz 0.99384 -0.58364 -1.1905 -0.24136 -1.0558 -0.96272 -0.19285 0.017947 0.67614 -0.41483 0.30065 -0.25869 1.1073 0.065268 0.68263 -0.29111 0.5355 -0.60151 0.70735 -0.66 -0.7931 0.71597 1.4043 -0.092476 -0.50541 0.19626 0.56358 -0.59002 0.20968 0.75808 0.084428 0.71128 0.12011 0.77156 0.5729 -0.74755 -0.031552 -0.15051 -0.64191
episcopal -0.3828 -0.096737 0.043187 -0.24343 -0.49098 1.0642 1.4508 -0.67214 -0.1566 -0.12439 -0.49322 0.28143 0.72019 0.58583 -0.58638 0.91245 -0.49142 -0.09398 0.093139 0.17793 -1.1181 0.54822 -0.048079 -0.077671 1.1358 -0.61804 -0.72782 -0.16599 -0.067669 -0.68082 -0.20578 -0.27411 1.2238 -0.46979 -0.57662 -0.11441 0.79584 -0.50761 -0.40189
horse 0.2165 0.42365 -0.30057 -0.62318 0.83691 0.90121 -0.59203 0.20911 -0.019158 0.75972 0.62395 -1.0596 0.28037 0.051358 -1.2037 -0.057095 -1.3353 -0.098484 0.49266 -0.60598 0.69696 1.0389 0.18459 0.43204 0.52371 1.1042 -0.53926 -0.32235 0.096931 0.34555 0.24622 -0.51114 0.4452 -0.28827 -0.20881 0.26464 0.40334 -0.5935 -0.13857
troubles -0.36973 -0.75537 0.36689 -0.2507 0.49959 0.12664 0.77316 0.27755 -0.33501 -0.2356 -0.34132 -0.34073 -0.19602 0.0099419 0.35777 0.087141 -0.53823 0.16911 0.56153 -0.011563 0.80096 0.26298 0.83822 0.005654 -0.051324 0.46093 0.15001 -0.32997 -1.0893 -0.1936 0.055967 -0.70468 0.27574 -0.56645 -0.52325 -0.47856 -0.39753 0.55222 0.033411
physician 0.44834 -0.72826 -0.87357 -0.24907 -0.60645 0.68258 0.21194 -0.78961 0.086156 -0.97068 -0.47087 -0.025736 0.016265 0.10582 -1.0344 0.41372 -0.90001 -0.53343 -0.32054 0.26201 0.040913 0.85314 0.33342 0.76763 0.6882 0.48898 0.023043 -0.56904 -0.11337 0.26293 0.19881 -0.29955 0.14175 -0.22057 -0.64694 0.9815 0.23193 0.67403 -0.63909
painting 0.034481 -0.20694 0.079248 0.22216 -0.15143 0.29096 -0.23989 0.68654 -0.028725 -0.59672 0.56571 -0.42752 -0.34309 -0.94679 -0.25661 0.054065 0.24171 -0.33271 0.19215 0.18966 0.96175 0.53309 0.020642 0.62781 -0.19424 0.55546 0.7699 -0.063074 0.47616 0.40084 0.051514 -0.40658 -0.13778 -0.25387 -0.88503 1.2362 0.19475 -0.53224 -0.80953
birds -0.093094 -0.10252 -0.33867 -1.4495 0.073588 1.2571 -0.053397 0.44377 0.12407 0.29682 0.90437 -0.2977 -0.6115 0.94656 0.22675 -0.67117 -0.35781 0.33266 -0.44973 0.88634 0.58124 0.9309 0.23181 -0.28907 0.99537 0.99812 -0.87189 -0.48756 -0.035253 0.21656 -0.74332 -0.24132 0.051074 -0.46304 1.7096 0.96906 -0.73862 0.015946 -0.2765
winter -0.062413 0.47955 -1.2093 -0.48105 -0.71598 0.96647 -0.11323 -0.30567 -0.27979 -0.36918 -0.46516 -0.73008 0.098242 -0.57056 0.034849 -0.090068 -0.044219 0.41123 1.0377 0.20212 0.57141 1.221 0.23555 -0.2984 -0.27097 1.0842 0.0017561 -0.12513 -0.71101 1.0501 0.21686 -0.53517 -0.021709 0.24296 0.50138 0.53211 0.14845 0.031699 1.179
patterns 0.055114 0.14894 -0.63652 0.10204 -0.13055 0.74374 -0.11088 0.45015 -0.59147 -0.58974 -0.036876 0.37538 -0.57432 -0.67159 -0.064604 -1.0238 0.057982 -0.074399 -0.29742 0.67383 0.90269 1.0512 0.91252 -0.55722 0.30433 0.38149 0.020965 -0.29328 0.23998 -0.27479 0.26605 -0.16717 -0.08771 -0.45591 0.45171 0.1421 -0.39178 -0.35661 -0.99304
music -0.055009 -0.18909 -0.42828 0.28443 -0.61978 -0.39817 0.19127 0.20159 0.91107 -0.48977 0.070414 0.42234 1.0722 0.26426 0.22331 -0.89025 0.87442 -0.71175 0.99049 -0.25777 -0.33757 1.6375 1.0263 0.89573 -0.37709 0.16339 1.0987 -0.26906 0.33826 0.1715 0.064417 0.10946 0.12298 0.1459 -0.055542 -0.45362 0.20519 -0.039972 -0.50523
pollution -0.66874 0.078215 0.064074 0.52787 -0.040001 -0.63734 -0.95037 0.050948 -0.37553 0.15012 -0.42924 -0.67194 -0.62653 -0.33867 0.29256 -1.0819 -0.34526 0.85969 -0.70523 0.72317 1.0153 1.4188 -0.10037 -0.23581 -0.5073 0.99164 0.40456 -0.053213 0.64013 0.74503 0.58428 -0.7677 0.19558 0.7303 0.60649 -0.67918 -0.34119 0.88328 -0.46379
gun 0.26372 -0.1069 0.40407 0.3159 -0.16844 -0.36208 0.32007 -1.0186 -0.4615 1.3767 0.36636 -0.71736 -0.34027 0.12993 0.0069813 0.23169 -0.33639 -0.9194 -0.27829 -0.02531 1.2622 1.7419 0.073854 0.51394 0.031719 0.2822 0.63332 -0.031653 0.71888 0.46371 -0.092197 -1.2758 -0.48258 -0.33513 0.05047 0.16588 0.2407 0.031007 0.26926
hell -0.22885 0.19404 0.080844 -0.42787 0.36163 0.026079 0.66047 -0.85346 0.36563 0.74206 0.17988 -0.4734 0.58275 -0.31414 -0.72073 -0.35468 -0.39549 -0.43826 0.085147 -0.27726 0.74383 0.36476 0.27876 0.54375 -0.57665 0.89172 0.56373 0.27695 0.20954 0.20011 0.6234 -0.024981 0.25302 0.33391 0.075478 0.2188 0.4501 -0.94033 0.54191
battle -0.057218 -0.8538 -0.32432 -0.2992 0.25648 -0.25679 -0.41699 -0.27982 -0.30729 1.3056 0.11837 -0.55879 0.3517 -0.54546 -0.55921 -0.069432 -1.1398 -0.098333 -0.055157 0.044598 1.3856 0.69257 0.71232 -0.24947 0.18416 0.22476 -0.78455 0.48766 -0.6938 0.3709 -0.36119 -1.059 0.6525 -0.29979 -0.14654 -0.11466 1.3754 -0.1609 0.40528
villa 0.22361 0.55865 -0.19119 0.22625 -0.50436 -0.41321 -0.23916 -0.071595 1.0688 0.35797 -0.42561 -0.14854 -0.88095 -0.6468 0.058557 0.66882 0.050615 -0.032895 0.99851 0.29373 0.71197 -0.59329 0.057339 -0.70846 -0.50866 -0.3897 -0.17835 0.20975 0.33513 -1.7789 0.22112 -0.57378 -0.597 -0.16853 -0.92484 0.45326 0.86451 -0.47859 0.45467
vietnamese -0.35629 -0.7237 0.73885 -0.20207 0.55098 0.56958 0.50722 -0.18256 -0.27425 0.90529 -0.61208 0.59011 0.30291 -0.3957 0.39161 -0.082447 0.42271 -0.006915 -0.78544 -0.61953 0.40823 1.9907 0.018727 -0.36025 -0.16969 -0.30196 -0.38908 0.78137 -0.15695 -0.051008 -0.65404 -0.38028 -0.075186 0.10864 -0.39409 0.078205 0.0031126 -0.34108 -0.64791
program 0.63995 1.2034 -0.015173 0.60126 0.22571 -0.056679 0.021699 -0.51872 0.11518 -1.3503 0.24479 -0.31349 -0.80788 0.10206 -0.38951 -0.56254 0.83883 -0.51916 -0.35344 -0.25654 0.79088 2.3399 0.3104 0.23058 0.47406 0.83825 -0.22878 0.55738 -0.63351 0.29862 -0.081652 -0.91146 -0.49771 0.81813 -0.20847 0.11144 0.29421 -0.10217 -0.22827
rapid -0.069619 0.39021 -0.29781 0.075921 -0.39847 -0.32245 -0.27562 0.30226 -0.36686 0.24715 -0.54547 -0.10005 0.34276 0.09217 1.0058 -0.36883 0.056149 0.14335 0.55604 0.20101 0.52065 1.2999 -0.18835 -0.44921 -0.17586 0.60356 -0.5727 0.16442 -0.24103 -0.63679 -0.037876 -0.57589 0.6636 -0.3368 -0.20356 -0.56576 0.35318 -0.68125 -0.26395
sentence -0.3291 0.49896 -0.79062 1.0131 1.3584 -0.66751 0.42515 -0.74469 0.34275 0.29674 0.38765 -0.079742 -0.041216 0.73005 0.12919 1.2141 -0.25545 0.16637 -0.11174 0.98993 1.4242 1.774 0.58555 -0.13339 -0.74275 0.91011 0.3968 0.22723 0.49876 0.34991 -0.094294 -0.40376 -0.81079 0.12919 -0.35566 -0.24789 -0.2434 0.11735 -0.25014
admiralty -0.86522 -0.11047 -0.47946 0.2085 -0.085627 -0.67473 0.5732 -0.26926 -0.83323 0.083547 -0.072915 -0.31334 -0.26408 -0.24635 -0.49405 -0.4964 -0.76559 0.63398 0.6726 0.61922 0.42823 0.85224 0.15309 0.0040195 0.24053 0.28242 -1.2415 -0.52592 0.94639 0.0071702 -0.60566 -0.84356 0.95633 -0.69627 -0.60432 -0.18658 0.16534 0.0086901 0.06793
albert 0.76499 0.11576 -0.62231 -1.0832 0.50775 -1.0025 0.78744 -0.76135 0.46062 -0.39002 0.33325 0.43328 0.79717 0.2593 -0.32331 0.045118 -0.34916 0.050504 0.39407 0.32732 -0.012683 -0.02691 0.032698 0.57398 0.4482 0.82259 0.095059 -0.51241 -0.20749 -0.7562 0.34945 -0.26917 -0.15023 -0.27253 -1.0209 0.015441 0.66401 0.57714 -0.628
sydney -0.65636 0.93884 -0.86015 0.15217 -0.10615 -0.28525 0.21211 -0.4678 -0.49004 0.29481 0.36123 0.34478 -0.00070019 0.48279 -0.32621 -0.31798 -0.22195 1.0458 0.88378 -0.020412 0.064586 0.72574 -0.37418 -0.88697 -0.81929 -0.034393 -0.24599 -0.95285 -0.46809 0.095131 0.9899 -0.42851 0.36111 -0.68649 0.78862 0.75965 0.40019 0.87698 0.51872
feet 0.17908 0.53598 -0.67531 -0.25617 0.38315 0.59207 -0.35442 -0.60163 -0.64309 0.44168 1.5493 -0.74889 0.66424 -0.16505 -0.066414 0.041523 -0.11282 -0.0154 -0.38055 -0.11718 1.5202 1.7632 0.11371 0.69496 0.023372 -0.1937 0.52118 0.41396 0.49558 0.11818 0.068321 0.1692 -0.28809 -0.51515 0.62248 -0.43029 -0.40036 0.16814 -0.20935
year 0.60307 0.71816 -0.41382 0.15157 -0.012905 0.24569 -0.02638 -0.39723 0.25608 0.39144 0.51744 -0.07987 0.078489 -0.49301 -0.39673 0.48853 0.037437 0.02585 0.026895 -0.13284 1.1715 2.0011 0.59575 -0.36505 -0.45694 0.18904 0.060091 0.46051 -1.0912 0.14487 -0.26793 -1.4872 0.31571 -0.18781 -0.32081 -0.42656 -0.080083 0.28568 0.38253
murdered 0.16661 0.31748 0.31847 0.12755 1.1052 0.85644 0.65046 -1.3 0.94356 0.72653 0.31956 -0.099006 0.89531 0.57031 -0.18342 0.59146 -0.088012 0.0031416 -0.073747 -0.11024 1.1175 0.2891 -0.066017 0.084728 -0.34042 0.52709 0.38322 0.057992 -0.12158 0.44461 0.53082 -0.52568 0.055227 -0.6426 -0.6856 0.89357 0.49323 -0.15554 0.25213
beethoven 0.65427 0.17386 -1.0827 -0.59787 1.0251 -0.9499 0.4032 0.094271 0.1174 -0.13596 0.48978 -1.029 1.2478 0.27227 1.0225 0.0033735 0.61487 -0.81941 0.17671 -0.15456 -1.0491 -0.12226 1.3352 0.15599 0.11303 0.18212 0.70717 0.37849 0.38197 -0.022611 -0.22366 0.28065 0.049923 0.25852 0.66542 0.73767 0.63923 -0.37083 -1.0982
taxation -1.3471 -0.025653 0.25667 0.044131 -0.014551 -0.20816 0.52732 -0.28839 -0.50579 -0.17367 -0.45012 0.46141 -1.044 -0.99749 -0.47377 -0.19088 0.34258 -0.69956 -0.36837 0.27819 0.50564 1.2142 0.31387 0.1028 -0.49443 0.38655 -0.49924 -0.1435 0.73913 -0.1102 -0.18407 -1.0677 -0.080614 0.50555 -0.81241 -0.42044 0.16749 -0.027832 -0.091623
amateur 0.41049 -0.35582 -1.0406 -0.32029 -1.1189 0.6552 -0.43594 0.48292 0.38718 -0.5336 0.58301 0.17762 0.54385 0.17369 -1.2907 -0.39546 -0.19467 -0.39276 0.16895 -0.72706 0.18802 0.85207 1.0082 -0.10145 -0.10309 0.26489 -0.061047 0.34891 0.49843 0.44402 0.84112 -0.5628 -0.20498 -0.2521 0.30494 -0.25662 0.432 -0.13274 -0.15276
killed 0.67093 0.26292 0.29039 0.72238 0.85216 1.4705 0.16671 -1.7475 1.208 1.9228 0.012306 -0.49504 0.55823 0.14486 -0.16163 0.95288 -0.20836 0.42708 -0.46172 -0.45441 1.7379 0.98696 0.96246 0.25442 0.47354 0.23264 0.00088276 -0.25458 -0.19932 0.23557 0.70762 -1.779 -0.17508 -0.22169 0.064905 0.15229 0.2743 0.55766 0.018847
soil -0.28465 -0.083959 -0.61903 1.0266 -0.11564 0.39104 0.051559 -0.33239 0.21759 -1.038 -0.53542 -0.09102 0.50191 -0.35316 -0.46107 -0.46745 -0.096924 -0.12674 -0.34956 0.46139 1.4988 1.8158 -0.064851 0.14847 0.018506 1.7394 0.56411 -0.025836 0.30505 0.1611 0.24775 -0.25511 0.58232 0.17969 0.84022 -0.30441 0.76626 0.24776 -0.405
government -1.2929 0.036583 0.3522 0.52552 0.47173 0.31009 0.29828 -0.2429 -0.079745 0.39269 -0.90875 -0.098991 -0.25513 -0.32609 0.15249 0.5829 0.11308 -0.49196 -0.22613 -0.023165 1.5924 2.587 0.6543 0.15131 -0.54288 0.90566 -0.33104 0.43332 -0.69915 -0.97821 -0.53922 -1.8925 -0.099782 -0.026727 -1.0249 -1.042 0.17089 0.20341 -0.40402
concrete -0.86749 0.30452 0.3958 0.67427 -0.12702 0.27115 0.38503 -0.15739 -1.1069 0.059485 0.26359 -0.097165 -0.43787 0.051191 0.1347 0.46415 0.090747 0.10968 -0.81151 0.16064 1.2968 1.4571 0.080072 -0.62372 -0.97909 0.79058 0.18382 0.18824 0.53303 -0.29916 0.84499 0.26013 0.26362 0.27992 0.13056 -1.0731 0.44502 -0.37737 -0.6563
sale 0.24824 0.34891 -0.13036 -0.11938 0.62029 0.15502 -0.10757 0.53952 0.1863 0.1034 0.053934 0.016571 -0.94537 0.17747 0.67384 -0.085136 -0.34791 -0.11783 0.19545 0.88995 -0.038433 2.168 -0.1758 -0.20066 0.13842 0.51916 0.25439 -0.10557 -0.67775 -0.051195 -0.2992 -1.7909 0.34702 -0.72627 -0.33121 0.10056 -0.33748 -0.020854 0.34844
tiger 0.62663 -0.62621 -0.602 -0.76326 1.0718 1.0264 0.51485 0.068456 0.64535 0.25223 0.41674 -0.66572 -0.12801 -0.55854 -0.84352 0.55838 0.36077 0.13034 -0.67964 -1.1275 0.59515 0.81675 0.43633 -0.051347 -0.66771 0.24136 0.24963 -0.089726 -0.64921 -0.39078 0.073248 -0.83119 0.19633 0.33189 1.0092 -0.012987 -0.087924 0.26818 0.37465
city -1.0305 0.69492 0.34358 0.85792 -0.81835 0.26868 -0.25083 -0.52929 0.17653 0.80747 -0.60217 0.20698 -0.3299 -0.39454 -0.015081 -0.20199 -0.56048 0.32742 0.59723 -0.44756 1.0231 1.4104 0.30757 -0.38852 -0.40562 0.1746 0.16341 -0.2839 -0.1555 -0.38138 1.0277 -1.4342 0.40783 0.49322 -0.46724 -0.46683 0.14795 0.7188 0.39124
pitch -0.11018 -0.26248 -1.1087 0.13721 -0.55486 0.041812 -0.078367 0.43231 -0.23333 0.21594 0.73837 -0.6147 0.13498 0.32903 -0.67826 -0.15884 -0.36107 -0.48374 0.27948 -0.26265 0.53546 1.2783 1.2211 -0.36053 -0.56022 0.030855 0.32796 -0.61139 -0.1407 -1.3735 -0.46579 0.48977 -0.72275 0.0098467 0.032176 -0.64442 -0.17429 0.13567 0.60324
subcommittee -0.88256 0.97122 0.20547 -0.68178 -0.91473 -0.35659 0.32928 -1.1161 -0.94508 -0.71632 -0.80667 -0.15621 -0.63531 0.33132 -0.35282 0.10689 0.032281 0.038053 -0.26626 0.22758 -0.10255 1.3472 1.0077 -0.49573 0.87539 0.35363 0.48637 1.2133 -0.00023827 -0.31151 -1.4313 -0.69579 0.057289 -0.12002 -0.50009 0.34262 0.90452 1.0501 -0.067181
horrible -0.43179 0.58156 0.27709 -0.25824 0.11141 -0.0031693 0.024373 -0.60726 0.87313 0.14662 0.099323 -0.030714 0.31354 -0.35383 -0.61794 -0.028164 -0.25952 0.69138 -0.79499 0.40453 0.44017 0.29259 0.10917 -0.25717 -0.92919 0.40739 0.80469 -0.078238 0.23037 0.54902 -0.21094 -0.27895 0.93854 -0.20057 -0.24657 0.10164 0.42936 -0.12467 -0.14514
nazi -0.01353 -1.2378 -0.4757 0.33099 -0.1611 -0.64025 0.49723 -1.0236 -0.31678 0.609 -0.14232 -0.44697 1.1318 -0.26676 0.77232 0.32383 0.44124 -0.47767 0.08494 0.91627 1.0739 1.6335 0.40493 0.54254 -0.087058 1.6032 0.017729 0.022263 -0.64506 0.51807 0.014284 -0.64406 0.71323 0.15958 -0.055993 1.4473 1.1247 -1.3844 0.21693
medicine 0.88513 -0.12636 -0.42275 -0.10626 -0.70793 0.40188 1.4851 -0.64876 -0.45819 -0.43245 -0.38527 0.31637 -0.5347 -0.14641 -1.0341 -0.6759 -1.6845 0.054386 -0.61069 0.68863 0.049682 1.4236 -0.14759 0.73668 0.24277 0.14237 0.054326 -0.30469 -0.12034 1.0387 -0.30667 -0.79571 0.055409 0.59245 -0.19561 0.8041 0.19258 0.4546 -0.29158
artillery 1.141 -0.1252 -0.67877 0.8071 -1.0966 0.50763 0.27974 -0.89891 -0.51803 1.441 -0.25284 -0.77921 0.28619 -0.30001 -0.10071 -0.37576 -0.12126 -0.43894 0.086801 0.18142 0.69191 1.3961 0.39533 0.62557 0.16124 -0.1042 -0.027656 0.41789 0.84048 -0.56583 0.35979 -1.1595 0.55273 -0.31998 0.19583 -0.41784 0.93871 0.5417 0.57135
radical -0.06113 -0.99464 -0.15129 1.4953 -0.10628 0.33316 -0.35929 -0.3103 0.40728 1.0163 -0.43472 0.18608 0.42915 0.40578 0.41453 1.0348 -0.037168 -0.76516 -0.069802 0.19065 0.47707 1.197 0.35983 0.20372 -0.24867 1.5684 0.13603 0.39875 -1.2364 -0.48204 0.21455 -0.36448 0.0106 -0.16852 -0.65859 -0.63336 0.64079 -0.4404 -0.6017
convertible 0.50103 -0.061296 0.15237 -0.10293 1.5898 0.027347 0.54457 1.7272 -0.37429 0.15794 0.64374 0.0018965 -0.34759 0.57442 1.1964 0.71043 0.10382 0.61017 -0.40877 -0.63622 0.14201 1.8968 -0.50426 0.37601 -0.07736 -0.095752 -0.38782 0.23681 -0.24984 -0.70894 -0.2081 -0.78908 -0.91959 0.25106 -0.38726 -0.39837 -0.5714 0.63414 -0.38282
pork -0.033295 -0.10615 0.62715 0.12392 -0.22883 0.82768 0.67201 0.027566 -0.18574 0.53668 -0.33827 -0.27568 -0.63084 0.4383 0.25187 -0.11644 -0.78958 -0.51535 -0.32999 0.34535 0.068978 0.56939 0.3349 0.61537 0.36101 0.26063 -0.11531 -0.10007 0.20617 1.5515 -1.019 0.19402 0.79873 -0.6471 0.11645 -0.77884 0.030723 -0.86862 -0.35599
fishing -0.028439 0.76541 0.29557 -0.7233 0.58935 0.46101 -0.50197 -0.65972 1.1633 0.62225 0.24343 -1.8359 -0.6842 0.20511 -0.37396 0.34929 0.23854 0.012114 -0.10933 -0.41353 1.0067 1.7397 1.1134 -0.89149 0.43377 0.24864 0.13148 -0.33501 1.5719 0.20859 -0.10549 -0.57306 0.12189 -0.1166 -0.32712 0.41565 -0.89436 -0.032707 0.17061
transportation -0.34229 0.79607 0.76383 -0.12501 -0.84831 -0.4675 0.20635 -0.7127 0.033328 0.22347 -0.84774 -0.40121 -0.72985 -0.19889 0.19767 0.12485 0.015561 0.56377 0.18812 0.69191 0.54419 2.2666 0.50965 -0.45986 0.77633 0.26698 0.22044 -0.65685 0.13572 -0.38251 0.40535 -0.55439 0.5276 0.27215 -0.51352 -0.49879 -0.095914 0.35875 -0.0088262
professionals -0.3093 0.17057 -0.28912 -0.19996 -1.1871 0.7316 -0.56461 -0.61204 0.32744 -0.52222 -0.62994 0.58087 -0.10235 -0.38364 -0.86356 -0.70501 -0.62095 -1.0575 -0.28029 -0.52904 0.5778 1.5176 0.11086 0.021725 0.25006 -0.13363 0.16005 -0.1164 -0.95901 -0.1261 0.44427 0.29691 -0.09136 0.035194 -0.36523 0.16888 -0.62502 0.40952 -0.17281
seizure 0.41367 0.28439 0.1459 0.79367 0.83363 -0.31023 0.23442 -0.14474 -0.13326 0.93776 0.1285 -0.084705 -0.04129 0.0197 0.60179 0.61682 -0.17182 -0.21003 0.083049 0.42001 0.54463 1.1254 0.10565 -0.1499 0.56336 0.19338 0.28751 -0.54207 -0.23824 0.74297 -0.52349 -1.4032 0.63112 -0.18121 -0.57889 0.22841 0.039198 0.12393 -0.43316
stability -0.73263 -0.75504 -0.19192 0.2799 0.53796 0.28324 0.2085 -0.23146 -0.45725 -0.1266 0.38175 -0.41614 -0.2764 -0.0098228 1.4769 0.77542 -0.047787 0.097753 -0.77654 -0.35593 1.4945 0.93121 0.27568 -0.45199 -1.0435 0.49084 -0.6887 0.88517 0.43735 -0.51017 -0.43556 -0.50824 0.16794 1.08 -0.6905 0.045179 -0.034307 0.28347 -0.6204
depression 0.036245 -0.6107 -0.091113 -0.52332 -0.35659 -0.44533 -0.12095 -0.37612 -0.36712 0.32663 -0.48831 -0.0067719 -0.33624 0.25515 0.57576 -0.35865 -0.29034 0.42944 0.40805 -0.63205 0.795 0.56217 1.1522 0.24492 0.33141 0.27301 -0.015768 -0.28555 -0.32071 0.73616 -0.45082 -0.29665 0.62971 -0.30098 -0.28431 0.058626 0.65302 0.55633 -0.79436
berlin -0.56633 -0.045967 -0.019801 0.40051 -0.44242 -0.25291 0.56519 -0.93373 -0.70314 0.25014 -0.18595 0.014234 1.2269 -0.083134 1.1275 -0.1676 0.71003 -0.60368 0.35546 0.32231 0.58127 0.12816 0.09481 0.15086 -0.83654 0.15205 -0.52959 -0.32336 -0.12508 0.053349 0.76887 -0.34157 0.40762 0.047386 0.099814 0.75207 1.018 0.32236 0.50001
plane 0.56626 0.5134 0.19312 0.42294 0.36008 0.79759 0.60293 0.60104 -0.13692 0.35928 0.53611 -0.63115 0.52825 -0.32035 0.83108 0.4127 0.16365 0.64945 -0.12928 0.22982 1.5696 2.7579 0.5511 -0.10046 0.38431 -0.46169 -0.52773 -1.0246 0.3094 -0.25474 0.65181 -0.92974 -0.49969 -0.84119 -0.30406 0.26616 -0.075754 0.44104 -0.17363
peaceful -0.1146 0.53218 0.32941 0.69768 0.3169 1.0771 -0.64824 -0.64367 -0.54775 0.92226 0.002466 -0.49408 0.056862 0.52149 0.92948 0.5349 -0.2238 -0.92205 -0.47836 0.4245 0.677 1.5809 -0.82434 -0.89194 -0.72008 1.2602 0.37921 0.76587 -0.084661 -0.86526 0.24437 -0.94406 0.77387 1.064 -0.68052 -0.19975 0.85807 -0.12495 0.26734
afghanistan -0.66733 0.18162 0.3106 0.92158 -0.22926 1.1272 0.52989 -1.0931 -0.1053 0.83076 -0.82669 0.71148 0.91902 -0.024582 -0.22956 1.094 0.24927 -0.38641 -0.17649 -0.030553 1.6416 1.2896 0.099752 0.086242 0.53535 0.32567 -0.58102 0.80446 -0.65385 -0.095089 -0.12762 -1.0877 -0.43644 0.51549 0.013314 0.18228 0.12007 0.37072 0.43075
patients 0.50066 0.25123 0.070517 -0.77528 0.092166 0.44774 0.18846 0.11649 -0.074977 0.011443 -0.73894 0.63972 -0.11516 0.039761 -0.21333 -0.35865 -0.85522 0.2078 -0.5324 0.53414 0.47723 1.3754 0.34423 -0.12873 0.86987 0.15084 0.15953 -0.54703 -0.41425 0.57149 -0.17335 -0.13578 0.45631 0.08756 0.4875 0.68411 -0.24635 1.0957 -0.1148
piano 0.40136 0.29358 -0.67894 -0.13134 -0.27254 -1.0708 0.98718 0.57523 0.076009 -0.56662 0.73591 -1.3822 0.91048 0.74365 0.67365 0.034453 0.19691 -0.29562 0.29591 -0.8536 -0.34675 0.26683 1.2418 0.44084 -0.42001 -0.080578 0.74119 -0.43485 0.78083 0.10539 -0.085223 1.1606 -0.37953 0.27417 -0.039846 0.35605 0.6029 0.45007 -1.1759
earthquake 0.037282 0.13208 0.13661 1.2091 -0.12874 0.52387 -0.024319 -1.0522 0.62915 -0.0699 0.027162 -0.89086 -0.45774 -0.5922 0.53476 -0.075167 -0.60331 0.15815 0.27679 -0.53438 -0.28154 1.4629 1.262 -0.46154 -0.40815 0.21117 -1.6566 -0.33706 0.45718 0.2184 0.4584 -0.17801 -0.0044911 0.20688 -1.1911 -0.51986 -0.1828 1.0849 -0.45208
pig -0.14084 -0.087583 -0.00089056 -0.080119 0.18646 0.90865 0.27763 0.79665 -0.039301 0.57227 0.48561 -0.41516 0.059278 0.80333 -0.31581 -0.45018 -0.47077 0.28021 -0.52311 -0.74814 0.84939 0.14323 -0.26843 0.7249 0.35151 0.96263 -0.27808 -0.041706 0.10057 0.37598 -0.024289 -0.26316 0.40417 -0.017522 0.33855 0.51677 0.0938 -0.57646 -0.54197
alt -0.73054 -0.3053 0.59553 0.25803 -0.26703 -0.31184 0.4487 0.95706 0.93869 0.27533 -0.078674 0.20107 0.37708 0.43214 0.38632 -0.39718 0.12888 -0.29659 0.0229 -0.48442 -0.70565 0.44016 0.5237 0.37516 -0.16569 0.29934 0.68715 0.26227 -0.76364 0.25942 -0.56438 0.58085 -0.35743 1.2279 -0.65833 -0.013183 0.11857 -0.057262 0.0056025
atomic -0.41147 0.73988 -0.028457 1.901 -0.91937 0.21429 0.71509 -0.71576 -0.97897 -0.0013132 0.047058 -0.64693 0.39026 1.3696 1.2494 -0.16231 -0.18753 -0.55935 -0.66075 0.52352 0.91876 1.0669 -0.10736 0.47616 -0.12262 1.068 0.10062 0.16048 0.41865 -0.169 -0.077998 -1.7509 0.37562 0.80552 -0.11411 0.1062 0.43499 -0.45615 -0.20188
desirable -0.079447 -0.21624 0.84649 0.54789 -0.21257 0.040883 -0.79186 0.39183 0.40908 0.24869 -0.066908 0.26266 -0.64972 0.13864 0.0053361 0.078489 -0.21845 0.12149 -0.81243 0.024412 0.17999 0.70811 -0.68591 -0.68218 -0.13422 0.91249 0.41952 -0.26578 0.29663 0.12584 -0.43834 0.15067 -0.12386 0.048466 -0.77202 0.61944 -0.2988 0.23506 -0.60969
disturbances 0.24445 -0.059546 -0.085591 -0.034803 0.11542 -0.19645 0.034708 0.048631 -0.42966 0.46613 -0.0002442 0.014837 0.30626 0.19407 0.44355 -0.54362 -0.84413 0.37751 0.39538 0.06582 0.33156 0.29737 1.1629 -0.67482 -0.40707 0.494 0.24069 -0.24723 0.03075 -0.70374 0.9068 -0.30242 0.54687 0.082595 -0.14739 -0.58106 0.06361 0.59602 -0.039637
political -0.31527 -1.1698 -0.10753 0.52095 0.16561 0.72414 -0.016989 -0.07708 -0.28964 0.52395 -0.42393 0.033616 0.34794 -0.27514 0.28824 0.56189 -0.60347 -0.92018 -0.58208 0.16816 1.1859 1.5228 0.77069 -0.46766 -0.8434 1.6652 0.32125 -0.024563 -0.51083 -0.45647 -0.56383 -0.81554 -0.074859 0.14949 -1.838 -0.30107 0.4089 -0.11257 -0.73818
poland -1.1759 0.13154 -0.23241 0.44986 -0.62372 -0.55422 1.1884 -0.72388 0.12751 -0.4773 0.15631 0.44118 1.7589 0.23644 1.2623 1.0671 -0.34936 -0.89358 0.17634 0.29147 0.86578 1.1952 -0.085293 0.84785 -0.080092 0.96266 -0.75858 0.96594 -0.018784 0.099727 0.13892 -0.48755 -0.08099 -0.061296 0.29856 0.5972 0.50728 0.052649 0.66981
suspicion -0.30928 -0.67725 0.43702 0.34993 1.0514 0.73521 0.19717 -0.69433 0.54541 -0.25367 -0.56639 0.77387 0.1027 0.055492 0.71101 1.0578 -0.23352 -0.50683 0.10735 0.44678 1.4911 0.96921 0.023473 0.0080577 -0.1887 -0.058027 0.56471 -0.16381 -0.22952 -0.054802 0.77401 -1.3097 0.26518 -0.64583 0.1197 -0.18965 -0.16075 0.55643 -0.41001
coil -0.20544 0.70883 -0.51624 -0.1672 0.16733 -0.18236 0.80865 0.75375 -1.4486 0.16827 1.0797 0.61635 0.69215 0.15991 0.015609 -0.12236 -0.11074 -0.09768 0.36384 -0.41596 0.073909 0.72736 0.35548 0.62356 0.55896 1.1065 0.65575 0.056794 0.49259 0.45586 1.4446 0.35654 0.43972 0.61371 -0.46115 -0.51555 0.42031 -0.19734 -0.28366
cat 0.24402 -0.14108 0.060815 -0.7898 0.14287 0.72274 0.20428 0.8822 0.51221 0.40204 0.55387 -0.88044 -0.22814 0.023885 -0.28001 -0.31136 -0.68826 0.46185 0.55636 -0.57207 0.82765 0.41604 0.10583 0.62203 -0.23446 0.99379 -0.16364 -0.96473 -0.0072484 0.33016 -0.40951 -0.6069 -0.032652 -0.13847 0.24104 0.46182 0.089068 -0.01523 -0.14532
dollar -0.57764 -0.56379 -0.65821 -0.33205 0.89771 -0.46132 -0.35005 0.9368 -0.11792 1.1722 0.42938 0.16378 -0.3699 0.5 0.17452 0.15945 0.53948 0.18539 -0.079716 0.034595 0.54951 1.8667 -0.27025 -0.35897 -0.63678 -1.1057 -0.5356 0.279 -0.63614 0.27277 -0.31372 -1.0534 -1.1086 -0.37975 -0.59075 -0.37872 -0.60005 0.20529 -0.052956
sex -0.42379 0.37193 0.58047 0.21557 -0.1575 -0.24001 1.1324 -0.40262 0.58941 0.72819 -0.31527 0.66625 -0.47809 0.62143 -0.28793 -0.32529 -0.63512 -0.37851 0.22962 0.3281 0.93361 1.531 0.20278 -0.36445 0.38594 0.65709 1.4753 -0.068286 0.0033251 0.86134 -0.36356 -0.72953 0.2988 -0.64098 -0.85588 0.15415 -0.12933 -0.3494 -0.18915
bridge -0.42665 0.38331 0.49761 -0.10259 0.57865 0.062301 -0.060079 -0.83905 -0.12353 0.41156 0.79925 -1.0376 0.54454 0.0077572 0.15308 -0.16915 -0.22422 0.8523 -0.05479 -0.30328 0.90053 1.2185 0.36312 -0.52423 0.2823 -0.3904 -0.28714 -0.32135 0.91551 -0.41252 0.99603 -0.15061 -0.064853 0.50546 0.74059 -1.0344 0.35511 -0.0038254 -0.28555
score 0.34285 -0.24452 -1.405 0.21837 -0.2298 -0.87261 -0.35052 -0.13715 0.65533 0.61242 0.37106 -0.57345 0.52812 -1.0266 -0.43453 -0.44644 0.19152 -0.46228 -0.28873 -0.12075 0.76361 0.67813 0.60394 -0.57209 -0.71141 0.035832 0.49524 -0.51939 0.77859 -0.030253 -1.4519 0.21897 -0.98579 -0.29634 0.69575 -0.59003 -0.0032699 0.19004 -0.082002
losses -0.2591 -0.46898 -0.54736 -0.31746 0.40922 0.025984 -0.14648 0.262 0.56175 1.039 -0.38251 -0.20719 -0.28959 -0.65156 0.20083 -0.36491 -0.036948 0.021281 -0.16334 -0.42988 0.84938 1.6471 1.2265 -0.63239 -0.69451 0.04122 0.20498 -0.5587 -0.89373 0.071249 -0.50032 -1.1767 0.19416 -1.1957 0.30762 -0.1694 -0.071958 0.31186 0.38211
hamlet 0.085965 0.95206 0.18001 -0.79935 0.53612 -0.083478 0.25999 0.079183 1.4761 0.79991 -0.090068 0.022927 -0.54456 0.18185 0.2473 -0.2717 0.13433 0.17883 0.068768 -0.77583 0.58966 -0.4168 0.010904 0.27551 0.73142 0.76081 0.069048 -0.006605 0.25938 -0.21919 0.59022 0.0795 0.11085 0.16047 0.26094 -0.14912 0.8829 0.045599 0.26706
latin -0.028594 -0.82394 0.044114 0.23193 -0.58041 0.044185 0.86515 0.61966 0.051727 0.21091 -0.17413 0.35978 1.1312 0.48619 0.21708 -0.34196 0.23707 -0.30295 -0.55555 -0.83833 -0.22613 1.1848 1.0157 -0.31542 -0.32416 -0.1926 -0.46925 0.020052 -0.47036 -0.12336 -0.73458 -0.59145 -0.30744 0.011291 -0.84597 -0.24398 -0.19621 -0.12803 -0.72788
young 0.18961 -0.44422 -0.33965 -0.18938 -0.47231 0.30958 0.058438 -0.43198 0.73152 0.079954 0.6416 -0.40434 0.10051 0.73959 -0.22336 -0.29919 -0.15525 -0.13256 0.24644 -0.62691 0.80447 1.3024 -0.010272 0.1683 -0.11304 0.83425 1.011 0.54534 -1.15 -0.39846 -0.15826 -0.041378 -0.28575 -0.87658 -0.63888 0.64739 -0.093641 -0.12825 -0.32742
examiner 0.46983 0.55329 -0.075871 -0.43166 0.2953 0.19175 0.42497 0.24707 -0.071623 -0.42386 -0.01874 0.77171 -0.57827 -0.23091 -0.61574 -0.9565 -0.78791 -0.35788 -0.47415 0.81698 -0.24341 0.75399 0.47565 -0.026565 -0.20611 0.30314 0.034365 -0.36717 0.35552 -0.046903 -0.013921 -1.2804 0.059656 -1.0678 -0.32019 0.4239 0.40133 0.84162 -0.31233
shoot 0.079937 0.3536 -0.27608 0.24073 0.15702 -0.059659 0.011994 -0.79132 0.50206 0.72877 0.24684 -0.7088 0.6413 -0.28042 -0.31072 -0.76161 0.15759 -0.08711 -0.67871 -0.37477 1.3069 1.1506 -0.058835 0.016628 -0.4337 0.064883 0.68369 -0.0076268 0.60065 0.17037 -0.25081 -0.092202 -0.38327 -0.47473 0.55508 0.3141 -0.82867 -0.41791 0.40156
aeronautics -0.47062 0.26347 -0.51878 0.56591 -1.2956 0.17525 0.042586 0.20237 -0.1321 -0.17115 0.36437 -0.25501 -0.61257 -0.29852 -0.33161 -0.60067 0.32267 0.039975 0.0076974 0.51555 0.62077 1.0388 0.38331 0.77563 0.32254 -0.68299 -0.37597 0.48564 0.07144 -0.14181 0.47992 -1.3385 0.32304 0.57522 -0.92006 -0.37209 0.42132 0.66997 0.011175
gospel 0.3058 -0.7405 -0.14084 -0.028018 -0.042826 -0.36133 0.62009 -0.16888 0.52275 -0.12829 0.10089 0.37213 0.17217 0.62021 -0.1117 0.065092 0.7897 -0.90194 0.1581 -0.59312 -0.22019 0.76103 0.48408 0.70713 -0.019161 -0.03496 0.2412 -0.45899 0.39258 -0.037901 0.06816 0.39404 0.16381 -0.071652 0.55598 -0.63971 0.41029 -1.0553 -0.71342
britain -0.82093 0.11918 -0.28217 -0.36761 -0.18439 -0.49759 1.0078 -0.77544 0.011155 0.85121 0.95211 0.43791 0.51566 0.23352 0.016487 0.53338 -0.042633 0.039124 0.70322 0.87371 1.1616 0.9018 0.20227 0.86554 0.19242 0.81357 -0.91509 0.10777 -1.1395 0.014442 0.32584 -1.1173 0.68521 -0.62217 -0.014109 0.47975 -0.11447 0.43184 -0.054048
forswearing -0.33853 -0.24991 0.53154 0.19277 -0.17302 0.21953 -0.27454 0.65311 0.00053058 -0.72433 -0.15788 0.038331 -0.027674 -0.42248 -0.1501 0.45466 0.1542 0.30444 -0.16384 0.30046 -0.15729 -0.6587 -0.15427 -0.11977 -0.055649 0.27085 0.17922 -0.15228 0.12211 0.26323 0.014632 -0.1152 0.17173 0.10149 0.55592 0.10853 -0.31726 -0.70835 0.71064
odyssey 0.93462 0.2997 -0.42938 -0.17739 0.42662 -0.042582 -0.13842 0.35741 0.52858 0.45642 0.93339 -0.32416 0.18183 -0.29595 -0.026409 -0.39628 0.23642 -0.17219 0.68211 0.083049 0.75104 0.58156 0.80888 0.035852 0.50283 0.31684 -0.25777 0.44229 -0.26936 -0.58028 0.62218 -1.0559 0.77528 0.42505 -0.16851 0.15954 -0.69019 -0.10666 0.0019631
month 0.31654 0.77597 -0.46234 0.23393 -0.0022117 0.25745 -0.18118 -0.55455 -0.16636 0.69069 0.32032 -0.14221 -0.053476 -0.046911 -0.016067 0.72709 -0.056881 0.017289 0.40484 0.49479 1.0664 2.2094 0.71577 -0.20195 -0.21362 -0.11612 -0.077741 0.17745 -0.90418 -0.098119 -0.18 -1.6407 -0.059908 -0.43209 -0.30023 -0.22253 -0.0267 0.5254 0.46695
scottish -0.057956 -0.9958 -1.2545 -0.094012 -0.28298 0.088591 0.23956 -0.22409 0.63726 -0.070659 -0.081863 0.28195 -0.575 -0.19181 -0.57707 0.37281 -0.045773 0.27279 0.37201 -0.39256 0.17345 0.38525 0.55483 0.77777 -0.43342 0.84756 -1.0055 -0.64216 0.64976 -0.86481 0.45296 -0.51345 0.44555 -0.59596 0.76019 -0.50064 0.84948 0.033158 0.51388
division 0.98377 -0.19231 -0.52009 0.52767 -1.3103 0.082113 -0.1086 -0.29517 -0.39003 0.38121 -0.59933 0.83051 0.15448 -0.38433 -0.76207 -0.57453 -1.0502 0.92667 -0.17307 0.076532 0.96608 1.5034 1.285 -0.012128 -0.12297 0.50253 -0.36194 0.54093 -0.26433 -0.24099 -0.47102 -1.2081 1.0424 -0.5296 0.17862 -0.54942 1.034 0.13273 0.49872
bronze -0.70058 0.34773 -0.30268 0.1963 0.046594 0.2753 0.4666 -0.52745 -0.84349 0.12299 1.1201 0.32065 0.60686 -0.91813 -0.53446 0.16031 -0.88731 -0.032518 -0.4889 0.0093624 0.86562 0.17595 0.1894 -0.77675 0.37027 0.10274 0.28842 0.091011 -0.15035 1.282 -0.38194 0.14092 -0.14697 0.14823 -0.020357 0.89816 0.65185 -0.90214 -0.44113
french 0.68741 -0.70841 -0.11982 0.2313 0.27853 -0.36323 0.23714 -0.5305 0.27697 0.39488 0.62746 -0.067834 0.69382 -0.74804 0.17408 -0.050763 0.12507 0.33841 -0.039628 -0.12064 0.95245 1.4038 0.51277 0.92056 -0.083393 0.48821 -1.0455 0.15655 -0.31146 -0.33961 0.7231 -0.99319 0.68025 -1.2162 -1.0161 0.15431 0.69379 0.48292 -0.50855
sweden -0.035232 0.061812 -0.68241 -0.11949 0.0099263 -0.79092 1.0121 -1.0985 0.55559 -0.10584 0.30737 0.4873 1.1907 -0.63065 -0.054274 0.51414 -0.064973 0.014684 0.17376 0.51261 0.41186 0.63794 0.31339 0.48433 -0.28046 0.19456 -0.73676 0.2643 0.22348 0.74862 -0.11246 -0.27665 0.46676 -0.38409 0.015016 0.26225 0.13024 0.54992 0.43924
blues 0.60656 -0.46857 -1.2964 -0.49276 -0.8338 -1.0197 0.28543 0.18824 0.63836 0.44287 0.2212 -0.50061 0.38305 0.052899 -0.30429 -0.36459 -0.10807 0.039222 1.2651 -0.73571 0.14774 0.61616 1.0938 -0.27238 -0.84815 0.49272 -0.085843 -0.72862 0.041852 0.25114 0.079834 0.25612 0.089296 -0.26057 1.213 -0.94749 0.31047 -0.24521 -0.013175
tone -0.080556 -0.73659 -0.50407 0.63227 -0.42899 -0.18285 -0.12003 0.71999 -0.72595 0.89333 0.30886 -0.099595 0.20965 0.16721 -0.0059363 0.012649 0.4747 -0.3672 0.58512 0.5796 0.89215 0.59528 0.19845 0.57361 -0.51565 0.1561 0.51056 0.089933 0.28052 -0.86075 0.08741 0.51235 -0.023408 0.15018 -0.24861 -0.64176 0.27006 0.64505 -0.56788
con 1.1964 0.55661 1.4881 -0.071186 -0.47841 -0.34577 -0.19581 0.12884 0.67695 0.99635 0.47121 0.032798 0.058482 -0.57419 0.69217 -0.60034 -0.49359 -0.088844 -0.51673 -1.4877 -0.26788 0.16506 0.19548 -0.87041 -0.74286 0.36384 0.23678 0.38447 -0.83726 -0.43561 0.22972 0.044931 -0.26971 0.12594 -1.3099 0.52778 -0.27334 0.194 -0.70589
guess 0.21732 -0.0035074 0.2565 0.045821 0.39764 0.3441 -0.38566 -0.31453 0.61625 0.14998 -0.14767 -0.043522 0.29819 -0.58088 -0.52147 -0.21211 -0.70484 -0.38201 -0.50293 0.098543 0.27367 0.55964 0.22171 -0.085787 -0.52597 0.82991 0.3612 0.0272 0.053955 -0.2475 0.14604 -0.038173 -0.39142 -0.57601 -0.14489 0.37546 -0.4459 0.037693 0.094198
bitter -0.024929 -0.30001 0.031999 -0.32749 -0.22551 0.3275 0.35634 0.045618 0.10121 0.71209 0.23014 -0.47405 0.73357 -0.48345 0.27281 0.61197 -1.3554 0.17926 0.31119 0.48497 0.994 0.20455 -0.37928 0.16449 -0.42493 0.63152 0.67523 0.002628 -0.33458 0.4531 -0.64572 -1.4497 0.85274 -0.056828 -0.37074 -1.3342 0.95038 -0.059593 0.68543
repeal -0.87344 0.67079 0.40806 0.24122 -0.1307 -1.392 -0.29943 -0.49079 -0.075796 0.90101 0.054971 -0.69193 -0.2856 -0.50565 0.43031 0.71717 -0.17624 -0.76628 -0.71749 0.11928 -0.054842 0.84862 0.038839 -0.050953 0.396 0.94848 0.02089 0.76457 -0.19461 0.23509 -0.35486 -0.72811 -0.39629 -0.069619 -0.13927 -0.61591 0.37693 -0.69358 0.39032
shortage -0.5992 -0.030837 0.38551 -0.010233 -0.12543 0.33807 0.44938 0.16528 -0.77188 -0.73803 -0.15868 0.05825 -0.43439 0.30946 -0.058793 -0.23671 -0.9206 -0.11811 -0.23127 -0.33328 0.69667 0.939 -0.12077 0.14373 -0.19815 0.77653 0.48119 0.0546 -0.76704 0.90895 0.37755 -0.60701 -0.20672 -0.20682 -0.27987 -0.29001 -0.47291 0.43267 0.00068276
kremlin -0.27166 -0.50612 0.44815 0.81442 0.58576 0.85708 -0.17997 -0.30436 -0.93608 -0.78268 -0.22704 -0.32304 0.67982 0.52035 -0.074102 0.44188 -0.45785 -1.364 0.54442 0.63974 0.94893 0.33211 0.2294 -0.53952 -0.48016 0.10107 -0.0038651 0.13126 -0.21832 0.014681 0.36816 -0.84381 -0.15263 -0.22695 -0.32036 -0.16261 0.38617 -0.57134 0.036219
water 0.29462 1.025 0.12184 -0.27206 0.10462 -0.16654 0.16812 -0.42493 -0.51661 -0.75545 -0.081205 -1.0971 -0.38722 0.10288 -0.093331 -1.144 -1.0351 1.0647 -0.21731 -0.042496 1.375 2.0783 0.22467 0.091217 -0.082423 1.3352 0.72513 -0.14352 1.0577 0.34072 0.3205 -0.57704 0.83128 0.401 0.3364 -0.98157 0.0042248 0.21771 -0.17269
charged 0.10197 0.34243 -0.40859 0.75854 0.36564 -0.30058 0.24182 -0.81935 0.26862 0.29479 -0.23724 0.065814 -0.043401 0.83675 0.13323 0.89049 -0.38371 0.13467 -0.053262 0.65256 1.2013 1.6809 0.86788 -0.19557 -0.23481 0.41127 0.98821 -0.22678 -0.13858 0.1232 0.37153 -0.7976 -0.12876 -0.55465 -0.62119 -0.3504 -0.41647 0.50091 -0.2094
pakistan -0.92872 0.54463 -0.55441 1.2198 -0.72703 1.0411 0.98861 -0.89097 0.52127 1.0243 -0.24538 0.62761 0.044693 -0.1248 -0.21281 1.5162 -0.59262 -0.42194 0.47513 -0.014124 1.4492 1.3505 -0.023518 -0.51844 0.31411 0.41987 0.17216 0.63076 0.093682 -0.83192 -0.081978 -0.93729 -0.75881 0.39698 0.55132 -0.60869 -0.45897 0.69309 0.29766
ocean 0.26267 0.56823 -0.80506 -0.094061 0.23551 0.21247 -0.46676 -0.017698 -0.065572 0.39691 0.1728 -0.78283 0.27627 -0.60768 0.23081 -0.71644 -0.090112 1.1166 0.033476 0.018152 0.55065 1.7955 0.56752 -0.59456 0.068371 0.46764 -0.45162 0.094224 1.0289 -0.26392 0.48541 -0.16824 0.85321 -0.23879 -0.18184 0.024052 -0.2748 0.97766 -0.31903
army 0.2447 -0.30044 -0.23026 0.83421 -0.2708 0.27357 0.50757 -0.98192 -0.32794 1.1113 -0.55012 -0.43317 1.0499 -0.38222 -0.5136 0.4633 0.0068617 -0.010772 0.25778 0.45428 1.3538 1.976 1.1777 0.51682 0.49918 1.0045 -0.41862 0.99098 -0.68479 -0.86275 0.082006 -1.0763 0.33084 0.066625 -0.04424 -0.44569 0.93214 -0.33172 -0.10594
dignity -0.78174 -0.29721 -0.081935 0.14693 0.47438 0.63645 -0.50115 -1.0587 0.29084 0.4404 0.7435 -0.39085 0.52872 -0.59027 -0.26887 0.3695 -0.1998 0.020312 -0.73901 0.29555 1.1635 0.50969 -0.40383 0.074173 -0.62425 0.17675 0.31549 0.58205 0.56063 -0.12914 -0.54308 -0.6778 0.9983 0.50019 -0.57794 0.63837 0.64669 0.1954 -0.81301
jerusalem -0.2324 0.16391 1.2738 0.96795 -0.15182 0.69545 0.81598 -1.5462 0.23391 0.46567 0.50001 0.27989 0.44389 0.31893 0.24217 0.57609 0.1823 -1.0316 -0.38517 0.84202 0.89485 0.56062 -0.11067 -0.092094 0.77341 0.79309 0.62746 -0.2691 -0.21065 -0.24623 0.21491 -0.91721 0.79049 0.50514 0.059728 0.25199 0.068856 0.84627 0.78359
commuters -0.43045 1.0057 0.45576 -0.26896 0.096251 0.09595 -0.3483 -0.36769 -0.14368 0.95866 0.20769 0.06587 0.35343 -0.38835 0.21788 -0.23595 0.26695 0.19574 0.61289 -0.27125 0.76254 1.1753 -0.203 -0.13488 0.47895 -0.11041 -0.11228 -1.3262 -0.33204 -0.22062 1.2582 0.012898 0.30634 -0.58191 0.10383 0.28288 -1.1386 0.22981 0.85148
louisiana 1.003 0.29702 -0.38112 0.19672 -0.34162 -0.36374 -0.51852 -0.2048 0.61213 0.1434 -0.71114 -0.64949 0.070412 -0.3275 -0.74998 -0.20836 -0.59044 0.67644 0.45741 -0.75993 -0.59153 0.7806 0.62079 -0.64953 0.70872 0.57573 -0.43905 0.056598 0.019945 0.43518 0.69685 0.24621 0.22126 -0.21406 -0.65688 -0.71615 0.60886 0.31033 -0.14081
corruption -0.69278 -0.21143 0.29937 0.79092 1.1099 -0.14899 0.24521 -0.57624 0.043575 -0.54027 -0.34892 0.64399 -0.17237 0.14011 -0.1728 0.62727 -0.85268 -0.040228 -0.059602 -0.10427 1.8993 1.4005 0.13047 -1.0729 -0.57502 0.62868 0.65221 0.75766 -1.1734 0.13222 -0.86161 -1.2303 -0.23597 -0.36309 -0.65774 -1.0409 0.66344 -0.27774 -0.77111
repair -0.011158 0.75182 0.7938 1.1332 0.086106 0.47625 -0.085698 0.12545 0.59079 -0.36853 0.51235 -1.0225 0.37213 -0.044614 -0.45961 0.23498 -0.7705 0.40822 0.2702 0.17316 0.3984 1.4972 1.1062 -0.31783 0.39379 0.16355 -0.31518 -0.25119 -0.17185 -0.14837 0.32452 -0.72781 0.91056 0.82939 -0.29448 0.38611 -0.38205 0.1958 -0.29745
scale -0.11025 0.045771 -0.17497 1.5607 -0.10312 -0.2488 0.0025583 -0.36235 0.12696 0.23504 0.68935 -0.33832 -0.86935 -0.47662 0.93756 -0.60516 0.34724 -0.20133 0.18195 -0.30911 0.9635 1.7275 0.6854 -0.24102 -0.29533 1.1881 -0.42027 -0.12963 -0.20412 -0.21611 -0.17874 -0.35828 -0.22766 -0.12402 -0.46225 -0.51602 -0.2242 -0.081485 -0.43622
mistake 0.18876 -0.01659 1.0167 0.14401 0.4262 -0.15274 -0.027316 -0.48055 0.40519 0.22084 -0.13663 -0.54115 0.51129 -0.52031 -0.87463 0.34896 -0.0074074 -0.014992 -1.0969 0.74923 0.78021 1.0256 0.1434 -0.38346 -0.4977 0.53471 0.36374 -0.46405 -0.0077575 -0.14238 -0.080272 -0.23741 -0.27436 -0.5913 -0.67312 -0.052462 0.14642 0.20228 -0.31665
withdrawn 0.40908 0.64561 0.78092 0.08902 0.74083 0.38201 -0.15886 -0.11863 -0.54945 0.35203 -0.353 0.11978 0.5133 0.12407 -0.1374 0.51625 -0.087085 0.15092 0.39337 0.39533 0.34671 1.3472 0.21436 0.75535 -0.30283 0.82831 -0.017959 0.34425 -0.48719 -0.023917 0.031497 -0.73595 0.4129 0.082897 -0.080014 -0.1271 0.49719 0.81178 0.83689
solar 0.47272 0.7262 -0.72315 0.92573 -0.66934 -0.16113 -0.45796 1.0084 -0.11968 -0.71018 0.58174 0.22822 -0.26736 0.057578 0.21396 -0.4221 -0.029682 -0.63279 0.31337 -0.14435 0.25178 1.743 0.5619 -0.20272 -0.045289 1.4711 -0.28568 0.91562 0.46926 -0.40258 0.87631 -0.50325 0.41198 0.56202 -0.41064 0.41394 -0.4771 -0.38799 -0.65394
deputy -0.036687 -0.017043 0.041899 0.12634 -0.40739 0.30918 1.4382 -1.1798 -0.45864 0.050934 -0.97934 0.59961 0.37781 0.58435 -0.12841 0.99484 -0.039906 0.33192 -0.4553 0.31019 0.81198 0.91463 0.15863 -0.31029 -0.046135 0.80198 0.65684 0.86785 0.16504 -0.84663 -0.82847 -1.373 -0.71857 -0.42193 -0.91066 0.18107 0.83935 0.25065 0.019023
slaying 0.34156 -0.28754 0.13317 0.75638 0.83821 0.19556 0.51952 -1.0032 0.85476 0.33421 0.50296 0.31491 -0.34936 0.45773 0.20227 0.85464 -0.2909 0.49748 0.29283 -0.23062 1.0145 0.15439 0.14983 -0.5108 0.66486 0.48015 0.016978 -0.42362 -0.3424 0.47908 0.942 -0.92742 -0.16169 -0.89422 -0.57078 -0.18254 0.28859 -0.57562 -0.13662
protestant 0.058234 -1.1073 0.26172 0.6597 -0.2515 0.56521 0.94349 -0.79085 0.51232 0.93223 0.0041355 -0.21642 0.25366 0.2621 0.56803 0.94908 0.086908 -1.2212 0.21828 0.19471 -0.31497 0.99416 -0.033108 1.1341 0.030775 0.23382 -0.4262 0.033174 -0.41168 -1.0764 0.39315 -0.40197 0.75754 -0.49098 0.25986 -0.76003 1.0206 -0.52659 0.073556
singapore -1.3128 0.48772 -0.33039 0.046644 -0.17475 0.005094 0.532 -0.021302 -0.33271 0.76505 0.39574 1.1948 -0.2424 0.011758 0.19333 0.28401 -0.018536 0.71648 0.23856 -0.39983 0.51898 2.1219 -0.11481 -0.84636 -0.8008 -1.1579 -0.42912 -0.23468 -0.54058 -0.43988 -0.13667 -0.63239 0.24695 -0.43682 0.20424 0.37789 -0.64953 1.1518 -0.9891
faith -0.40591 -0.79097 -0.098862 -0.14934 0.2696 0.78997 0.39597 -1.3083 0.89848 -0.18979 -0.087264 0.22459 -0.13031 0.41296 -0.051998 1.0102 0.42593 -1.2731 0.43028 -0.0010146 0.58732 0.89253 -0.21649 0.82143 -0.046786 0.012115 0.24389 0.26668 0.13996 -0.61017 -0.31939 -0.74076 0.55501 0.19188 -0.2442 -0.23013 0.64946 -0.52829 -0.79461
garfield 0.061583 0.81503 -0.34328 -0.72716 -0.3776 -0.16453 0.14261 -0.34992 0.36206 0.068013 0.52565 -0.24902 -0.089636 0.33124 0.018738 -0.29583 0.10486 0.48116 -0.11596 -0.75239 -0.19009 -0.58774 -0.52721 -0.037834 0.22126 0.35772 0.44333 -0.22115 -0.32302 -0.018954 0.27602 -0.52659 -0.68842 0.007497 -0.3138 0.11279 -0.090672 0.10646 0.013599
campaign 0.4435 -0.028421 -0.22501 0.58533 -0.17747 -0.29341 -0.48998 -0.087551 -0.37826 0.78639 -0.99479 -0.34238 -0.20322 -1.0698 -0.488 0.53466 -0.086324 -0.71852 -0.17185 0.14434 1.3329 1.2819 0.19396 -0.20334 0.31497 1.2139 -0.17941 0.54095 -0.91381 -0.39369 -0.33536 -1.4939 -0.18219 -0.30084 -0.57678 0.50709 0.6834 -0.35182 1.0004
builders -0.41033 0.019031 -0.048766 0.057288 -0.8075 0.57589 -0.71233 -0.46228 0.25962 -0.19251 0.059183 -0.80122 -0.34098 -0.37281 0.075555 -0.39935 0.067271 -0.28618 0.43373 -0.53112 0.3027 1.0136 0.50564 -0.11806 0.1096 0.20613 0.13611 -0.42455 -1.0023 -0.5468 0.47305 -0.61254 0.25007 -0.45518 -0.14814 -0.082733 -0.42003 -0.26064 -0.46237
insured 0.018407 0.10787 0.31142 -0.29271 0.98947 0.41299 -0.5257 0.3317 0.22465 0.31163 -0.22423 -0.54703 -0.95252 -0.27443 -0.055537 -0.50694 0.48892 0.23581 -0.82334 -0.36575 -0.0080432 0.99883 0.64634 0.66893 -0.014804 0.58981 -0.06141 -0.16217 -0.2439 0.64039 0.38998 -1.1337 0.35564 -0.45365 -0.23067 0.35805 -0.6165 0.45267 -0.10898
rescued 0.23681 0.10589 -0.15807 -0.44476 1.5318 0.64483 -0.32761 -0.7615 0.69778 0.75767 0.050878 -1.1622 0.14657 0.33488 -0.3731 0.0087975 0.60137 1.0295 0.3366 -0.36893 1.0038 0.57513 1.0562 -0.12426 -0.35519 -0.31991 -0.29945 -0.65946 0.11726 0.4265 -0.17508 -0.9005 0.45678 -0.66094 -0.24127 0.21241 0.21386 0.23863 0.47156
bread 1.0135 -0.14802 0.25817 -0.20326 0.16632 0.61518 1.397 -0.39371 -0.22501 -0.34643 0.23932 -0.16461 -0.34034 -0.44906 0.23231 -0.54654 -0.66337 -0.69058 -0.069351 -0.39351 1.0083 0.61634 -0.088844 0.88094 -0.27161 0.50364 0.67576 -0.74353 0.29012 0.89377 -0.30693 0.078353 0.87079 -0.75977 0.041883 -0.54819 -0.29424 -1.6548 0.27325
klan 0.15652 -0.14206 -0.17154 0.14367 0.31878 -0.17062 -0.15699 -0.063381 -0.52296 0.56237 0.063903 -0.2412 0.22737 -0.37591 0.27556 0.2077 0.23983 -0.41075 0.75586 -0.45717 -0.10668 0.3175 0.42011 -0.62041 -0.11104 0.62778 0.971 0.86496 -0.46405 -0.2205 0.98065 -0.037759 -0.11558 0.47111 0.4951 -0.054313 0.63156 -1.44 -0.34047
sports 0.10652 0.49135 -0.37166 -0.11475 -0.91305 0.25738 -0.44816 -0.59433 0.54188 -0.60335 0.57122 0.46843 -0.21334 0.82496 -0.75724 -0.41604 -0.72283 0.24382 0.2482 -0.27486 0.4574 1.8659 0.66663 -0.48694 -0.31767 0.47801 0.28952 0.10693 0.24676 0.15782 0.95005 -0.93312 -0.8848 -0.10948 -0.48581 0.081517 -0.16805 -0.012571 -0.18496
quarterback 0.78275 -1.3264 -0.79311 -0.060108 0.5569 -0.18171 0.27387 -0.17095 0.6414 -0.98019 0.6148 -0.95833 0.071655 0.73157 -1.6156 0.92001 0.2146 0.17833 0.24803 0.1051 0.10912 0.22194 0.10916 -0.41961 -0.3613 0.71497 1.4912 0.072208 -0.36263 0.17068 -0.59101 0.86733 -0.23042 -0.38234 -0.32534 -1.5944 0.11337 0.60459 0.77608
forbes 0.5621 -0.51002 0.12399 -0.088357 0.20084 -0.40401 -1.2124 -0.23005 0.046586 0.54212 -0.3128 0.28549 -0.175 -0.022688 -1.1671 0.22416 0.41117 -0.42966 -0.33901 0.25707 -0.26341 -0.11201 0.046568 -0.055856 -0.087725 0.80066 0.88801 0.045877 -0.58794 0.3443 0.42723 -0.72528 -0.75873 -1.4195 -0.84196 1.2922 -0.35563 -0.28635 -0.14427
money -0.45032 0.093412 0.43633 -0.13945 0.88155 -0.38892 0.1604 0.10067 0.49195 -0.056192 -0.87537 -0.34685 -0.32777 -0.43901 -0.36041 0.03517 -0.3159 -0.47258 -0.023179 -0.42463 0.7854 1.9169 0.35565 0.12435 -0.28132 0.91371 0.52382 0.073623 -0.58587 -0.10173 -0.15438 -1.1959 -0.65304 0.10216 -0.70303 0.5565 -0.77761 -0.5553 0.33944
israel 0.010244 0.34232 0.82014 0.55979 -0.77078 0.32314 0.94634 -1.4824 0.68584 0.4318 0.63541 -0.18225 1.0884 0.041033 0.47114 0.75812 0.77299 -0.98354 -0.74665 1.0865 1.6645 1.2012 0.64015 0.51149 0.6306 1.0806 0.37489 0.61396 -0.54577 -0.47719 -0.043081 -1.2394 0.56805 0.45965 -0.083506 -0.4327 -0.18069 0.7402 0.58605
electronics 0.2637 -0.54113 0.22013 0.13826 -1.4236 -0.0098513 0.050115 0.92283 -0.0082058 0.71411 -0.020046 0.046018 -0.50765 -0.011776 0.52688 -0.71058 -0.14051 0.38301 0.3902 -0.037068 -0.42376 1.7367 0.63879 0.68419 -0.11242 -0.74283 0.73085 0.024299 -0.2574 -0.24181 0.3246 -0.14107 0.77059 -0.42846 -0.40817 0.42397 -0.078422 0.74521 -0.67191
summer 0.10636 1.0227 -0.7852 -0.095019 -0.6404 0.35748 -0.14664 -0.32757 -0.017158 -0.27269 -0.28157 -0.59077 0.11974 -0.53354 -0.087348 -0.16372 0.071773 -0.10495 1.0044 0.0038452 0.51366 1.342 0.51555 -0.48805 -0.1306 0.96814 0.095845 0.0099921 -0.57978 0.51789 0.44394 -0.4677 -0.027604 -0.12137 0.15527 0.28908 0.45589 0.1894 1.0659
close -0.21976 0.065529 -0.29808 -0.10718 0.09245 0.35833 -0.28086 -0.40234 0.62752 0.80822 0.3701 -0.27326 0.33263 0.054406 0.35525 0.3578 -0.20943 0.045548 -0.068526 0.29297 1.2063 1.6762 0.61876 -0.27374 -0.32099 0.066246 0.32751 -0.44481 0.20546 -0.96744 -0.22704 -0.5664 -0.28745 0.080152 -0.16271 0.038111 0.12526 0.079556 -0.1734
probability 0.00066181 -0.045899 -0.44751 0.54858 0.4051 0.24134 -0.31526 0.60089 0.67277 -0.25743 0.066784 1.304 -0.3367 -0.39792 0.67252 -0.31769 -0.20466 -0.58678 -1.455 0.70838 0.66895 0.79104 0.46849 -0.54684 -0.36704 1.0468 -0.40366 -0.68837 0.39941 0.49368 -0.32588 -0.54986 -0.9179 0.2225 -0.51883 -0.072851 0.13193 -0.40029 0.034915
gossip -0.12936 -0.67177 0.81714 -0.23909 0.078669 0.11391 -0.16921 -0.18229 0.19619 0.068474 0.39647 0.72599 -0.64844 0.28195 -0.61643 -1.2419 -0.60952 -0.56843 1.0666 0.43565 0.3158 0.022907 0.25187 -0.40858 -0.58285 0.81947 1.5276 -0.21533 -0.081075 -0.066172 0.89455 -0.77288 0.13288 -0.97465 -0.72443 0.022074 -0.37807 -0.42691 -0.66984
manchester -0.020696 0.47304 -0.66098 0.40566 -0.85499 -0.27234 0.078166 -0.15935 0.26286 0.28977 -0.0092243 0.31176 0.039015 -0.064649 -0.39354 0.40736 -0.75524 0.38953 1.0175 0.88309 0.2995 -0.345 -0.32219 -0.013545 -0.9372 -0.1872 -0.10839 -0.50426 0.65212 -1.0431 1.2237 -0.59158 0.11117 -0.49253 0.22178 0.052699 0.86577 -0.018268 0.75836
privileges -1.3808 0.59124 0.2885 -0.75168 0.00041195 0.32306 0.02836 -0.57622 0.26948 -0.62759 0.22748 -0.054939 -0.036058 -0.48999 -0.32072 0.76744 -0.3978 -0.5999 0.40193 -0.23369 0.57075 1.2499 0.22337 -0.1745 -0.31273 -0.20892 0.59311 -0.27905 0.56088 0.033927 -0.7521 -0.74277 0.018168 1.1917 -0.32818 0.81624 -0.07979 0.21891 0.19109
fire 0.61285 0.42428 0.31335 0.43689 -0.24277 0.61373 0.38125 -1.2309 -0.1072 0.82273 0.24042 -1.0297 -0.28765 -0.024815 -0.1062 0.15264 -0.30398 0.14856 0.045135 0.29232 1.3542 1.6656 0.66895 0.29794 -0.12086 0.5269 0.5328 -0.21694 0.60013 -0.54825 0.62682 -1.3777 0.060718 -0.02082 0.22192 -0.62859 0.9432 0.35979 0.49344
paint -0.02932 0.15283 0.1908 0.61615 -0.45646 -0.063123 0.17004 0.53603 -0.3418 -0.3668 -0.17188 -0.3759 -0.26508 -1.2158 -0.20423 -0.6724 -0.68042 0.52446 -0.45883 0.16046 1.3103 0.63369 -0.24962 0.069276 -0.39125 0.8295 1.4076 -0.30074 0.24721 0.23592 0.096352 0.14288 0.26375 -0.44755 -0.065838 0.15309 -0.13533 -0.60427 0.26301
stevenson 0.44142 0.0041838 -0.20156 -0.22337 -0.20978 -1.3001 -0.15749 -0.53984 -0.49206 -0.013746 0.46605 0.44927 0.18698 0.29673 0.04282 -0.35253 0.086784 -0.24582 0.7656 0.0093196 -0.15296 -0.70567 -0.29771 -0.30851 0.39602 0.14072 0.28192 -0.47832 -0.1549 0.20895 0.39634 -0.52458 -0.25818 0.047578 -0.55666 0.62755 0.59877 -0.34915 -0.40504
justice -0.84811 -0.40346 -0.050693 -0.16492 0.042706 -0.48147 0.79093 -1.6272 0.61653 0.27467 0.085163 0.65366 -0.3832 0.32964 -0.24579 0.42723 -0.64101 -0.60472 -0.19111 1.0226 1.3731 1.8805 0.62003 -0.381 0.011638 0.97554 -0.28318 0.49692 -0.54511 -1.0 -0.85045 -0.4928 0.32436 -0.20394 -0.84832 -0.9523 1.0612 0.053861 -0.35237
stock -0.22086 -0.44615 -0.10423 -0.99931 0.45049 -0.059912 -0.57837 0.9825 -0.081571 0.26523 -0.12948 -0.12811 -0.67719 0.03019 1.2811 -0.20493 -0.58669 0.82777 0.43015 -0.33208 0.87452 2.7727 0.065756 -0.40363 -0.30787 0.13468 0.33646 -1.0657 -0.31349 0.23231 -0.23418 -1.0016 -0.19386 -0.69646 0.20123 -0.37758 -0.26205 1.0053 -0.24698
marble -1.0704 0.2834 -0.27638 0.18447 -0.24131 0.13308 0.66293 -0.28773 -1.0481 -0.2439 0.46228 -0.074976 -0.4781 -0.71469 -0.27752 0.16174 -0.2442 0.16287 0.37626 0.038162 0.45276 0.19723 -0.0075851 -0.7792 0.28995 0.16799 1.0157 0.15041 0.53159 0.28522 0.043603 0.61586 0.15779 -0.37183 -0.55997 -0.44868 0.31253 -1.0344 -0.51227
crowded -0.6912 0.66796 0.51694 0.41166 0.17331 0.21633 -0.29926 -0.10564 -0.44413 1.0173 0.37862 -0.15699 0.059129 0.52362 -0.018593 0.062909 0.4468 0.15868 0.19183 0.12525 0.19584 1.3835 0.050087 -1.0064 0.92025 -0.17457 0.18509 -0.39537 0.36205 -0.22963 0.27715 0.048814 -0.0020568 -0.28372 -0.058083 0.40827 -0.23846 0.49113 1.2662
clash 0.16971 -0.068039 -0.24245 0.28381 0.06907 0.34516 0.29429 -0.52496 0.13766 1.5652 0.12842 0.12943 0.33057 0.011989 -0.6234 0.47242 -0.35865 -0.18113 -0.21855 0.36328 1.074 0.093925 0.92806 -0.70133 -0.046328 0.32296 -0.53715 0.029318 -0.17594 -0.49261 0.5327 -0.75944 -0.069492 -0.48691 -0.01463 -0.73793 0.74757 0.35264 0.64337
challenge -0.096688 -0.16857 -0.65933 -0.14734 0.030256 -0.59602 -0.69686 -0.6112 0.10574 -0.033844 0.1875 0.15544 0.014355 -0.29149 -0.74031 0.4931 -0.67522 0.12073 -0.4591 -0.036811 1.2924 1.0309 -0.21178 -0.36536 -0.34566 0.76645 -0.53555 0.076322 -0.72452 -0.49999 -0.077999 -0.68412 0.17301 -0.58329 -0.33438 0.010362 0.12521 0.091559 0.057378
vacation -0.06624 1.1507 -0.19962 -0.16252 0.28071 -0.20904 -0.045612 -0.24835 0.75716 0.0037688 -0.73131 -0.86261 -0.38064 -0.74844 -0.28423 0.81913 0.21481 0.19172 1.0604 -0.11628 0.17285 1.6158 0.41347 -0.094958 0.32855 0.32769 0.008007 -0.88127 -0.15421 -0.19104 0.23735 -0.37363 -0.32572 -0.12507 -1.0444 1.6664 -0.6795 -0.0035208 0.76954
miniature 0.3328 -0.045862 -0.48164 0.14493 -0.14894 0.25261 0.34656 0.59894 -0.48833 -0.16343 0.66614 -0.71936 -1.0486 -0.13097 -0.034971 -0.090914 -0.22907 0.12449 -0.28516 -0.47939 0.35514 0.18423 -0.26567 0.19143 0.2699 -0.0026823 -0.38774 0.0068646 0.74738 0.1726 0.86407 0.16133 0.43058 0.34106 -0.095814 0.28688 -0.57211 -1.0254 -0.45965
earth 0.1733 0.19129 -0.33692 0.31815 -0.3701 0.71577 -0.26555 -0.11394 -0.021928 0.33333 0.84617 -0.021192 0.77686 -0.11234 -0.10423 -0.47888 0.43048 0.37228 -0.13153 0.42651 1.0873 1.5801 0.59148 0.025335 -0.39001 1.0085 0.0063423 0.43341 0.42763 0.41007 0.63831 -0.051332 0.27846 0.3378 -0.17391 0.35576 0.49022 -0.33529 -0.23953
gambling -0.34418 0.44217 0.99026 -0.27087 0.3591 -0.70861 -0.58098 -0.49917 0.75003 0.53724 -0.6578 0.30775 -0.92233 -0.096843 -0.74498 0.26157 -0.95117 -0.41295 0.40744 -0.35395 0.079138 1.3412 0.91858 -0.82961 0.81957 -0.3377 0.65832 -0.18943 0.60607 0.59515 -0.29604 -0.903 0.0095901 -0.18566 -0.75803 -0.14339 -0.28493 -0.5138 0.44402
maxwell 0.18795 -0.13373 -0.039878 -0.12762 -0.74271 -0.75192 0.5454 -0.34401 0.23965 -0.45377 0.56591 0.24523 0.19812 0.37875 0.24661 -0.45611 0.12307 0.8348 0.3736 0.28562 -0.087425 0.08896 0.041142 0.36018 -0.56062 0.40684 0.42263 -0.24092 -0.10014 -0.245 0.61077 -0.76295 -0.077247 -0.13128 -0.77844 0.084967 0.067491 0.14334 -0.17941
liquor 0.36006 0.43 0.62023 -0.36433 -0.43392 -0.17606 0.48089 -0.58045 0.05837 0.80916 -0.59255 0.14513 -0.66839 -0.1145 -0.082207 -0.092348 -0.75724 -0.29578 0.087661 0.11597 0.11951 1.1872 -0.4973 0.34811 0.4892 0.0066231 1.1787 -0.17043 1.1352 0.73099 -0.36258 -1.3549 0.89984 -0.55754 -0.29052 -0.84171 -0.44703 -0.26788 0.48782
brokerage -0.45908 -0.036758 0.34587 -0.022949 0.36653 -0.06253 -0.075156 0.4568 0.17985 0.24971 -0.41124 -0.28632 -0.70672 0.21388 0.56985 -0.64084 -0.17827 0.012755 -0.19209 -0.097028 -0.66047 1.2934 1.1323 -0.47336 -0.014665 -0.6476 0.41636 -0.79557 -0.96718 -1.2455 -0.34604 -1.3905 0.20832 -0.98272 -0.727 0.35551 -1.0376 0.96075 -0.26013
ambitious -0.18122 0.053193 -0.27727 1.0394 0.089537 -0.56194 -1.0334 0.19618 0.15033 -0.017513 -0.0027438 -0.50193 -0.65467 -0.050243 -0.17877 0.4228 0.75323 -0.13069 -0.056698 -0.17969 0.58328 0.84059 -0.49573 0.085482 -0.32829 0.8945 -0.53368 1.1387 -0.66833 -0.2751 -0.37302 -0.78091 0.092588 -0.17341 -0.86029 -0.25436 -0.40942 -0.22328 -0.19989
guild -0.37594 0.094907 -0.62271 -0.34298 -0.99366 0.64469 0.042826 0.46967 0.38617 -0.45651 1.4858 0.060462 0.42227 -0.86971 0.02668 -0.63409 0.28226 -0.61647 0.044599 -0.22185 0.35303 0.41721 0.48721 0.25866 -0.60034 -0.33187 -0.21408 -0.11943 -0.35913 -0.44808 -0.026378 -1.1247 -0.37999 -0.12956 -0.058333 -0.27533 0.29412 0.088687 0.64913
gasoline -0.025585 0.4597 0.34518 0.51196 -0.81984 -0.23513 -0.041372 0.50375 -0.19669 1.4786 -0.1642 -1.0261 -0.41226 0.62162 0.25439 -0.51105 -0.45211 0.058157 -0.23797 0.44739 0.63805 1.3581 0.28143 0.49001 -0.16716 0.10322 0.68934 -0.056692 0.43804 0.69141 1.3516 -1.032 0.073164 -0.42795 -0.51142 -1.163 -0.64563 -0.40399 0.4415
ballots 0.42256 0.89241 0.40433 0.31051 0.41411 0.78544 -0.77408 0.82001 0.049266 0.29547 -0.080507 0.77375 0.31376 -0.48703 0.24045 0.15275 -0.23059 -1.4651 -0.77291 0.3681 0.71238 1.2659 -0.15276 -0.99662 0.14838 0.18787 -0.27404 -0.97722 -0.10988 -0.36576 -0.67428 -0.61987 -0.49835 -0.8782 -0.30375 0.0077298 0.70345 0.27702 0.88241
medium 0.52252 -0.34432 -0.45989 0.95159 -0.68491 -0.36106 -0.043206 0.51413 0.14246 -0.44721 0.66015 0.15455 -1.6329 0.87067 0.65676 -0.6036 -0.25659 -0.62761 -0.17567 -0.38075 1.2721 1.59 0.15644 0.32544 -0.45329 0.91785 0.33496 0.45997 0.43143 0.033528 -0.61316 0.88249 0.31621 -0.18814 0.3438 0.15046 -0.96212 0.27819 -0.81621
bankruptcy -0.53298 -0.57244 -0.18279 -0.49947 0.69833 -0.22477 -0.2555 0.45168 -0.023539 -0.087705 -0.25853 0.011955 -0.74802 -0.25079 0.37684 -0.14112 -0.36698 0.45841 -0.0089962 -0.058149 0.35865 2.2745 1.1794 -0.25738 -0.032771 0.73582 -0.49937 -0.515 -1.4936 0.1876 -0.31795 -1.2042 0.48524 -0.53096 -0.43476 -0.41532 0.31192 0.61657 0.7291
rhythm 0.38918 -0.34924 -0.76109 0.10927 -0.07373 -0.56714 0.083908 0.55387 0.069518 0.593 0.18449 -0.028086 0.8251 0.11088 -0.15217 -0.15001 -0.21483 -0.010677 0.6761 -0.73685 -0.13387 0.57453 1.096 0.38798 -0.7794 0.1225 0.31072 -0.39206 0.44511 0.021841 -0.015954 0.84886 0.59179 0.56085 0.61469 -0.5996 0.61911 -0.15025 -0.61618
nervous -0.66184 0.054595 0.58927 -0.90689 -0.22313 0.17688 -0.38273 1.131 -0.25847 0.22328 -0.077774 0.31182 0.83821 0.70697 -0.15089 -0.013717 -0.51196 -0.1013 0.069048 -0.22539 -0.079425 0.41487 0.75786 0.21283 -0.45951 0.025626 0.40912 -0.17365 -0.15581 -0.5095 0.0064655 -0.1769 0.66801 -0.10076 -0.51919 0.26999 0.25622 0.67002 -0.34433
law -0.73765 -0.37069 -0.25233 0.15738 -0.40587 -0.12339 0.6564 -1.2164 0.14757 0.026093 0.28923 -0.087733 -1.1219 -0.18417 -0.057938 0.2428 -0.38069 -1.0442 -0.4291 0.7112 0.98383 2.1612 0.37886 -0.35161 -0.14506 0.95703 -0.12746 -0.12859 0.32593 0.24759 -0.17663 -0.98587 -0.416 0.25499 -0.85358 -0.40536 0.42446 0.72621 -0.60654
sabbath -0.64095 0.64373 -0.27784 -0.067341 -0.99333 0.56687 0.78855 -0.46864 0.026407 0.58538 1.3225 -0.5575 0.13023 0.41128 0.36422 0.69013 1.1523 -0.64777 0.44006 0.66126 0.031794 0.96961 0.76295 0.30041 0.35307 0.57009 0.65464 -1.1855 0.081315 0.54337 0.10319 0.31797 0.93463 0.43307 1.4084 -0.0059725 0.65063 -0.69872 0.50411
body -0.10965 0.93872 -0.16971 0.2184 -0.19954 1.5393 0.15211 0.073187 -0.20624 -0.59581 0.22335 -0.28772 0.48739 0.73993 0.20244 0.47701 -0.80883 0.66884 -0.56291 0.15452 1.3075 1.8055 0.65865 0.66115 0.070113 0.39115 -0.30589 0.83567 0.64243 0.18568 -0.38896 -0.54854 -0.10253 -0.60876 0.075128 0.21953 0.5818 0.32466 -1.323
passport -0.37275 0.22491 1.0856 0.48253 0.58748 0.31375 0.65931 0.2131 -0.65834 -0.84481 0.26693 0.89876 0.40563 -0.78134 -0.22902 1.3689 -0.21389 -0.55282 0.26265 0.748 0.86055 1.7921 -0.025374 0.37721 -0.47323 0.042932 -0.4386 -1.1604 0.10419 -0.4036 0.14093 -1.4628 -0.24565 0.18502 -0.16127 0.94874 -0.87634 0.12679 0.0368
alcohol 0.17282 0.73836 0.38954 0.61138 -0.35342 -0.87222 0.96036 -0.65836 0.3788 0.11302 -1.043 0.04267 -0.44857 0.56267 0.475 -0.206 -0.9757 -0.26568 -0.33638 0.84136 0.54328 1.3495 0.34471 0.69821 0.52887 0.0074935 1.3669 -0.46221 1.023 1.172 -0.28115 -1.083 0.80674 -0.48102 -0.15549 -0.7034 -0.42082 -0.052998 -0.25575
profession -0.37024 -0.14175 -0.016297 0.61709 -0.34448 0.86818 -0.043361 -0.39659 0.69781 -0.55578 0.048447 0.1434 0.0044857 -0.053189 -1.0472 0.25435 -0.38563 -0.47722 -0.16564 0.26889 0.79046 0.86837 0.19703 0.48487 0.049155 0.12237 0.51441 -0.29814 -0.046461 0.34346 -0.53531 -0.20839 0.051503 -0.027387 -0.78158 0.64334 0.55404 0.45578 -0.43141
crystal 0.21961 0.81125 -0.37634 -0.23144 -1.0627 -0.15854 0.85776 0.51379 0.10622 -0.31288 0.79208 0.61916 -0.39091 -0.5508 -0.096197 -0.64199 -0.41867 0.50165 0.67071 0.55959 0.25955 0.13146 0.060809 -0.34389 -0.49857 -0.54428 0.98703 -0.1067 1.0671 0.02412 0.73546 0.19345 0.39671 -0.14664 -0.06684 -0.28784 0.62579 -0.58757 -0.31386
oldest 0.37268 -0.091766 -0.25704 -0.07618 -0.11686 0.74303 0.43095 0.0098366 0.32112 -0.2034 0.24656 -0.090294 0.33723 0.71989 -0.73157 0.86177 -0.37667 0.30186 -0.12899 -0.57093 -0.24336 0.99453 0.39219 -0.22336 0.70998 0.64026 -0.016945 0.22948 0.50569 0.41941 0.16526 -1.1743 0.47576 -0.15762 0.36008 0.70627 -0.019928 -0.26759 -1.0337
disease 0.29043 -0.57434 0.43282 -0.8253 0.55599 0.64107 0.0357 -0.25676 -0.62944 0.095915 0.13923 0.65858 -0.36453 0.14487 -0.10124 -0.83182 -1.2948 0.81128 -0.94376 0.75787 0.54923 0.76023 0.61358 0.50245 0.66505 0.73386 -0.65011 -0.5346 -0.70566 0.45775 -0.3425 -0.99742 0.49063 0.28639 0.97737 0.66408 0.56397 0.41094 -1.0782
peace 0.42312 -0.37062 0.18181 -0.33796 0.51431 0.78683 0.37359 -0.76536 -0.076158 -0.11461 0.71746 -1.0281 0.57384 -0.69953 0.70992 1.2453 -0.42811 -0.76077 -0.85186 0.25642 1.4124 1.3171 0.12446 -0.49728 -1.2869 0.38556 -0.14735 1.1019 -0.53212 -1.4541 -0.189 -1.4498 0.78896 1.676 -0.67213 -0.77966 0.68569 0.33633 0.66411
worst -0.33086 -0.37934 -0.24386 0.12135 -0.38937 0.29407 -0.19807 -0.35089 0.86936 0.86949 -0.1568 -0.29127 0.10922 -0.40979 -0.34217 0.21313 0.013424 1.1144 -0.38352 -0.14601 0.88406 1.4316 0.61509 -0.84024 -0.90179 0.69407 0.26326 -0.1372 -0.82502 1.1274 -0.46332 -0.72729 0.3261 -0.5538 0.020877 -0.44521 0.041126 0.54808 0.24759
london -0.68844 0.49135 -0.68924 0.38926 -0.48802 0.15746 0.83178 -0.37159 -0.37951 0.50083 0.45958 0.43018 0.23089 0.78911 0.053711 -0.2994 -0.30442 0.14165 0.994 0.38918 0.71774 0.61408 -0.2577 -0.26942 -0.83637 0.030968 -0.24832 -1.2594 -0.4897 -0.59699 1.2068 -1.2883 0.31343 -0.63114 0.74412 0.82233 0.2311 0.94608 0.41467
crash 0.39641 0.22949 0.13842 -0.06869 0.6971 0.24168 0.19415 0.075942 0.79539 0.21791 0.22868 -0.6251 0.32095 -0.30313 0.5614 0.13806 -0.4046 0.81935 -0.23513 0.07664 1.0855 2.1377 0.63761 -0.41802 0.67669 0.099365 -0.67624 -1.1018 -0.075393 0.47185 0.92471 -0.92626 -0.2563 -0.8224 0.22371 -0.36425 0.6186 1.046 -0.18726
chocolate 1.0362 -0.092066 0.34514 -0.56129 -0.69151 -0.23059 0.92099 0.091128 -0.019847 -0.16974 -0.21016 0.10133 -0.40136 -0.95862 0.62099 -0.59951 -0.75911 0.43124 0.56037 0.0062295 0.87853 0.62437 -0.089104 0.71895 0.016767 0.033029 0.79016 -0.24861 0.0050373 0.95194 0.62736 0.53874 1.0047 -0.85407 -0.63156 -0.87258 0.14419 -1.0288 -0.31912
emotion -0.50543 -0.5574 0.17084 -0.14553 0.19758 -0.45476 -0.57935 -0.073398 0.02557 -0.16493 0.47809 0.44462 0.71992 -0.065804 0.34062 -0.014356 -0.20803 -0.063572 0.10842 0.25829 0.75901 0.54468 0.22004 0.51258 -0.28264 0.062951 0.99474 0.016312 0.85248 -0.21878 0.084836 -0.18612 0.29626 0.14465 -0.63727 -0.55038 0.84439 0.39459 -0.91147
correspondence 0.4786 -0.37803 -0.48878 -0.32104 -0.15734 0.19019 0.87422 0.15652 -0.36382 -0.85397 0.028255 -0.044218 -0.00016499 -0.05267 -0.34107 -0.09083 -0.10563 -0.51573 0.93784 1.0154 0.076084 0.63579 0.38059 -0.3529 0.036989 0.61713 0.43739 -0.2183 1.3927 -0.68399 0.42864 -1.0597 -0.38733 0.41395 -0.46168 0.27538 0.3249 -0.3782 -0.54348
marching -0.46213 0.59121 -0.99128 0.34291 -0.45397 0.14076 -0.20306 0.33819 -0.68773 0.57525 -0.23933 -0.61672 1.454 -0.046242 0.026794 -0.045506 0.48816 -0.53726 0.13287 0.096927 0.28811 0.77068 0.04472 0.050263 -0.19946 -0.29075 -0.15077 0.1713 -0.43621 -0.62641 0.26494 0.8117 -0.22016 -0.046511 0.1026 -1.0785 0.41419 -1.043 0.77925
nature -0.28381 -0.030566 -0.11361 -0.23024 0.050675 0.76222 -0.71437 -0.46422 0.58562 0.19836 -0.10554 -0.011705 -0.71274 0.1867 -0.20618 -0.032491 0.042609 0.058063 -0.11081 0.71036 0.75286 1.3659 0.45288 0.038091 -0.23453 1.5597 0.48907 0.31545 0.56446 -0.086974 0.44573 -0.77118 0.11444 0.15236 -0.23473 0.11991 0.52855 0.26648 -1.1847
africa 0.12002 0.9052 -0.77801 -0.85173 -0.020806 -0.19993 0.73181 -0.70289 -0.59126 0.58044 0.33718 0.47317 0.29119 -0.17729 -0.081529 0.43619 -0.48647 0.3456 -0.48613 -0.85401 0.67788 1.0323 -0.2494 -0.42215 -0.37774 0.73347 -0.67563 0.58581 -0.62553 -0.6108 -0.42488 -0.77803 0.091798 0.022895 0.053256 0.64313 -0.22149 0.58641 -0.22708
manufacturer 0.77852 -0.24817 0.090369 0.054793 -1.456 0.50809 0.069747 0.25143 -0.17184 -0.18794 0.234 -0.1521 -0.45735 -0.27069 0.49674 -0.046642 -0.44774 0.2159 -0.20197 -0.16161 0.32801 1.9095 -0.08288 1.2872 0.27359 -0.11954 0.16074 -0.39597 -0.22234 0.16723 0.65012 -0.72451 0.81061 -0.69358 -0.28977 0.42106 -0.10618 0.69147 -0.51673
satellite 0.42311 0.048214 0.14267 0.87806 -0.44535 0.47129 -0.20496 0.64918 -0.034235 -0.89569 0.2248 0.60032 -0.16127 0.71181 -0.11321 -0.97977 0.40971 -0.40743 0.38068 -0.22474 0.76771 2.1472 0.36041 0.10035 0.79403 -0.055221 -0.41973 0.1741 1.0098 -0.19559 0.96345 -0.75431 0.21064 -0.2395 0.15294 0.34263 -0.63267 0.065059 0.042616
wagner -0.031132 -0.19174 -0.53715 -0.034749 -0.40639 -1.0001 0.4541 -0.59074 0.26558 0.22781 0.50748 -0.46955 0.7031 0.37333 0.95166 0.016603 0.66377 -0.50199 0.28543 0.23234 -0.52153 -0.12888 1.0631 0.46336 0.0267 -0.35571 0.75764 -0.26081 -0.36964 -0.27845 -0.54816 -0.41972 -0.27082 0.074116 -0.24177 0.59946 0.61679 0.21328 0.0041088
simple -0.21316 0.21171 -0.18317 0.32402 -0.26222 -0.070091 0.12407 0.30197 0.015577 0.15121 0.22925 -0.36409 -0.67737 -0.30033 0.018089 0.24629 -0.53508 -0.21591 -0.19505 0.58692 0.60395 1.5538 -0.14506 -0.33058 -0.08806 0.97745 0.39101 -0.766 0.29843 -0.16612 -0.18279 -0.2032 -0.28749 0.33548 -0.062998 -0.048032 0.27917 -0.58449 -1.25
ultimate -0.050686 -0.45357 0.16199 0.022631 -0.22566 0.21433 -0.52182 -0.19319 0.58192 0.38032 0.449 0.087349 -0.0049642 -0.23319 -0.1761 0.75255 -0.56659 -0.0088792 -0.7677 0.028981 0.7313 0.8027 -0.23964 0.11623 -0.69213 1.099 -0.65659 -0.1075 -0.13057 0.32171 -0.15737 -0.38532 -0.40638 -0.13568 -0.18884 0.26922 0.42115 -1.1199 -0.42903
shooting 0.35378 0.65704 -0.388 0.52776 0.023508 0.26842 -0.12374 -1.436 0.67137 0.53517 0.076952 -0.41274 -0.086549 0.13493 -0.29192 0.22933 0.26603 0.071586 -0.33464 0.034323 1.3708 1.1725 0.46978 -0.7471 0.49648 -0.1406 0.78221 -0.64966 0.55639 0.46817 0.67084 -0.48466 -0.32465 -0.38709 0.15295 -0.25599 0.13046 -0.14633 0.13207
roles -0.63069 -0.20452 -0.56858 0.14515 -0.74148 0.09298 1.1943 0.44152 1.1075 0.27717 0.031388 0.44027 0.26547 0.65021 0.43901 0.11816 0.80169 0.33255 -0.52845 -0.4921 1.4859 0.13382 0.63921 -0.42761 0.22345 0.78792 0.51192 0.12867 -0.20073 -0.040443 -1.1681 0.53566 0.14323 -0.097584 -0.66203 0.0058625 0.20873 0.49678 -0.11345
investment -0.73211 -0.38541 -0.20468 -0.15251 0.46539 0.042214 -0.19452 0.44311 0.22573 -0.12628 -0.9089 0.27807 -0.94931 -0.23106 0.57925 -0.38533 0.28356 -0.14968 -0.46259 -0.59432 0.25557 1.9565 0.33982 -0.23291 -0.52566 0.16421 0.14238 0.12859 -0.92395 -0.94071 -0.38563 -1.1274 -0.25013 0.1763 -1.0443 0.28352 -1.2404 1.184 -0.53169
theater 0.23572 0.16263 -0.44947 0.25818 -0.66444 -0.13915 0.21592 0.46097 0.21807 0.13155 0.17543 0.10779 0.70977 -0.032428 0.15505 -1.1348 0.66047 -0.4733 0.28971 -0.41267 0.2457 0.8891 0.26894 0.16507 0.159 -0.29635 1.1097 0.3902 -0.082491 -0.095636 0.42528 -0.62926 0.20059 0.12104 -0.33253 0.50388 0.33319 0.35693 0.061
shariff -0.24165 0.11004 0.021422 1.0474 -0.1335 0.063887 -0.47504 0.36405 0.19805 -0.21912 -0.83255 -0.14413 -0.33419 -0.13749 -0.056117 0.75037 -0.6098 -0.0082643 -0.21223 -0.30239 -0.20241 -0.41389 -0.01403 0.046424 0.17682 -0.37409 -0.33147 1.3368 0.54755 -1.6757 0.54707 0.52185 0.34287 0.16452 -0.75251 -0.19876 0.56933 0.29578 -0.41548
easter -0.018411 0.46671 -0.20424 -1.0721 -0.17849 0.30262 0.89886 -0.14657 -0.030408 -0.18846 -0.014905 -0.85689 -0.12849 0.022785 -0.2649 0.62564 0.48672 -0.46292 0.5659 0.59401 -0.19433 0.83361 0.098355 0.087502 0.17315 -0.26091 -0.68658 -0.8076 -0.25545 0.041484 -0.0048035 -0.43278 0.61815 -0.31504 0.25896 0.29283 0.060372 -1.4274 0.45971
expedition 1.1941 0.066939 -1.0599 -0.638 0.29605 -0.33192 -1.081 -0.71244 -0.19723 0.60881 -0.79561 -1.0703 0.72288 -1.2159 -0.28534 0.22837 -0.042454 0.0064071 0.23853 -0.16144 0.67147 0.82867 0.40602 -0.13544 0.77446 0.954 -1.0267 0.14828 0.11558 0.040964 0.44829 -1.3502 -0.12052 -0.61065 -0.57105 0.83046 0.062349 -0.10614 -0.090763
warships 0.43499 -0.50949 0.019301 0.82066 -0.48592 0.047421 0.093943 -0.34544 -0.36559 0.98906 0.46302 -1.5422 0.64603 -0.1193 0.47961 -0.056763 0.58871 0.30207 0.33635 0.30411 0.56038 1.2441 0.58787 -0.68007 0.56772 -0.86652 -0.98299 0.56507 0.04494 -0.29038 0.16468 -0.86276 1.2719 -0.33144 -0.66774 0.053968 -1.0886 0.60305 -0.259
sake -0.17643 -0.44597 0.69227 0.10344 0.13457 0.079072 0.23328 -0.69356 0.55335 0.27514 0.10287 -0.74136 -0.23099 0.027691 0.45631 0.12685 -0.3935 -0.13347 -0.53389 0.19851 1.1143 0.13944 -0.54394 -0.12436 -0.50965 0.38434 0.090687 0.52816 0.4524 -0.42552 -0.15485 -0.57884 0.42481 0.72527 -0.22452 0.35119 -0.0022431 -0.5577 0.0019917
riverside 0.36967 1.0099 -0.45514 0.47557 -0.095879 -0.20043 -0.58309 -0.07858 0.42239 0.35286 -0.22889 -0.043582 -0.66826 0.22651 -0.02447 -0.50987 -0.30594 -0.084853 0.3929 -0.067487 -0.43751 0.41326 -0.30819 -0.92787 0.4698 -0.31448 0.2632 -0.16598 0.47289 -1.0011 0.76558 -0.030962 0.36915 0.10467 0.52346 -0.45827 0.38837 0.35306 0.50029
jurisdiction -1.3944 0.19405 0.53591 -0.42994 0.027378 0.65229 0.245 -1.0956 0.29305 0.24629 -0.61531 0.8022 -0.4402 -0.24058 0.22392 0.39504 -0.59783 -0.092401 0.062473 0.52402 0.60965 1.9424 0.31051 0.26475 0.61341 1.1628 -0.5964 0.2531 0.78688 0.25204 -1.0581 -0.71517 0.59949 0.29006 0.084217 -0.8143 0.036068 0.83924 -0.12356
bishops -0.95153 -0.39401 -0.65181 -0.75074 -0.48473 0.58528 1.2375 -1.2932 -0.50017 -0.34231 -0.86111 0.49553 0.43788 0.76093 -0.076569 0.83539 -0.59717 -0.35314 -0.13949 0.19869 -0.077794 0.50181 -0.03269 -0.090953 0.65679 0.16936 -0.59471 0.23817 -0.3202 -0.41732 -0.49973 -0.24503 1.1132 -0.58307 -0.38649 -0.49611 0.22855 -0.2353 -0.17826
quarantine -0.71719 0.77544 -0.0018261 -0.030462 0.41641 0.74553 -0.056892 -0.76157 -1.145 0.18376 0.19959 0.41779 -0.97416 -0.06902 -0.34444 0.38076 -0.040514 0.29674 -0.12182 1.0652 0.60564 1.3872 0.24668 0.14379 0.35718 -0.11794 -1.3164 -0.975 -0.0016786 0.29756 -0.62434 -0.84566 0.72875 1.0778 0.50337 0.36388 -0.5891 0.28425 -0.27836
heaven -0.72213 -0.112 0.30485 -0.39815 0.15143 0.50292 0.37792 -0.98416 0.7372 0.56422 0.5533 -0.030161 0.57285 -0.077538 -0.42584 -0.31549 -0.11254 -0.47337 0.33119 -0.16199 0.77458 0.42065 0.1228 0.37079 -0.17119 -0.020935 0.13334 0.15235 0.42997 0.018576 0.2688 -0.015133 0.15279 0.38817 0.44627 0.21439 0.61591 -1.1194 0.02774
forthcoming 0.048618 0.35549 -0.22589 0.11947 0.37792 0.47267 -0.2988 0.29508 -0.20383 -0.37256 -0.35396 0.25962 0.10744 0.49499 0.30962 0.49297 0.2874 -0.19708 -0.017253 0.4771 -0.37434 0.4605 -0.43505 -0.8953 -0.48187 0.95049 -0.48779 0.78054 -0.38937 -0.39369 -0.39299 -0.90048 0.20093 -0.10227 -0.3971 -0.034021 0.14023 0.023799 0.5839
lincoln 0.60395 0.32639 -0.41652 -0.52244 -0.4678 -0.93 0.2813 -0.013217 0.095225 0.70736 -0.25356 -0.95856 0.06455 0.093328 0.32741 0.36811 0.4878 0.47003 0.027854 0.3507 -0.29382 0.60071 -0.067299 0.19525 0.3826 0.22253 0.28194 0.014848 0.052181 -1.007 1.2395 -0.53289 0.16396 -0.049903 -0.709 0.4427 0.96169 -0.3027 0.2895
mystery 0.69944 -1.2203 0.67156 -0.27901 0.88422 0.1765 0.28134 0.035832 0.44953 0.29801 1.1995 0.64766 -0.8448 -0.11516 0.061092 -0.26102 -0.45969 0.22726 0.48718 0.43573 0.94252 0.25449 0.6196 -0.086495 0.065041 1.0169 0.11418 -0.20741 -0.084233 1.0767 0.3476 -0.94025 0.0039903 0.12975 0.40819 0.17201 0.054231 0.15329 -0.69792
retiring 0.042925 0.057 -0.67696 -0.17315 -0.48679 -0.071582 0.11133 0.042027 -0.083629 -0.02965 -0.12792 -0.47835 1.0253 0.68957 -0.93108 0.88899 -0.1445 0.63518 -0.27612 -0.082452 0.40694 0.42248 0.83496 -0.2967 0.43502 0.38717 0.54938 0.067046 -0.91495 0.029103 -0.27214 0.1599 0.068655 -0.22359 -0.68369 0.11845 1.233 0.38132 0.78622
patent 0.10769 -0.48142 -0.30363 -0.56066 -0.42625 0.14838 0.16166 0.45693 -0.55205 -0.29003 0.78055 0.63703 -0.44688 -0.72601 -0.75941 0.031914 -1.1133 -0.82217 -0.15844 0.33759 0.54454 1.6675 -0.6282 0.36981 -0.1121 0.95955 0.089699 -0.03157 0.17406 0.18676 -0.4682 -1.7301 0.76057 -0.060348 0.1058 -0.04638 -0.36243 0.71164 -0.02083
candidate 0.85188 -0.33968 0.066758 0.32223 0.3465 0.054884 -0.40787 0.44444 0.32518 -0.22314 -0.91438 -0.071373 0.81558 -0.17209 -0.54427 1.3315 -0.54527 -0.66662 -1.1905 0.21621 0.93752 0.79856 -0.010012 -0.68726 -0.20239 1.5527 0.26663 -0.0016538 -0.79873 -0.54127 -0.54813 -0.64335 -0.79321 -0.83448 -1.3511 0.35726 1.1436 0.44089 0.14834
african 0.20353 0.26233 -0.67364 -0.3779 -0.28067 0.058862 0.20839 -0.27468 -0.54797 0.34161 0.47262 0.24604 0.17809 -0.13984 0.37988 0.2673 -0.019914 0.47808 -0.92599 -1.375 0.14545 1.7558 0.15212 -0.37486 -0.38572 0.72171 -0.64434 0.33723 -0.77954 -0.66373 -0.20284 -0.88423 0.099098 0.051458 -0.35565 -0.036069 -0.12211 0.14887 -0.46542
constitution -0.91031 -0.42027 -0.28756 -0.74214 -0.1321 0.039139 -0.067944 -0.91847 -0.86217 -0.0077402 0.34811 -0.13234 -0.20826 0.082184 0.72131 1.0203 -0.45749 -0.76763 -0.29346 0.24305 0.65336 1.7186 0.39242 -0.58372 -0.43058 1.0492 -0.2078 0.38915 -0.069664 -0.046816 -0.25611 -1.4075 -0.13275 0.48442 -0.3493 0.012721 0.735 0.24103 -0.95093
