operator -0.77017 -0.55165 0.37639 0.20341 -0.18813 0.51069 -0.36286 0.019896 0.28207 0.46269 0.49809 0.42686 -0.24274 -0.43538 0.15372 0.017056 -1.0536 -0.33404 0.50687 0.99349 0.14097 -1.3586 1.9549 0.73139 0.31059 -0.15941 0.078505 -1.1506 0.0072031 0.2646 0.72735 -0.51207 0.5926 -0.087594 -0.32099 0.29635 0.59374 0.70352 -0.11012
stalin -0.13136 0.029823 -0.67162 0.16215 0.37335 -0.47934 0.32452 1.2287 -0.89027 -0.9122 0.13907 -0.88329 1.2312 0.21488 0.17807 1.5342 -0.25442 -0.0094747 0.17081 1.5439 -0.45964 -0.16837 0.076226 -0.4811 -0.31354 0.25979 0.25158 -0.085734 -0.37336 0.48345 -0.52787 -0.50625 -0.031692 -0.413 -0.062067 0.449 -0.45796 -1.2264 -0.13966
uniform 0.8359 0.18653 0.62603 0.89771 -0.53817 0.8897 0.095498 1.0781 -0.0017376 -1.0375 0.28622 0.31224 -0.15544 -0.16632 -0.4994 -0.50812 0.21192 0.28502 -0.16206 1.1925 0.069056 -0.86597 1.7498 -0.28395 -0.82368 0.25683 -0.00080693 0.17553 -0.19899 0.06993 -0.08831 0.0008884 -0.15155 -0.79878 0.58352 -0.26601 -0.033764 -0.31441 -0.11023
jamaica 0.2099 -0.081209 0.9262 -0.015346 -0.25083 -0.85773 0.35934 0.17538 -0.02965 0.14435 0.32742 0.30625 0.3901 -0.41408 0.96481 -0.13993 -0.48294 -0.56854 1.2633 0.045669 -0.55713 -1.0488 0.38752 -1.1805 0.29029 -0.59427 -0.49585 -0.39973 -0.42579 0.044468 0.70183 0.030341 0.2171 0.88322 -0.35452 -0.092042 -0.43655 -0.11015 0.0020949
espionage -0.45294 -0.015117 -0.96994 1.0687 0.48639 -0.41721 0.92676 0.46027 -0.54275 -0.15884 0.40748 0.27861 -0.10827 0.56276 -0.93113 0.066817 0.18049 0.026127 0.33906 1.1815 -0.52799 -0.070997 0.99367 -0.6281 -0.22194 -0.69775 0.70167 -0.21156 -0.22967 0.2136 0.45871 -0.86061 0.83677 0.62768 -0.59911 -0.32314 1.5417 -0.059523 -0.41345
crime 0.71598 -0.65998 -0.4203 0.82433 0.20074 -0.87495 0.29658 0.42515 -0.74023 0.45249 -0.021832 0.66793 -0.69675 -0.2816 0.31692 0.17816 0.34806 -0.21192 -0.3416 1.474 -0.11602 -1.5983 1.4884 -0.58272 -0.57206 -1.2719 0.16403 0.30687 -0.13125 0.66309 -0.46149 -0.82215 -0.33363 -0.12531 -0.1148 0.13258 0.52252 -0.005387 -0.32109
day 0.20647 0.42742 1.129 -0.47955 -0.18319 0.24588 -0.029048 0.17493 -0.49573 -0.026547 0.57039 -0.28324 0.3833 -0.074012 0.11077 -0.4574 -0.16388 -0.0022426 0.24333 1.0476 -0.83517 -2.6268 2.1535 -0.54019 -0.18484 -0.47044 0.31006 -0.10041 -0.38982 -0.34424 -0.15675 -1.0446 0.12899 -0.10337 -0.23498 0.32535 -1.1755 0.049695 0.02438
reaction 0.018337 -0.283 -0.32129 0.085108 -0.72874 -0.32795 -0.33524 -1.553 0.17929 -0.20917 -0.4212 0.20333 0.66346 0.16727 -0.029195 0.94185 -0.29003 -0.33717 -0.20025 0.36027 -0.2825 -1.7512 0.97605 0.24872 0.37878 0.28436 -0.23827 -0.25517 -0.13079 -0.41742 0.55051 -0.68414 0.072187 -0.28414 -1.0177 0.79175 0.32658 0.14142 -0.24686
improving -0.63208 -0.73122 -0.39317 0.46447 -0.60119 0.31672 -0.47553 -0.15317 0.11048 0.040504 -0.39025 -0.45196 -0.90845 0.60816 -0.048596 -0.29826 0.41908 0.53732 -0.029444 1.5849 0.050953 -1.4451 1.0668 -0.72201 -0.51151 -0.01566 -0.24157 0.83866 0.20121 -0.5329 -0.065164 -0.17018 0.27724 -0.099745 0.018618 -0.079953 -0.57708 -0.023994 -0.42128
texas 0.046755 0.61696 0.33356 -0.0051696 -0.98285 -0.051122 -0.41628 0.89544 -0.37757 0.66729 -0.51538 -0.40509 -0.24456 0.019988 0.4346 -0.77432 0.28166 -0.42877 0.21442 -0.39 0.055975 -1.586 1.802 -0.49344 0.70698 -0.80804 0.5876 -0.041568 -0.4991 -0.0089866 0.31472 -0.27487 -0.1926 -0.46812 -0.5838 0.46071 -1.3694 0.32132 -0.060431
heroin 0.29726 0.24753 0.43082 1.0364 0.42882 -0.90556 1.0618 1.0918 -0.29797 -0.26122 -0.23441 1.6263 0.028275 0.76611 -0.67302 0.40247 0.15242 -0.62969 -0.16717 0.99081 -0.12815 -0.28767 0.97694 0.21448 0.16894 -0.2433 1.2392 0.14181 0.3832 1.4003 -0.59655 -0.54729 0.028816 -0.53083 0.27727 -0.94933 -0.28558 -0.67442 -0.20814
cell 0.38181 0.5646 -0.16238 0.54557 0.35064 -0.22561 0.91107 -0.71865 0.92409 -0.69064 0.012134 0.71955 0.46578 0.67348 0.31527 -0.41679 0.54468 -0.35115 -0.42604 0.65416 0.041389 -1.3093 1.5118 -0.37164 0.88374 -0.58139 0.23388 0.53099 0.44748 -1.0953 0.64685 -0.13178 0.92792 -0.54101 0.17504 0.016775 0.25643 -0.14992 -0.74729
actress -0.24703 -0.14116 -0.0088659 0.20679 -0.41996 -0.20774 0.45641 0.83865 0.17936 2.2639 1.4324 0.44075 0.48381 -0.19902 -0.24215 0.49023 0.58172 0.64086 0.064489 1.3471 0.19676 -1.7807 -0.4223 -0.062847 -0.55274 0.41592 0.95667 0.1609 -0.58087 0.95336 -0.051126 0.10772 -0.050672 0.50062 -1.0303 0.12623 -0.16382 0.89003 -0.21105
exile 1.2341 -0.50193 -0.38323 0.4759 0.64705 0.098736 0.1582 -0.024063 -0.25478 0.070378 -0.018407 -0.11584 1.3934 0.081189 -0.052092 0.36472 -1.1358 -0.32569 0.62271 1.1903 0.21179 -1.0683 1.0549 -0.15922 -0.16655 -1.1918 -0.12483 -0.10913 -1.2492 -0.65797 0.21232 -0.61243 0.30021 -0.20752 -0.55638 0.02764 -0.5361 -0.20959 0.3124
action 0.20648 -0.52062 0.050359 0.067293 -0.47326 -0.3427 -0.3881 -0.28944 -0.32947 0.18733 0.01307 0.035201 -0.27827 -0.10851 -0.10844 0.23574 0.045518 -0.27218 -0.46305 1.1776 0.081402 -2.1597 1.7648 -0.24286 -0.2642 0.025848 -0.43394 0.5634 -0.44134 -0.3453 -0.24844 -0.87395 0.21348 0.22936 -0.87984 0.48505 0.43462 0.33035 -0.068042
oxford 0.50649 0.78408 -0.021897 0.038258 -0.36053 0.12886 0.73595 0.88306 0.36359 -0.14766 0.23172 -0.39925 -0.13439 0.083096 -0.3135 -1.0824 0.28806 -0.68213 0.80598 -0.12603 -0.82098 -1.8336 -0.087791 -0.60488 -0.61419 -0.13392 -0.0080447 -0.26409 0.35624 -0.88874 0.86116 0.029697 0.14001 -1.5045 0.64169 0.52234 -0.5968 -0.19261 0.29122
exchange -0.74074 -0.45544 0.10284 -0.53772 -0.12793 0.30742 0.11981 -0.51696 -0.20729 -0.70717 0.0734 0.15014 0.009597 0.42861 0.21261 0.88962 -0.88707 -0.2249 0.23448 0.87824 -0.61052 -1.3975 2.3112 -0.747 -1.0172 0.10959 0.47328 -0.82789 0.15709 -0.043473 -0.52698 -1.3288 -0.63969 0.22172 -0.19583 -0.16936 -0.58376 1.0025 -0.19984
cannon 0.13399 0.49832 0.21203 0.096895 -0.47085 -0.62532 0.67301 -0.22084 -0.62456 -0.30264 0.33052 -0.33516 0.55315 0.58746 0.46724 0.35963 0.14183 0.18854 -0.39169 0.20909 0.51588 -1.3232 0.15593 0.52896 -0.054966 1.8551 0.61397 0.28661 0.83245 0.073405 0.064195 -0.71171 -0.16472 -0.44787 -0.27886 0.57237 -0.36431 -0.028534 0.22233
carbon -1.4263 -0.36055 0.41034 0.7189 -0.44767 -0.51282 0.015249 0.4805 0.43986 -0.89257 -0.09279 0.13882 -0.02083 0.29218 -0.41663 0.46428 0.2282 0.82204 -0.93545 0.70527 -0.35174 -1.4298 1.292 0.41257 -0.46754 0.47499 0.68941 0.21844 1.1334 0.86396 1.1231 -0.64539 -0.13385 -0.34248 0.62288 -0.025109 -0.20308 -0.48734 -0.89687
wedding 0.6499 -0.12223 0.65792 0.52177 0.14411 0.7426 0.76975 0.24349 -0.10652 0.56459 0.20563 -0.42129 -0.13613 -1.0942 -0.45078 0.13778 -0.36977 -0.054266 0.73506 0.19697 -0.65736 -2.386 0.85861 -0.33525 0.41855 -0.33008 0.07157 -0.66427 -0.10804 0.015635 0.20264 -0.13938 -0.049799 -0.80639 -0.78638 -0.71381 -0.66653 -0.4121 0.37831
socialism -0.18086 -0.046417 -1.4825 0.15077 0.43132 0.092594 -0.25449 0.3396 -0.21526 -0.84969 -0.15237 -0.52181 0.30088 -0.012459 -0.10035 0.82909 -0.10698 0.20281 -0.9565 1.0189 0.054783 -0.12669 0.46916 -0.35348 -0.56721 -0.21819 -0.16577 0.19505 -0.32829 -0.52918 -0.12484 -1.0507 0.5289 -0.28142 -0.74145 1.1449 -0.048511 -0.94489 -1.2694
mirror 0.46245 -0.49846 0.54436 0.031217 -0.20273 0.32814 0.029627 -0.46225 0.52772 -0.60687 0.94345 0.58531 -0.25101 -0.31613 -0.27908 -0.084935 -0.53859 -0.08871 -0.030926 1.0061 0.21904 -2.097 0.79958 -0.071215 -0.59085 0.10515 0.49903 0.042883 0.8676 -0.000307 0.90062 -0.53503 0.27433 0.097242 -0.23766 -0.093272 0.17059 0.28058 -0.49458
guilt 0.93368 -0.57777 0.10879 0.14442 1.0761 -0.41945 0.46987 0.010038 -0.77434 0.61837 -0.31582 0.75404 0.15821 -0.13647 -0.12858 0.94162 -0.10536 -0.62994 0.041895 1.0133 0.065767 -0.65562 0.75603 0.7015 0.30569 -0.36105 0.71988 -0.30695 0.0011236 0.17365 0.11766 -0.88815 0.31058 0.35836 -0.18852 0.4395 1.2557 -0.062454 -0.71131
capitalism 0.063023 -0.48113 -1.1435 -0.23156 0.89927 -0.14808 -0.1273 0.32685 -0.61369 -0.52856 -0.0871 -0.39979 0.0071466 0.024217 -0.40108 0.15119 -0.50201 0.8643 -0.21028 0.81841 0.043276 -0.53818 0.38363 -0.16914 -0.51137 -0.42064 0.49135 0.10297 -0.58412 0.29562 -0.16024 -0.93375 0.63627 -0.50435 -1.018 0.74016 0.24704 -0.78056 -0.88007
wheat -1.9097 0.57006 -0.11361 -0.36415 -0.31724 1.0836 0.6338 -0.33515 0.099525 -0.047811 0.082363 0.15286 -0.60818 0.55522 -0.72255 0.29268 0.12368 -0.53852 -0.19174 0.52536 -0.75341 -0.13359 1.1791 0.65815 0.051596 -0.18664 0.18305 -0.44487 -0.18448 0.68895 0.15879 -0.89824 0.16765 -0.097018 0.91556 -0.56945 -1.0882 -0.57778 0.32326
awards -0.4373 -0.076642 0.40814 0.070424 -0.68992 -0.0046758 0.095351 1.1449 0.061255 1.2869 1.3691 0.61751 0.83817 -0.87306 1.0479 -0.78863 -0.01875 0.3384 -0.28882 0.68853 -0.59546 -1.702 1.3394 -0.52937 -0.38348 0.77434 -0.34861 0.040525 -0.45048 0.55286 -0.54981 -0.46078 -0.58617 -0.81571 -0.57368 -0.17043 -0.37239 1.0491 0.32766
battleship -0.55654 0.54206 -0.32255 0.78099 0.48322 -0.86848 0.13833 0.9061 -0.36045 -0.26659 0.56696 -1.2526 0.11891 -0.20366 -0.4507 -0.085504 -0.03648 0.33395 0.1339 0.18099 -0.22541 -0.71073 0.5475 -0.64912 -0.4465 1.5059 -0.38524 0.77884 0.63791 0.30741 0.25556 -0.099497 1.3762 -0.95901 -1.0447 0.45558 0.46746 -0.074585 0.14657
responsible 0.19901 -0.33821 -0.045568 0.39776 -0.4125 0.65134 0.26042 0.017384 -0.48236 0.75567 -0.98607 -0.12112 0.16902 0.43901 -0.040684 0.047319 0.05691 -0.02849 -0.79555 1.2296 -0.67024 -1.3369 1.4808 0.0026377 -0.11216 -0.19541 0.19115 0.073435 -0.28698 0.017792 -0.081583 -1.0051 0.64628 -0.25418 -0.5524 -0.14854 -0.023313 0.20382 -0.82628
chemistry -0.88733 0.90008 -0.41064 0.75217 -1.0341 0.001241 1.1733 0.094999 0.045969 0.0724 0.1112 0.2987 0.57265 -0.25625 -0.35205 -0.5173 -0.12988 -0.95156 -0.57053 0.44328 0.072739 -0.72691 0.34213 -0.15365 -0.48405 0.11642 0.86692 -0.16468 0.86467 0.11415 0.63236 -0.17753 -0.24963 -0.88343 -0.8827 1.4081 0.35507 0.71684 -0.64125
disaster -0.84924 0.055263 -0.10184 0.24125 0.026307 0.07228 -0.28551 0.32559 -0.70352 0.30434 -0.63428 -0.77381 -0.42983 -0.735 0.83745 -0.16492 -0.13408 -0.48813 -0.65858 0.96387 -0.060887 -1.6742 1.485 -0.31933 0.03785 -0.56977 -1.0753 -0.31967 -0.43758 0.33838 0.10112 -0.77515 -0.072695 -0.048832 -0.85576 0.040749 0.45301 0.67009 0.30217
judging 0.015522 -0.21764 0.68167 0.029939 0.25106 0.29731 -0.61003 -0.59543 -0.033026 0.034748 0.21119 0.0071802 -0.15825 0.14919 -0.15455 -0.12 -0.76265 -0.0021318 -0.44016 0.63559 -0.54778 -0.87997 0.5034 -0.53392 0.1744 0.77553 -0.0059841 -0.022201 -0.094453 0.52736 -0.19269 -0.2996 -0.2715 0.22986 -0.24903 0.27188 0.77011 -0.14075 0.072402
essay 0.74563 0.25578 -0.10803 -0.13067 -0.37419 -0.54444 -0.35402 0.42075 -0.14238 -0.33777 0.66526 -0.191 0.10819 0.14747 -0.1825 -0.22715 -0.13718 0.21637 -0.18808 0.35048 -0.45783 -1.096 0.4467 0.13018 0.075766 -0.73033 0.51783 0.27339 0.53343 0.074936 0.14092 -0.67057 -0.9879 -1.2267 -0.39794 0.35332 0.60944 0.3259 -0.85197
homer 0.23416 0.13938 -0.7033 -0.40378 -0.11767 -0.20067 0.2592 -0.18778 -0.47711 0.37021 1.4663 -1.3342 0.26955 0.61131 0.92657 -0.97626 0.83423 0.038868 0.63375 0.08589 -0.30909 -1.5301 0.42585 -0.7517 0.87575 0.36694 1.1732 -0.22877 -0.6562 -0.94875 -0.47753 -0.40205 -0.317 -0.24853 -0.02865 -0.69292 -0.3015 -0.42749 -0.09823
rowing -0.42965 0.22112 1.348 0.1821 0.2019 0.40427 -0.19019 -0.019747 -0.29119 -0.17611 0.16309 -0.78133 0.44097 0.17511 -0.80739 -0.94447 -0.2808 -0.61353 0.29092 0.57669 -0.059038 -1.076 -0.23178 -1.0365 0.6603 0.99433 -0.46001 -0.25037 0.70831 0.34636 1.1553 -0.12059 0.19206 -0.16749 0.047424 0.44645 0.96721 -0.23365 0.094055
paris 0.26424 0.40056 0.56145 0.050464 -0.064805 -0.25491 0.29661 -0.067045 -0.38406 -0.3654 0.82612 -0.1881 0.9173 -0.47742 -0.15607 0.93976 0.13812 -0.52545 0.51924 0.55699 -1.4944 -2.6694 0.69801 -0.24939 -0.90352 -0.51692 -0.93519 -0.72123 -1.0439 -0.46385 1.2457 -0.99085 0.037708 0.2541 -0.40406 0.64597 -0.77094 1.1849 -0.40988
turks 0.67396 -0.48859 -1.0342 0.0025288 0.33525 0.042071 0.068323 -0.37274 -1.041 0.36639 0.24518 0.15233 0.6341 -0.6728 0.1885 0.76983 -0.45902 -0.24775 0.090818 1.2074 -0.86053 -0.3896 0.55838 -0.17763 0.13564 -0.41112 -1.1406 -0.34135 -0.1159 0.2817 -1.017 -0.081083 0.9736 -0.077113 -0.48341 -0.2504 -1.1312 -0.44963 0.32283
scientist -0.70174 0.97437 -0.88398 0.56192 0.0012279 0.32318 -0.0017719 0.78675 -0.71059 0.21244 0.040575 0.048617 -0.067447 0.29628 0.22784 -0.69194 -0.11867 -0.35192 -1.0182 0.40735 0.040857 -1.2434 0.56221 0.68781 0.30004 -0.14966 0.37919 0.31814 -0.14928 -0.13258 0.86962 -0.2418 -0.22237 0.090154 -1.1054 -0.019686 0.15771 0.66301 -1.2007
season -0.21162 1.1514 0.54402 -0.41669 -0.9858 0.5835 -0.56379 -0.0030483 0.15913 0.86645 0.92115 0.037316 0.055504 -0.61437 -0.49384 -0.78414 0.2162 -0.012972 0.72607 0.90494 0.15793 -2.9313 0.64373 -0.95707 -0.51568 -0.24783 -0.14341 -0.01049 -0.49545 0.21362 -0.90065 -0.56199 0.11715 -0.19902 0.587 0.44392 -0.73176 -0.31401 1.1755
aircraft -1.0634 0.76923 -0.41845 0.8075 -0.8981 0.61308 0.23257 0.40813 0.56694 0.18971 0.55169 -0.71557 -0.072287 -0.0083502 0.15017 1.161 0.67642 0.78212 -0.25032 1.2197 0.7633 -0.87313 2.5794 0.35126 0.31829 1.2081 -0.657 -0.43194 -0.0832 -0.30108 0.28665 -1.3116 0.5439 -0.7165 0.23561 -0.13664 -0.43676 0.87997 -0.0037035
pacific -1.1089 0.20552 0.34814 -0.30406 0.10128 0.022532 0.062767 0.56347 -0.12539 -0.75141 0.1113 -0.26833 0.15146 0.054235 -0.16919 0.74138 0.19888 -0.26483 0.039896 -0.42781 0.024085 -1.9636 2.2507 -1.2615 -0.017741 -0.83203 -1.0925 -0.66109 -0.081143 -0.56693 -0.15353 -0.67928 1.0407 0.052096 -0.021228 -0.42821 -0.20587 0.73325 -0.40412
trade -1.6431 -0.55616 -0.24898 -0.99393 -0.79459 0.43296 0.04844 0.3002 -0.71495 -0.86286 0.56727 0.09236 -0.13466 -0.052757 -0.37814 0.38462 -0.07565 0.16092 -0.35717 0.59564 -0.28278 -1.7117 2.3063 -1.0516 -0.85635 -0.44865 0.49853 0.27742 -0.30826 -0.80948 -0.97876 -1.5801 -0.021581 -0.19807 -0.47097 -0.73315 -0.22334 0.34811 -0.12599
athletics -0.24498 -0.34653 0.48056 -0.3521 -0.51917 0.68686 0.32498 -0.13556 -0.951 -0.10309 0.17479 -0.073086 0.54771 0.57253 0.10456 -1.1762 0.75249 -0.6181 0.55275 0.031514 -0.55986 -1.2784 0.83807 -0.9731 -0.12319 -0.075563 -0.21119 0.27246 -0.73682 0.15006 0.48013 -0.53055 -0.51125 0.75631 0.40048 0.30981 0.52255 -0.17369 0.37523
immunity -0.051703 -0.64554 -0.081986 -0.77556 0.34735 0.25065 -0.23116 0.14713 -0.07509 -0.12027 0.85921 0.56784 -0.75198 -0.75226 -0.15028 0.1076 1.0394 -0.94987 -0.13685 0.92162 0.27388 0.05222 1.1854 0.05714 0.099128 -0.017051 0.48422 0.55564 0.14425 -0.21724 -0.6937 -0.91302 -0.21957 1.2522 -0.35026 0.41937 0.72467 0.60068 -0.29309
asylum 0.38531 -0.63953 -0.21856 0.58341 0.75179 0.078634 0.31314 0.065164 -0.38272 -0.063859 -0.28489 0.72731 0.25237 -0.40085 1.0351 -0.095098 -1.2504 -0.50387 0.53374 0.97924 -0.27796 -0.40483 1.6026 -0.53533 0.011797 -0.47362 -0.37542 -0.80754 -0.76016 -0.25737 -0.24636 -0.435 0.076928 0.01881 -0.56107 -0.34771 0.33076 0.28469 1.0397
boston 0.51187 0.60616 -0.37996 -0.10802 -0.45026 -0.38168 0.52805 0.27117 -0.29295 -0.031682 0.39651 0.13638 -0.21107 0.070236 0.68294 -0.51574 0.12231 -0.61508 0.533 -0.43315 -0.54184 -2.5567 1.1446 -1.2236 -0.16951 -0.27207 0.36044 -0.75108 -1.0099 -0.20952 0.048011 -0.9528 0.49032 -0.0105 0.046877 -0.3767 -0.71688 0.31939 0.39183
weapon -0.51564 0.77009 -0.22438 1.4367 -0.4369 -0.25607 0.23345 0.36385 -0.95932 -0.40016 0.50005 -0.39156 -0.187 0.63142 -0.11732 -0.078574 -0.10715 -0.35099 -0.92607 1.1181 0.794 -1.2516 1.1984 0.29476 0.025797 0.67105 0.48093 0.031266 0.67024 0.44557 -0.34679 -0.7328 -0.47212 0.20718 -0.25055 0.3634 0.11641 -0.10228 -0.36095
springfield 0.047879 0.43423 0.18892 0.23158 -0.84423 -0.22869 -0.18048 1.4903 -0.44605 -0.46837 -0.34402 -0.40696 -0.019935 1.2083 0.39403 0.21356 -0.00024776 -0.008796 0.53303 -0.54381 0.040414 -0.98808 0.22793 -0.20296 0.0064394 0.33662 0.95885 -0.35642 -0.30095 -0.21878 0.93262 -0.41599 0.27474 -0.60599 1.0355 0.63833 -0.74884 -0.49625 0.4003
pet 0.41654 0.16879 0.18396 -0.23767 -0.5862 0.52779 -0.13605 0.85852 0.45317 0.3186 -0.35507 -0.51706 -0.73807 0.5347 0.74707 -0.28535 -0.74565 -0.6662 -0.34221 0.30638 -0.39265 -0.7595 0.6754 0.69389 0.74317 0.1947 -0.29548 -1.0734 -0.0241 0.27129 0.096007 -1.0227 -0.0049869 0.19679 -0.27251 -0.19836 -0.86246 -0.23211 -0.19539
religion 1.2165 -0.2882 -0.98393 0.50296 -0.012365 0.52527 0.63542 0.51568 -1.4124 0.41574 0.28658 0.40884 -0.20989 0.11836 -0.10123 -0.057143 -0.030255 -0.12316 -0.53511 0.2794 -0.37898 -1.4049 1.4301 0.060694 0.2212 -1.1701 0.58127 -0.12393 0.4893 0.54346 -0.70061 -0.798 0.18789 -0.46197 -0.34757 0.28996 -0.43642 -0.6924 -1.0258
italy 0.13482 -0.20139 0.36966 0.34228 -0.49452 -0.9644 0.61792 0.67644 -0.84522 0.57194 -0.14779 0.27701 0.46624 -0.73481 -0.21308 1.0047 -0.43511 -0.58175 0.69001 1.0221 -0.86996 -2.4023 0.89965 0.019445 0.26784 -0.38754 -1.0096 0.55367 -0.31111 0.44332 -1.2125 -0.095157 0.45307 0.97843 -0.73779 0.082787 -0.17112 0.26177 0.025906
alternative -0.4491 0.010014 -0.30658 0.60109 -0.17519 -0.44593 -0.16573 0.44676 0.54014 0.45362 -0.85633 0.54759 -0.27949 0.77853 -0.31651 -0.56577 -0.66861 0.1755 -0.64871 0.30649 0.019816 -2.0906 1.5062 -0.12142 -0.070867 -0.028781 -0.23738 -0.29974 -0.26533 -0.14078 0.41034 -0.40841 -0.28682 0.048225 -0.21882 -0.028274 -0.63188 -0.0068008 0.060652
forest 0.24418 -0.13243 0.73563 -0.5769 -0.20483 0.26341 -0.42977 1.4883 -0.26586 0.47824 -0.093104 -0.23002 -1.2648 -0.36222 -0.25235 -0.34484 0.3856 0.096147 -0.034062 0.74702 0.89229 -1.6595 1.308 0.43306 -0.12208 -0.61102 0.73954 -0.30585 0.89918 -0.49852 0.32606 -0.47404 0.073757 -0.12496 1.5468 1.3002 -0.94687 0.049069 0.026521
apollo -0.28398 0.12887 0.14064 0.19684 0.056127 0.46549 0.36801 0.97453 0.55465 0.60498 0.0018488 -0.078733 0.2736 -0.059206 0.92637 -0.019531 -0.53823 0.84594 0.19789 0.057099 -0.28066 -1.6064 0.77849 -0.31088 0.43438 0.54878 -0.18839 -0.58271 -0.66864 0.26695 0.50387 -0.9129 0.7579 -0.039261 0.026885 0.33652 -0.086874 -0.13487 -0.14928
palestinians 0.19884 0.073253 0.22102 0.25628 0.030102 1.1074 0.085584 -1.0463 -1.6326 0.5944 0.66679 -0.067995 0.59391 -0.1546 0.56885 0.36531 0.48603 0.42328 -0.98566 2.1018 -0.51164 -1.173 0.63415 -0.16944 -0.14567 -0.33436 0.54334 0.20383 -1.1896 -0.42037 -0.030064 -0.9415 0.57439 -0.22726 0.2853 -0.72045 -1.5097 0.38628 1.1708
republic 0.77897 -0.23687 0.23691 0.39857 -0.37444 0.1198 0.65174 1.4499 -0.57365 -0.53491 0.073078 0.59768 0.61239 -0.33218 -0.59527 1.3366 -1.0114 -0.34819 0.43592 0.74172 -0.0083105 -1.8923 1.7581 -0.025401 -0.47358 -0.18807 -0.46694 0.50967 -0.40032 0.023728 -0.10292 -1.3198 -0.30684 0.83741 -0.69718 0.72913 -1.5544 0.41098 -0.45533
food -0.33803 0.057221 0.14601 -0.28858 -0.56369 0.27037 0.51702 0.22066 -0.87284 -0.062587 -0.25194 -0.43112 -1.1396 0.092425 -0.095122 0.39978 -0.62829 -0.85088 -0.26712 0.74411 -0.18325 -1.4885 2.3525 0.39833 0.080708 -0.27373 0.20899 -0.70564 -0.071761 0.62856 -0.69127 -0.93347 0.70845 -0.1826 -0.44699 -0.50354 -1.2083 -0.35776 -0.067904
threats 0.19273 -0.72995 -1.0204 0.55256 0.036987 0.147 0.47086 -0.89328 -1.2032 -0.27358 -0.12292 0.095137 -0.065935 0.079466 0.20075 0.17431 0.44171 0.2565 -0.57544 0.99635 0.59125 -1.037 0.95658 -0.43748 -0.29862 -0.83251 0.31397 -0.33695 -0.19836 -0.70425 0.45221 -1.2333 0.075125 0.70558 -0.56673 0.082556 -0.17445 0.47605 0.12842
coin 0.32773 -0.015847 0.32968 -0.41821 0.31545 -0.40512 0.57306 0.52386 0.35254 -0.8479 1.1529 1.0104 0.20178 -0.31181 0.091043 -0.97565 -1.4914 -0.62752 -0.82369 0.60815 -0.57479 -0.9168 0.80728 0.28231 0.33321 1.3092 -0.54287 -0.25497 0.22678 1.0635 -0.49847 -0.9015 -0.75569 -0.58559 -0.47087 -0.40056 -0.6286 -0.34135 -0.29859
perjury 1.0953 0.17176 0.087975 -0.13156 1.3516 -1.3611 1.0383 0.16627 -0.66889 -0.47853 -0.39812 -0.084342 -0.38641 0.024309 -0.6262 0.12435 1.2391 -0.57559 -0.51878 0.7432 -0.2426 0.16319 0.53625 -1.1935 -0.15078 0.15974 1.7919 -0.15949 -0.25467 -0.30273 0.42103 -0.46704 -0.37501 0.31211 -0.38331 0.070239 2.2489 0.18809 -0.34171
intelligence -0.8502 -0.35372 -0.70531 0.88768 -0.41641 0.36703 0.60834 0.5314 -0.86764 0.34833 -1.2564 0.29402 0.086692 0.31915 -0.58112 -0.79353 0.60501 0.58118 -0.22823 1.5825 0.15322 -1.3246 1.3285 0.17115 0.51749 -0.50172 -0.31772 0.76459 -0.13554 -0.97654 -0.17109 -1.1941 -0.18596 0.80212 -0.45574 0.22161 -0.0030162 0.23286 -1.0727
extended 0.081038 -0.1956 0.66671 -0.51953 -0.11109 0.46571 -0.23406 -0.18126 -0.17609 -0.17981 0.18041 -0.45543 0.12294 0.13048 0.19773 0.43561 0.10851 0.28722 1.1322 0.70609 0.11806 -1.8807 1.6643 0.017738 -0.14721 -0.085127 -0.42376 -0.32667 0.046624 -0.54888 -0.44891 -0.53701 -0.013572 -0.21674 0.30902 -0.1561 -0.18709 -0.14009 0.15281
costume 0.36834 -0.027619 0.74504 0.78003 -0.71526 0.19577 0.063291 0.65953 0.22833 0.060224 0.48452 -0.4572 -0.13705 -1.1866 -0.42102 -0.22597 -0.7178 0.4653 0.065334 0.58263 -0.10046 -1.3211 0.14833 0.24431 -0.097522 1.4938 0.16229 -0.016695 -0.32252 0.46436 -0.54967 -0.01637 -0.44267 -0.087907 -0.16892 -0.7074 -0.27172 -0.19957 -0.14437
mountain -0.40761 -0.18627 0.64247 -0.67281 0.50306 0.20075 -0.23043 1.5464 -1.1056 0.036661 -0.53874 -0.56493 -0.56563 -0.30574 -0.43 -0.067653 0.082652 -0.29198 0.6806 0.73039 0.20568 -2.5043 1.6809 0.72495 0.47214 -0.094335 0.53154 -0.66747 0.084124 0.27703 0.56838 0.14842 -0.88688 -0.22651 0.9043 0.93306 -1.1131 -0.212 -0.09229
english 1.1095 0.029171 -1.0811 0.50238 -0.62341 0.16262 0.71884 0.68652 -0.30793 0.72563 0.48439 -0.064146 -0.10334 0.26119 -1.0806 -0.83917 0.11579 0.12135 0.45907 0.36329 -0.16333 -2.209 0.80457 0.47796 -0.83575 -0.75649 0.035596 -0.69975 0.86352 -0.74666 0.012201 -0.67234 -0.099388 -0.94004 0.028452 0.87748 -0.56759 0.12113 -0.23581
tenor 0.36811 -0.42837 -1.094 -0.081135 -0.37628 -1.2546 0.57005 0.029552 0.39522 0.33637 0.21914 -0.2718 0.41684 0.38004 0.104 0.98404 -0.085464 0.95096 -0.13795 0.14663 0.36827 -1.3203 -0.55767 0.63026 -0.21431 -0.41835 0.32744 0.21363 0.16995 -0.30283 -0.51249 1.639 0.2233 -0.18496 -0.44387 0.26388 0.21101 0.66729 -0.79326
rhodes -0.096363 0.6079 -0.74485 -0.21504 0.019904 0.22234 1.0749 0.49265 -0.17429 0.35078 0.35916 -0.77573 0.11881 -0.21804 1.0173 -0.57489 -0.16935 -0.11831 0.28445 -0.51269 -0.32129 -1.6132 -0.17675 -0.20791 -0.32538 0.15006 0.72197 -0.70116 -0.10931 0.28462 -0.22093 0.081109 -0.71341 -0.5286 -0.14242 -0.3246 -0.29401 0.46735 0.62338
extracts 0.09954 0.48087 0.32898 -0.25162 0.48924 -0.19316 0.29799 0.56192 0.75096 -0.21426 -0.21366 0.37251 -0.19264 0.60718 -0.42453 0.054362 -0.013368 -0.062583 -0.10847 0.26944 -0.15561 0.28242 -0.17389 0.41722 -0.082383 -0.51576 0.71959 -0.078222 0.69189 -0.28977 0.34461 -0.84963 0.40291 0.30202 0.63565 -0.042894 -0.11505 -0.33741 -0.99153
ship -0.88817 0.45003 0.035466 0.49851 0.6606 0.50062 0.23956 0.67643 -0.20526 -0.028385 0.39525 -1.7402 0.53652 -0.084067 0.02351 0.12256 -0.43601 0.038937 0.45976 1.1158 -0.048821 -1.6372 1.9533 -0.42491 -0.27821 0.445 -0.64076 -0.2096 0.5549 0.19193 0.225 -0.69782 1.2222 -0.83105 -0.56321 -0.22346 0.1939 -0.018123 -0.24275
mud 0.61607 -0.10315 0.25175 0.017283 0.50284 0.80501 8.1658e-05 -0.18432 0.57952 -0.025881 -0.37761 -0.95933 -0.14982 -0.21095 0.25888 -0.58642 0.30756 -0.7266 0.20357 0.65539 -0.33347 -1.5251 1.0221 -0.22583 0.32335 0.77742 0.76284 -0.15373 0.32611 0.53144 0.49407 0.17191 -0.03089 -0.27829 0.3597 0.81809 0.34818 -0.8832 0.048975
plates -0.069162 0.27525 0.6659 0.18017 -0.43867 0.62728 1.0309 0.47342 -0.063718 -1.1511 1.0423 -0.081091 0.1898 -1.0116 -0.27487 0.25389 -0.18318 -0.88067 -0.29362 0.89148 0.040118 -0.32706 1.2439 -0.40517 0.64667 0.57526 -0.19406 -0.69692 1.2629 0.37991 0.5715 0.24774 0.22246 -0.79172 -0.87705 -0.67299 -0.5094 -0.46637 -0.62589
drawing 0.54068 -0.49917 0.14647 -0.12147 -1.1147 -0.23546 -0.45078 -0.41035 0.40384 -0.13627 0.51159 -0.4561 -0.19181 -0.7119 0.13247 -0.23476 0.033859 -0.20363 0.043143 1.282 -0.29629 -1.9411 0.92468 0.30177 -0.25306 0.32703 -0.040206 -0.19442 -0.093539 -0.30246 0.043951 -0.72932 -0.69006 -0.35499 -0.39924 -0.10059 -0.01386 -0.33481 0.15575
poet 0.481 -0.01631 -1.6979 0.075101 -0.37313 -0.15497 -0.35422 0.43861 -0.92789 1.0254 0.76219 -0.55266 1.1613 0.068634 -0.41577 -0.45886 -0.28779 -0.019674 0.28033 0.31209 -0.35563 -0.98106 -0.26283 0.78258 -0.65171 -0.42651 1.3027 0.11131 0.25621 -0.03738 0.60584 -0.15815 -0.18087 -0.48862 -0.89389 0.37667 -0.65866 0.51784 -1.2888
farley -0.53306 -0.28196 0.38908 -0.30171 -0.53974 0.063769 0.29533 0.62453 -0.2905 0.41685 0.23886 0.11805 -0.155 0.66809 0.0051131 0.26696 0.25721 0.59132 -0.18339 -0.088751 0.30975 -0.37997 -0.63737 0.068901 0.40935 0.54283 0.13196 -0.31725 -0.43728 -0.19972 -0.14704 -0.66095 -0.087207 -0.80318 -0.83534 0.12849 0.011473 -0.18199 -0.22266
relay -0.063082 -0.42428 0.39903 0.44004 0.71014 0.49546 -0.2427 -0.39657 -0.29695 -1.2401 0.27331 0.15861 1.2648 -0.14972 0.76221 -0.80569 0.60418 -0.29236 0.48643 0.65621 0.2068 -1.7338 0.99079 -0.87991 0.75541 0.20533 -0.26716 -0.58656 -0.15139 0.26714 0.97568 0.29472 0.26109 0.49262 0.38786 0.31835 0.22044 -0.19625 0.37293
animal 0.24643 0.11117 -0.085524 -0.74412 -0.10143 0.89751 -0.066392 0.58312 -0.079865 0.26122 0.22806 -0.23035 -0.699 0.68517 0.36877 -0.63929 -0.35404 -0.52698 -0.82934 0.86424 -0.17749 -0.59381 1.3397 0.68787 0.31441 0.25663 -0.13868 -0.18159 0.31648 0.18079 -0.29204 -1.0866 0.23721 0.42731 0.41954 0.30602 -0.26554 -0.24754 -0.6734
chronicle 1.1375 -0.010742 -0.031548 -0.28956 -0.54424 0.10133 -0.16326 0.71698 -0.21625 0.014876 -0.2221 0.79001 -0.13263 -0.15438 -0.15632 -0.39017 -0.165 -0.44515 0.93827 -0.45147 0.070555 -1.1186 0.8528 -0.2147 -0.49476 -0.89017 0.60073 -0.37508 -0.12561 -0.07429 0.058267 -1.6109 0.24109 -0.28177 -0.057951 -0.51732 -0.60248 0.33742 -0.5865
composer 0.3857 0.041145 -1.1241 0.37007 -0.48917 -0.54438 -0.23344 0.56575 -0.24743 1.0331 0.58553 -0.28024 1.1781 0.11125 0.47158 0.91228 -1.0662 1.1534 0.037121 -0.15672 -0.23024 -1.6182 -0.19677 0.88673 -0.26211 0.33603 0.92868 -0.31084 0.045569 0.4767 -0.18839 0.54596 0.23973 -0.80233 -0.7035 0.41762 -0.15951 0.72366 -1.2125
actor -0.16964 -0.55205 -0.59301 -0.031901 -0.38634 0.01707 0.13164 0.70953 0.38118 1.9534 1.3215 0.3034 0.84957 0.040226 -0.30571 0.36107 0.7475 0.31874 -0.34601 1.0128 0.3902 -1.9877 -0.26143 0.26976 -0.27021 0.13445 1.1302 -0.01499 -0.31073 0.47966 -0.00707 0.28075 -0.49213 0.12223 -1.1412 0.17815 0.0062852 1.0138 -0.30356
citizenship 0.14691 -1.1777 -0.42036 0.69615 0.5661 0.07904 0.49388 1.1107 -0.50018 0.29568 0.24023 0.64942 0.51763 -0.79203 0.10374 -0.26975 0.22869 0.047322 -0.027063 1.2438 0.075224 -0.024984 1.6564 0.15985 0.26517 -1.3462 -0.025676 -0.71115 -0.018394 0.079241 -0.66379 -0.99895 0.10567 -0.35438 -0.79945 0.38505 0.27051 0.042765 0.50136
funeral 1.2481 -0.36508 0.63788 0.29886 0.63044 0.61755 0.29606 0.63378 -0.36696 0.48248 0.28299 -0.75642 0.471 0.13943 0.24523 0.3931 -0.29045 -0.098848 0.20189 0.085912 -0.30539 -1.3276 1.2262 -0.10037 0.82826 -0.82825 0.0036017 -0.68032 -0.076399 -0.38635 0.64056 -0.1123 -0.24054 -0.45412 -0.37016 1.0534 -1.1872 -0.54333 0.008233
casey -0.33931 -0.11762 -0.14831 -0.0050219 0.025623 0.11951 0.24805 -0.32946 -0.87684 0.61284 0.24556 0.38919 0.51436 0.40009 0.67236 -0.89079 0.92954 0.49309 0.10635 -0.23025 0.26163 -1.3959 -0.39255 0.22523 0.82428 0.46342 0.034355 -0.2075 -0.98417 -0.48614 0.3166 -0.61288 -0.010566 -0.031764 -0.31358 0.4273 -0.32897 -0.045421 -0.028992
coordinator -0.76276 0.95781 0.27534 -0.0744 -0.70357 0.43373 0.14094 0.070187 -1.4086 0.28043 -0.178 0.034112 -0.0079252 0.068417 0.57819 -1.0023 -0.38374 0.17871 -0.73682 0.022439 0.67339 -1.4392 0.39858 0.12273 0.24827 -0.98794 0.047193 0.55654 -0.83771 -0.26383 -0.79866 0.081128 -0.1783 -0.033591 -0.52967 0.52365 0.5792 0.59969 0.77674
libya -0.75062 0.098798 0.88493 0.13748 -0.15578 0.26889 0.83863 0.2656 -0.39327 -0.17843 0.15584 -0.21129 0.27592 -0.46545 0.056446 0.86287 0.26204 -0.1827 -0.064036 1.4857 -1.1622 -0.53496 0.8876 -0.18608 -0.19484 -1.5128 -0.51128 0.69411 -0.28447 -0.20662 0.404 -0.20068 0.29753 0.42655 -0.50587 -0.45853 -0.51519 0.40318 0.11158
poles -0.26557 -0.76681 0.12617 -0.14976 0.0060437 0.37877 0.083557 0.0025921 -0.19656 -0.17352 1.1447 -0.14498 1.1437 -0.45132 -0.18851 1.0918 -0.042358 -0.44807 -0.39499 1.4365 0.090767 -0.27974 1.1898 0.11033 0.045702 0.34038 -0.24672 -0.65324 0.59278 0.19298 1.177 0.27744 0.7447 0.037465 0.035889 0.27029 -0.9215 -1.0296 0.36603
neutral 0.091366 -0.14814 -0.14615 0.31882 -0.057425 0.14159 -0.072444 0.42331 0.51353 -0.39777 -0.32091 -0.54786 -0.027817 0.89241 -0.23235 0.5625 -1.2666 -0.3499 -1.3312 0.68365 -0.40499 -1.8036 1.471 0.045613 -0.32697 0.15731 -0.12976 -0.015856 0.24645 0.18674 -0.14293 0.1976 0.57154 0.67995 -0.7667 -0.37053 0.42761 0.73701 0.35373
sentenced 1.0032 0.096108 0.46618 0.80171 1.1322 -0.015192 0.36637 0.071938 -1.4744 0.68203 -0.19232 0.30112 0.52738 1.1806 -0.68269 -0.0039227 0.0548 -0.39183 0.35485 1.6351 -0.66076 -0.0019338 1.2949 -0.49041 -0.92297 -0.84099 0.64018 -0.40821 -0.27773 0.85735 0.01847 -0.24065 0.025323 -0.13232 -0.33584 -0.14799 0.552 0.41982 -0.42937
classics 0.19054 0.79063 -0.62831 -0.09383 0.037844 -0.02893 0.75357 0.70769 0.44359 0.55315 0.33697 0.20099 -0.1195 -0.027985 0.3232 -0.1252 -0.79959 -0.17182 0.47834 0.066158 0.0059813 -1.2983 0.67302 0.27958 -0.49681 -0.18758 0.29909 -0.028127 0.14582 0.5083 -0.032867 0.18971 0.87792 -1.0418 0.36107 0.2259 -0.94926 -0.92817 -0.39305
war -0.23504 -0.18961 -0.81103 -0.017903 -0.35961 0.16133 0.40454 0.69767 -0.85926 -0.44406 0.36994 -0.70059 0.88317 -0.40334 -0.24648 0.25491 -0.23379 -0.37992 -0.1322 1.7453 0.13056 -2.1285 1.7781 0.16995 -0.053037 -0.63826 -0.11157 0.83537 -0.77896 0.21978 -0.13605 -1.7038 1.0149 -0.62652 -0.70008 0.9448 -0.42012 -0.39687 0.4731
species -0.020347 0.43925 -0.272 -1.247 0.48755 0.90707 -0.24055 0.85859 0.24016 0.77985 1.1568 0.47588 -0.14 0.89225 -0.18316 0.10827 0.075723 0.36659 -1.7511 0.89019 -0.16576 -0.67644 1.2187 -0.48604 0.31178 -0.35286 -0.63591 -0.5004 -0.00082271 0.22116 -1.0332 -0.65083 -0.19029 -1.2983 0.91766 -0.3976 -0.5608 0.68147 -1.2621
ashes 0.56391 0.11068 0.33163 0.28746 0.11384 0.34398 0.32093 1.1075 0.084073 0.46963 0.81305 0.50452 0.061665 0.12628 0.28287 0.10572 -0.027401 -1.1298 0.34515 0.91836 0.16712 -1.4364 0.13719 -0.4476 0.4287 0.46934 0.11066 0.63435 0.25273 0.075982 -0.50448 -0.68159 0.28192 -0.018647 1.36 1.1395 0.038159 -0.54277 0.50484
gulf -1.2289 -0.26169 0.10548 0.19478 -0.91395 0.42229 -0.3187 -0.16245 -0.34603 -0.36812 -0.16743 -0.74978 0.80936 -0.02732 -0.1766 0.16165 0.40691 -0.20648 0.00044506 0.47502 -0.45959 -1.5939 1.4295 -0.32446 0.59947 -1.6582 -0.77086 0.60903 0.09754 -0.25381 0.24233 -0.39179 1.1899 -0.14351 -1.1057 -0.3937 -0.78254 1.027 -0.00010135
jazz 0.67186 0.99384 -0.58364 -0.24136 -1.0558 -0.96272 -0.19285 0.028742 0.017947 0.67614 0.30065 -0.25869 1.1073 0.065268 1.4909 0.68263 -1.0393 0.5355 0.70735 -0.7931 -0.1652 -2.0228 0.71597 -0.092476 -0.50541 0.076916 0.56358 -0.59002 0.20968 0.75808 0.084428 0.71128 0.12011 -0.54552 0.5729 -0.031552 -0.86603 -0.15051 -0.64191
episcopal 1.1278 -0.3828 -0.096737 -0.24343 -0.49098 1.0642 1.4508 0.51858 -0.67214 -0.1566 -0.49322 0.28143 0.72019 0.58583 0.057709 -0.58638 0.82001 -0.49142 0.093139 -1.1181 -0.60632 -2.0448 0.54822 -0.077671 1.1358 -0.62033 -0.72782 -0.16599 -0.067669 -0.68082 -0.20578 -0.27411 1.2238 -0.486 -0.57662 0.79584 -0.20698 -0.50761 -0.40189
horse -0.11021 0.2165 0.42365 -0.62318 0.83691 0.90121 -0.59203 0.48423 0.20911 -0.019158 0.62395 -1.0596 0.28037 0.051358 -0.36342 -1.2037 0.3832 -1.3353 0.49266 0.69696 0.20687 -1.4953 1.0389 0.43204 0.52371 1.2069 -0.53926 -0.32235 0.096931 0.34555 0.24622 -0.51114 0.4452 -0.24142 -0.20881 0.40334 -0.53687 -0.5935 -0.13857
troubles -0.13237 -0.36973 -0.75537 -0.2507 0.49959 0.12664 0.77316 -0.65704 0.27755 -0.33501 -0.34132 -0.34073 -0.19602 0.0099419 0.084449 0.35777 0.03989 -0.53823 0.56153 0.80096 0.77833 -1.4783 0.26298 0.005654 -0.051324 -0.14334 0.15001 -0.32997 -1.0893 -0.1936 0.055967 -0.70468 0.27574 -0.012497 -0.52325 -0.39753 0.16321 0.55222 0.033411
physician 0.48576 0.44834 -0.72826 -0.24907 -0.60645 0.68258 0.21194 0.7088 -0.78961 0.086156 -0.47087 -0.025736 0.016265 0.10582 -0.069988 -1.0344 0.17403 -0.90001 -0.32054 0.040913 -0.30703 -0.77783 0.85314 0.76763 0.6882 -0.087641 0.023043 -0.56904 -0.11337 0.26293 0.19881 -0.29955 0.14175 0.030488 -0.64694 0.23193 -0.22779 0.67403 -0.63909
painting 0.038493 0.034481 -0.20694 0.22216 -0.15143 0.29096 -0.23989 0.24881 0.68654 -0.028725 0.56571 -0.42752 -0.34309 -0.94679 0.28086 -0.25661 -0.68587 0.24171 0.19215 0.96175 -1.1222 -1.7488 0.53309 0.62781 -0.19424 0.261 0.7699 -0.063074 0.47616 0.40084 0.051514 -0.40658 -0.13778 -0.70358 -0.88503 0.19475 -0.1789 -0.53224 -0.80953
birds 0.5883 -0.093094 -0.10252 -1.4495 0.073588 1.2571 -0.053397 -0.17544 0.44377 0.12407 0.90437 -0.2977 -0.6115 0.94656 0.33039 0.22675 -0.62854 -0.35781 -0.44973 0.58124 0.10724 -0.50396 0.9309 -0.28907 0.99537 -0.28959 -0.87189 -0.48756 -0.035253 0.21656 -0.74332 -0.24132 0.051074 -0.23913 1.7096 -0.73862 -1.2405 0.015946 -0.2765
winter -0.68104 -0.062413 0.47955 -0.48105 -0.71598 0.96647 -0.11323 -0.081094 -0.30567 -0.27979 -0.46516 -0.73008 0.098242 -0.57056 -0.52213 0.034849 -0.16997 -0.044219 1.0377 0.57141 -0.12959 -2.5805 1.221 -0.2984 -0.27097 -0.17336 0.0017561 -0.12513 -0.71101 1.0501 0.21686 -0.53517 -0.021709 0.26008 0.50138 0.14845 -0.63584 0.031699 1.179
patterns 0.11423 0.055114 0.14894 0.10204 -0.13055 0.74374 -0.11088 -0.6084 0.45015 -0.59147 -0.036876 0.37538 -0.57432 -0.67159 -0.56148 -0.064604 -0.636 0.057982 -0.29742 0.90269 0.63998 -1.0432 1.0512 -0.55722 0.30433 -0.31575 0.020965 -0.29328 0.23998 -0.27479 0.26605 -0.16717 -0.08771 -0.76198 0.45171 -0.39178 0.20776 -0.35661 -0.99304
music 0.7799 -0.055009 -0.18909 0.28443 -0.61978 -0.39817 0.19127 0.60927 0.20159 0.91107 0.070414 0.42234 1.0722 0.26426 0.85837 0.22331 -1.7275 0.87442 0.99049 -0.33757 -0.15677 -2.9576 1.6375 0.89573 -0.37709 -0.082095 1.0987 -0.26906 0.33826 0.1715 0.064417 0.10946 0.12298 -1.0531 -0.055542 0.20519 -0.33822 -0.039972 -0.50523
pollution -0.89558 -0.66874 0.078215 0.52787 -0.040001 -0.63734 -0.95037 0.17365 0.050948 -0.37553 -0.42924 -0.67194 -0.62653 -0.33867 0.56489 0.29256 0.68936 -0.34526 -0.70523 1.0153 -0.020817 -0.57885 1.4188 -0.23581 -0.5073 0.17071 0.40456 -0.053213 0.64013 0.74503 0.58428 -0.7677 0.19558 -0.90414 0.60649 -0.34119 0.17478 0.88328 -0.46379
gun 0.416 0.26372 -0.1069 0.3159 -0.16844 -0.36208 0.32007 0.052905 -1.0186 -0.4615 0.36636 -0.71736 -0.34027 0.12993 0.89771 0.0069813 0.14375 -0.33639 -0.27829 1.2622 0.87378 -1.143 1.7419 0.51394 0.031719 1.5852 0.63332 -0.031653 0.71888 0.46371 -0.092197 -1.2758 -0.48258 -0.76332 0.05047 0.2407 0.0038131 0.031007 0.26926
hell 0.37317 -0.22885 0.19404 -0.42787 0.36163 0.026079 0.66047 -0.39028 -0.85346 0.36563 0.17988 -0.4734 0.58275 -0.31414 0.062561 -0.72073 -0.67143 -0.39549 0.085147 0.74383 -0.59654 -1.845 0.36476 0.54375 -0.57665 -0.38561 0.56373 0.27695 0.20954 0.20011 0.6234 -0.024981 0.25302 -0.58843 0.075478 0.4501 0.19528 -0.94033 0.54191
battle -0.0024166 -0.057218 -0.8538 -0.2992 0.25648 -0.25679 -0.41699 0.75095 -0.27982 -0.30729 0.11837 -0.55879 0.3517 -0.54546 -0.42615 -0.55921 0.40939 -1.1398 -0.055157 1.3856 0.77314 -2.576 0.69257 -0.24947 0.18416 0.087801 -0.78455 0.48766 -0.6938 0.3709 -0.36119 -1.059 0.6525 -0.42094 -0.14654 1.3754 -0.30038 -0.1609 0.40528
villa 0.98644 0.22361 0.55865 0.22625 -0.50436 -0.41321 -0.23916 0.35486 -0.071595 1.0688 -0.42561 -0.14854 -0.88095 -0.6468 0.051894 0.058557 -0.41031 0.050615 0.99851 0.71197 -0.11291 -2.2102 -0.59329 -0.70846 -0.50866 -0.10246 -0.17835 0.20975 0.33513 -1.7789 0.22112 -0.57378 -0.597 0.61146 -0.92484 0.86451 -0.4797 -0.47859 0.45467
vietnamese 0.36472 -0.35629 -0.7237 -0.20207 0.55098 0.56958 0.50722 0.61453 -0.18256 -0.27425 -0.61208 0.59011 0.30291 -0.3957 -0.49829 0.39161 -0.64051 0.42271 -0.78544 0.40823 -0.18171 0.24402 1.9907 -0.36025 -0.16969 -0.16351 -0.38908 0.78137 -0.15695 -0.051008 -0.65404 -0.38028 -0.075186 0.042421 -0.39409 0.0031126 -0.40907 -0.34108 -0.64791
program -0.60304 0.63995 1.2034 0.60126 0.22571 -0.056679 0.021699 0.67447 -0.51872 0.11518 0.24479 -0.31349 -0.80788 0.10206 0.53081 -0.38951 -0.25442 0.83883 -0.35344 0.79088 0.39431 -2.4546 2.3399 0.23058 0.47406 -0.62631 -0.22878 0.55738 -0.63351 0.29862 -0.081652 -0.91146 -0.49771 0.071524 -0.20847 0.29421 -0.28664 -0.10217 -0.22827
rapid -0.31649 -0.069619 0.39021 0.075921 -0.39847 -0.32245 -0.27562 -0.54448 0.30226 -0.36686 -0.54547 -0.10005 0.34276 0.09217 -0.011361 1.0058 0.10623 0.056149 0.55604 0.52065 0.79237 -1.6132 1.2999 -0.44921 -0.17586 0.4843 -0.5727 0.16442 -0.24103 -0.63679 -0.037876 -0.57589 0.6636 -0.79524 -0.20356 0.35318 -0.090743 -0.68125 -0.26395
sentence 0.88508 -0.3291 0.49896 1.0131 1.3584 -0.66751 0.42515 -0.49863 -0.74469 0.34275 0.38765 -0.079742 -0.041216 0.73005 -0.76393 0.12919 -0.25926 -0.25545 -0.11174 1.4242 -0.70644 -0.51683 1.774 -0.13339 -0.74275 -1.0585 0.3968 0.22723 0.49876 0.34991 -0.094294 -0.40376 -0.81079 -0.73564 -0.35566 -0.2434 0.88116 0.11735 -0.25014
admiralty -0.52195 -0.86522 -0.11047 0.2085 -0.085627 -0.67473 0.5732 0.30654 -0.26926 -0.83323 -0.072915 -0.31334 -0.26408 -0.24635 -0.066513 -0.49405 -0.89138 -0.76559 0.6726 0.42823 -0.32814 0.08133 0.85224 0.0040195 0.24053 0.73401 -1.2415 -0.52592 0.94639 0.0071702 -0.60566 -0.84356 0.95633 -0.40592 -0.60432 0.16534 0.49861 0.0086901 0.06793
albert -0.38692 0.76499 0.11576 -1.0832 0.50775 -1.0025 0.78744 0.10634 -0.76135 0.46062 0.33325 0.43328 0.79717 0.2593 0.17631 -0.32331 -0.19336 -0.34916 0.39407 -0.012683 -0.21185 -1.5056 -0.02691 0.57398 0.4482 0.25753 0.095059 -0.51241 -0.20749 -0.7562 0.34945 -0.26917 -0.15023 -0.32492 -1.0209 0.66401 -0.35418 0.57714 -0.628
sydney -0.10521 -0.65636 0.93884 0.15217 -0.10615 -0.28525 0.21211 -0.049385 -0.4678 -0.49004 0.36123 0.34478 -0.00070019 0.48279 0.074927 -0.32621 0.017164 -0.22195 0.88378 0.064586 -0.32665 -2.0965 0.72574 -0.88697 -0.81929 0.39848 -0.24599 -0.95285 -0.46809 0.095131 0.9899 -0.42851 0.36111 0.53906 0.78862 0.40019 -0.19442 0.87698 0.51872
feet 0.22233 0.17908 0.53598 -0.25617 0.38315 0.59207 -0.35442 -0.86639 -0.60163 -0.64309 1.5493 -0.74889 0.66424 -0.16505 0.36323 -0.066414 1.0133 -0.11282 -0.38055 1.5202 -0.34207 -2.0312 1.7632 0.69496 0.023372 1.002 0.52118 0.41396 0.49558 0.11818 0.068321 0.1692 -0.28809 -0.27334 0.62248 -0.40036 -0.70406 0.16814 -0.20935
year -0.4629 0.60307 0.71816 0.15157 -0.012905 0.24569 -0.02638 0.16784 -0.39723 0.25608 0.51744 -0.07987 0.078489 -0.49301 -0.32219 -0.39673 -0.19323 0.037437 0.026895 1.1715 -0.49008 -2.8411 2.0011 -0.36505 -0.45694 0.070966 0.060091 0.46051 -1.0912 0.14487 -0.26793 -1.4872 0.31571 -0.57221 -0.32081 -0.080083 -0.87588 0.28568 0.38253
murdered 1.265 0.16661 0.31748 0.12755 1.1052 0.85644 0.65046 -0.018475 -1.3 0.94356 0.31956 -0.099006 0.89531 0.57031 -0.10906 -0.18342 -0.021254 -0.088012 -0.073747 1.1175 -0.68194 -0.52116 0.2891 0.084728 -0.34042 -0.50278 0.38322 0.057992 -0.12158 0.44461 0.53082 -0.52568 0.055227 0.25066 -0.6856 0.49323 -0.49481 -0.15554 0.25213
beethoven 0.28621 0.65427 0.17386 -0.59787 1.0251 -0.9499 0.4032 0.12845 0.094271 0.1174 0.48978 -1.029 1.2478 0.27227 0.28854 1.0225 -0.44272 0.61487 0.17671 -1.0491 -1.4468 -0.76816 -0.12226 0.15599 0.11303 0.54826 0.70717 0.37849 0.38197 -0.022611 -0.22366 0.28065 0.049923 -0.93289 0.66542 0.63923 0.28959 -0.37083 -1.0982
taxation -0.31741 -1.3471 -0.025653 0.044131 -0.014551 -0.20816 0.52732 0.13322 -0.28839 -0.50579 -0.45012 0.46141 -1.044 -0.99749 -0.62518 -0.47377 -0.23499 0.34258 -0.36837 0.50564 -0.029448 -0.096143 1.2142 0.1028 -0.49443 -0.11846 -0.49924 -0.1435 0.73913 -0.1102 -0.18407 -1.0677 -0.080614 -1.1283 -0.81241 0.16749 0.23249 -0.027832 -0.091623
amateur 0.22278 0.41049 -0.35582 -0.32029 -1.1189 0.6552 -0.43594 0.81351 0.48292 0.38718 0.58301 0.17762 0.54385 0.17369 0.16969 -1.2907 0.26773 -0.19467 0.16895 0.18802 0.59524 -1.2705 0.85207 -0.10145 -0.10309 0.45981 -0.061047 0.34891 0.49843 0.44402 0.84112 -0.5628 -0.20498 0.73066 0.30494 0.432 -0.17813 -0.13274 -0.15276
killed 0.94516 0.67093 0.26292 0.72238 0.85216 1.4705 0.16671 -0.58003 -1.7475 1.208 0.012306 -0.49504 0.55823 0.14486 0.44488 -0.16163 0.79306 -0.20836 -0.46172 1.7379 -0.43837 -1.3809 0.98696 0.25442 0.47354 -0.10502 0.00088276 -0.25458 -0.19932 0.23557 0.70762 -1.779 -0.17508 -0.22541 0.064905 0.2743 -1.4434 0.55766 0.018847
soil -0.49133 -0.28465 -0.083959 1.0266 -0.11564 0.39104 0.051559 0.092238 -0.33239 0.21759 -0.53542 -0.09102 0.50191 -0.35316 -0.31518 -0.46107 -0.011466 -0.096924 -0.34956 1.4988 0.0042631 -0.59527 1.8158 0.14847 0.018506 -0.12145 0.56411 -0.025836 0.30505 0.1611 0.24775 -0.25511 0.58232 0.30272 0.84022 0.76626 0.38777 0.24776 -0.405
government 0.2656 -1.2929 0.036583 0.52552 0.47173 0.31009 0.29828 0.26025 -0.2429 -0.079745 -0.90875 -0.098991 -0.25513 -0.32609 -0.036752 0.15249 -0.24823 0.11308 -0.22613 1.5924 -0.34971 -2.0056 2.587 0.15131 -0.54288 0.23742 -0.33104 0.43332 -0.69915 -0.97821 -0.53922 -1.8925 -0.099782 0.6354 -1.0249 0.17089 -0.97143 0.20341 -0.40402
concrete -0.88527 -0.86749 0.30452 0.67427 -0.12702 0.27115 0.38503 -0.0099529 -0.15739 -1.1069 0.26359 -0.097165 -0.43787 0.051191 0.40391 0.1347 0.44695 0.090747 -0.81151 1.2968 0.10722 -1.9201 1.4571 -0.62372 -0.97909 0.78867 0.18382 0.18824 0.53303 -0.29916 0.84499 0.26013 0.26362 -0.18202 0.13056 0.44502 0.065437 -0.37737 -0.6563
sale -0.26563 0.24824 0.34891 -0.11938 0.62029 0.15502 -0.10757 0.23936 0.53952 0.1863 0.053934 0.016571 -0.94537 0.17747 -0.49307 0.67384 -0.73266 -0.34791 0.19545 -0.038433 -0.38221 -1.6844 2.168 -0.20066 0.13842 0.2893 0.25439 -0.10557 -0.67775 -0.051195 -0.2992 -1.7909 0.34702 -0.30042 -0.33121 -0.33748 -0.74373 -0.020854 0.34844
tiger 0.021151 0.62663 -0.62621 -0.76326 1.0718 1.0264 0.51485 -0.13989 0.068456 0.64535 0.41674 -0.66572 -0.12801 -0.55854 0.13237 -0.84352 -0.17179 0.36077 -0.67964 0.59515 0.40081 -1.5653 0.81675 -0.051347 -0.66771 0.94923 0.24963 -0.089726 -0.64921 -0.39078 0.073248 -0.83119 0.19633 -0.12867 1.0092 -0.087924 -0.47341 0.26818 0.37465
city 0.99917 -1.0305 0.69492 0.85792 -0.81835 0.26868 -0.25083 1.1727 -0.52929 0.17653 -0.60217 0.20698 -0.3299 -0.39454 0.44483 -0.015081 0.084049 -0.56048 0.59723 1.0231 -0.54946 -2.852 1.4104 -0.38852 -0.40562 0.091479 0.16341 -0.2839 -0.1555 -0.38138 1.0277 -1.4342 0.40783 -0.29408 -0.46724 0.14795 -1.3415 0.7188 0.39124
pitch 0.41653 -0.11018 -0.26248 0.13721 -0.55486 0.041812 -0.078367 -0.18477 0.43231 -0.23333 0.73837 -0.6147 0.13498 0.32903 0.26902 -0.67826 0.24329 -0.36107 0.27948 0.53546 0.073081 -1.9178 1.2783 -0.36053 -0.56022 0.096835 0.32796 -0.61139 -0.1407 -1.3735 -0.46579 0.48977 -0.72275 0.099755 0.032176 -0.17429 0.52855 0.13567 0.60324
subcommittee -0.86561 -0.88256 0.97122 -0.68178 -0.91473 -0.35659 0.32928 -0.28158 -1.1161 -0.94508 -0.80667 -0.15621 -0.63531 0.33132 -0.35197 -0.35282 1.0531 0.032281 -0.26626 -0.10255 -0.057906 -0.35399 1.3472 -0.49573 0.87539 -0.68629 0.48637 1.2133 -0.00023827 -0.31151 -1.4313 -0.69579 0.057289 -0.065029 -0.50009 0.90452 1.0467 1.0501 -0.067181
horrible 0.30488 -0.43179 0.58156 -0.25824 0.11141 -0.0031693 0.024373 -0.72169 -0.60726 0.87313 0.099323 -0.030714 0.31354 -0.35383 -0.10738 -0.61794 -0.36662 -0.25952 -0.79499 0.44017 -0.12978 -0.98738 0.29259 -0.25717 -0.92919 -1.0146 0.80469 -0.078238 0.23037 0.54902 -0.21094 -0.27895 0.93854 -0.70354 -0.24657 0.42936 0.078044 -0.12467 -0.14514
nazi 0.46955 -0.01353 -1.2378 0.33099 -0.1611 -0.64025 0.49723 0.91814 -1.0236 -0.31678 -0.14232 -0.44697 1.1318 -0.26676 0.19562 0.77232 -0.72767 0.44124 0.08494 1.0739 -0.8119 -0.46652 1.6335 0.54254 -0.087058 0.17804 0.017729 0.022263 -0.64506 0.51807 0.014284 -0.64406 0.71323 0.33206 -0.055993 1.1247 0.50596 -1.3844 0.21693
medicine -0.02545 0.88513 -0.12636 -0.10626 -0.70793 0.40188 1.4851 0.6901 -0.64876 -0.45819 -0.38527 0.31637 -0.5347 -0.14641 0.11669 -1.0341 -0.32747 -1.6845 -0.61069 0.049682 0.092322 -1.2278 1.4236 0.73668 0.24277 -0.066424 0.054326 -0.30469 -0.12034 1.0387 -0.30667 -0.79571 0.055409 -0.57027 -0.19561 0.19258 -0.87135 0.4546 -0.29158
artillery 0.03777 1.141 -0.1252 0.8071 -1.0966 0.50763 0.27974 -0.33659 -0.89891 -0.51803 -0.25284 -0.77921 0.28619 -0.30001 -0.16391 -0.10071 0.21872 -0.12126 0.086801 0.69191 0.38474 -0.76708 1.3961 0.62557 0.16124 2.2808 -0.027656 0.41789 0.84048 -0.56583 0.35979 -1.1595 0.55273 -0.45706 0.19583 0.93871 -0.67093 0.5417 0.57135
radical 0.55241 -0.06113 -0.99464 1.4953 -0.10628 0.33316 -0.35929 -0.84439 -0.3103 0.40728 -0.43472 0.18608 0.42915 0.40578 -0.31916 0.41453 0.030203 -0.037168 -0.069802 0.47707 -0.40698 -1.1463 1.197 0.20372 -0.24867 -0.36379 0.13603 0.39875 -1.2364 -0.48204 0.21455 -0.36448 0.0106 0.50087 -0.65859 0.64079 -0.76168 -0.4404 -0.6017
convertible 0.90067 0.50103 -0.061296 -0.10293 1.5898 0.027347 0.54457 0.59408 1.7272 -0.37429 0.64374 0.0018965 -0.34759 0.57442 -0.072816 1.1964 -0.27759 0.10382 -0.40877 0.14201 0.082979 -0.40813 1.8968 0.37601 -0.07736 0.49421 -0.38782 0.23681 -0.24984 -0.70894 -0.2081 -0.78908 -0.91959 -1.0828 -0.38726 -0.5714 0.10272 0.63414 -0.38282
pork -0.62887 -0.033295 -0.10615 0.12392 -0.22883 0.82768 0.67201 -0.18322 0.027566 -0.18574 -0.33827 -0.27568 -0.63084 0.4383 -0.19737 0.25187 -0.61882 -0.78958 -0.32999 0.068978 -1.8064 -0.34149 0.56939 0.61537 0.36101 0.23485 -0.11531 -0.10007 0.20617 1.5515 -1.019 0.19402 0.79873 1.1168 0.11645 0.030723 -1.5926 -0.86862 -0.35599
fishing -1.0138 -0.028439 0.76541 -0.7233 0.58935 0.46101 -0.50197 0.59808 -0.65972 1.1633 0.24343 -1.8359 -0.6842 0.20511 -0.44734 -0.37396 -0.59528 0.23854 -0.10933 1.0067 0.019559 -1.121 1.7397 -0.89149 0.43377 0.14353 0.13148 -0.33501 1.5719 0.20859 -0.10549 -0.57306 0.12189 -0.33478 -0.32712 -0.89436 0.040059 -0.032707 0.17061
transportation -1.6634 -0.34229 0.79607 -0.12501 -0.84831 -0.4675 0.20635 0.79975 -0.7127 0.033328 -0.84774 -0.40121 -0.72985 -0.19889 -0.22409 0.19767 0.84569 0.015561 0.18812 0.54419 0.16363 -0.924 2.2666 -0.45986 0.77633 -0.059375 0.22044 -0.65685 0.13572 -0.38251 0.40535 -0.55439 0.5276 -0.26103 -0.51352 -0.095914 -0.19797 0.35875 -0.0088262
professionals 0.1163 -0.3093 0.17057 -0.19996 -1.1871 0.7316 -0.56461 0.50893 -0.61204 0.32744 -0.62994 0.58087 -0.10235 -0.38364 -0.3816 -0.86356 -0.1792 -0.62095 -0.28029 0.5778 0.20102 -0.26739 1.5176 0.021725 0.25006 -0.1444 0.16005 -0.1164 -0.95901 -0.1261 0.44427 0.29691 -0.09136 0.33708 -0.36523 -0.62502 0.13196 0.40952 -0.17281
seizure 0.42557 0.41367 0.28439 0.79367 0.83363 -0.31023 0.23442 -0.026273 -0.14474 -0.13326 0.1285 -0.084705 -0.04129 0.0197 0.049643 0.60179 -0.37571 -0.17182 0.083049 0.54463 0.25797 -0.27324 1.1254 -0.1499 0.56336 -0.46888 0.28751 -0.54207 -0.23824 0.74297 -0.52349 -1.4032 0.63112 -0.57025 -0.57889 0.039198 -0.19876 0.12393 -0.43316
stability -0.83466 -0.73263 -0.75504 0.2799 0.53796 0.28324 0.2085 -0.064576 -0.23146 -0.45725 0.38175 -0.41614 -0.2764 -0.0098228 0.32415 1.4769 -0.64159 -0.047787 -0.77654 1.4945 0.88388 -1.7073 0.93121 -0.45199 -1.0435 -0.51281 -0.6887 0.88517 0.43735 -0.51017 -0.43556 -0.50824 0.16794 0.0070988 -0.6905 -0.034307 -0.26277 0.28347 -0.6204
depression 0.18614 0.036245 -0.6107 -0.52332 -0.35659 -0.44533 -0.12095 0.502 -0.37612 -0.36712 -0.48831 -0.0067719 -0.33624 0.25515 0.042582 0.57576 0.61114 -0.29034 0.40805 0.795 0.84402 -1.5069 0.56217 0.24492 0.33141 -0.69176 -0.015768 -0.28555 -0.32071 0.73616 -0.45082 -0.29665 0.62971 -0.41945 -0.28431 0.65302 0.73675 0.55633 -0.79436
berlin -0.38146 -0.56633 -0.045967 0.40051 -0.44242 -0.25291 0.56519 0.74877 -0.93373 -0.70314 -0.18595 0.014234 1.2269 -0.083134 0.2001 1.1275 0.071476 0.71003 0.35546 0.58127 -1.3054 -2.2658 0.12816 0.15086 -0.83654 0.10862 -0.52959 -0.32336 -0.12508 0.053349 0.76887 -0.34157 0.40762 0.051032 0.099814 1.018 -0.18832 0.32236 0.50001
plane -0.063809 0.56626 0.5134 0.42294 0.36008 0.79759 0.60293 -0.11703 0.60104 -0.13692 0.53611 -0.63115 0.52825 -0.32035 0.82654 0.83108 0.58748 0.16365 -0.12928 1.5696 0.3509 -1.5499 2.7579 -0.10046 0.38431 -0.038176 -0.52773 -1.0246 0.3094 -0.25474 0.65181 -0.92974 -0.49969 -0.22472 -0.30406 -0.075754 -0.30605 0.44104 -0.17363
peaceful 0.5513 -0.1146 0.53218 0.69768 0.3169 1.0771 -0.64824 -0.39917 -0.64367 -0.54775 0.002466 -0.49408 0.056862 0.52149 0.16915 0.92948 -1.0872 -0.2238 -0.47836 0.677 0.31989 -1.5304 1.5809 -0.89194 -0.72008 -0.99339 0.37921 0.76587 -0.084661 -0.86526 0.24437 -0.94406 0.77387 0.60326 -0.68052 0.85807 -0.97191 -0.12495 0.26734
afghanistan -0.65172 -0.66733 0.18162 0.92158 -0.22926 1.1272 0.52989 -0.28926 -1.0931 -0.1053 -0.82669 0.71148 0.91902 -0.024582 -0.36555 -0.22956 0.0094414 0.24927 -0.17649 1.6416 0.069295 -1.5585 1.2896 0.086242 0.53535 -0.69844 -0.58102 0.80446 -0.65385 -0.095089 -0.12762 -1.0877 -0.43644 0.076775 0.013314 0.12007 -0.74095 0.37072 0.43075
patients 0.84274 0.50066 0.25123 -0.77528 0.092166 0.44774 0.18846 -0.22784 0.11649 -0.074977 -0.73894 0.63972 -0.11516 0.039761 0.25797 -0.21333 0.34627 -0.85522 -0.5324 0.47723 0.080919 -1.038 1.3754 -0.12873 0.86987 0.11853 0.15953 -0.54703 -0.41425 0.57149 -0.17335 -0.13578 0.45631 0.25743 0.4875 -0.24635 -0.45388 1.0957 -0.1148
piano 0.75955 0.40136 0.29358 -0.13134 -0.27254 -1.0708 0.98718 -0.14064 0.57523 0.076009 0.73591 -1.3822 0.91048 0.74365 0.20399 0.67365 -0.93772 0.19691 0.29591 -0.34675 -0.20133 -1.8507 0.26683 0.44084 -0.42001 0.46973 0.74119 -0.43485 0.78083 0.10539 -0.085223 1.1606 -0.37953 -1.1122 -0.039846 0.6029 0.25436 0.45007 -1.1759
earthquake -0.46611 0.037282 0.13208 1.2091 -0.12874 0.52387 -0.024319 -0.34087 -1.0522 0.62915 0.027162 -0.89086 -0.45774 -0.5922 1.3003 0.53476 -0.14612 -0.60331 0.27679 -0.28154 -0.15944 -1.9562 1.4629 -0.46154 -0.40815 -0.24256 -1.6566 -0.33706 0.45718 0.2184 0.4584 -0.17801 -0.0044911 0.41124 -1.1911 -0.1828 -0.16551 1.0849 -0.45208
pig 0.044438 -0.14084 -0.087583 -0.080119 0.18646 0.90865 0.27763 0.17967 0.79665 -0.039301 0.48561 -0.41516 0.059278 0.80333 0.062879 -0.31581 -0.34515 -0.47077 -0.52311 0.84939 -1.2977 -0.24158 0.14323 0.7249 0.35151 0.27656 -0.27808 -0.041706 0.10057 0.37598 -0.024289 -0.26316 0.40417 0.077596 0.33855 0.0938 -0.42805 -0.57646 -0.54197
alt -0.12674 -0.73054 -0.3053 0.25803 -0.26703 -0.31184 0.4487 0.60692 0.95706 0.93869 -0.078674 0.20107 0.37708 0.43214 0.9133 0.38632 0.05212 0.12888 0.0229 -0.70565 -1.001 -0.74253 0.44016 0.37516 -0.16569 0.092388 0.68715 0.26227 -0.76364 0.25942 -0.56438 0.58085 -0.35743 -0.65459 -0.65833 0.11857 0.073308 -0.057262 0.0056025
atomic -1.6396 -0.41147 0.73988 1.901 -0.91937 0.21429 0.71509 0.34238 -0.71576 -0.97897 0.047058 -0.64693 0.39026 1.3696 0.64414 1.2494 -0.27877 -0.18753 -0.66075 0.91876 -0.18178 -1.3263 1.0669 0.47616 -0.12262 -0.09074 0.10062 0.16048 0.41865 -0.169 -0.077998 -1.7509 0.37562 0.52108 -0.11411 0.43499 -0.22773 -0.45615 -0.20188
desirable -0.72915 -0.079447 -0.21624 0.54789 -0.21257 0.040883 -0.79186 -0.22072 0.39183 0.40908 -0.066908 0.26266 -0.64972 0.13864 -0.41134 0.0053361 -0.58702 -0.21845 -0.81243 0.17999 0.035336 -0.41645 0.70811 -0.68218 -0.13422 0.25385 0.41952 -0.26578 0.29663 0.12584 -0.43834 0.15067 -0.12386 0.11465 -0.77202 -0.2988 -0.95288 0.23506 -0.60969
disturbances 0.94546 0.24445 -0.059546 -0.034803 0.11542 -0.19645 0.034708 -0.97536 0.048631 -0.42966 -0.0002442 0.014837 0.30626 0.19407 0.42389 0.44355 -0.026194 -0.84413 0.39538 0.33156 0.69555 -0.35934 0.29737 -0.67482 -0.40707 -0.31717 0.24069 -0.24723 0.03075 -0.70374 0.9068 -0.30242 0.54687 0.33598 -0.14739 0.06361 0.29183 0.59602 -0.039637
political 0.15167 -0.31527 -1.1698 0.52095 0.16561 0.72414 -0.016989 -0.10719 -0.07708 -0.28964 -0.42393 0.033616 0.34794 -0.27514 -0.043146 0.28824 0.26591 -0.60347 -0.58208 1.1859 0.55422 -2.7024 1.5228 -0.46766 -0.8434 -0.40481 0.32125 -0.024563 -0.51083 -0.45647 -0.56383 -0.81554 -0.074859 0.44484 -1.838 0.4089 -0.39897 -0.11257 -0.73818
poland -0.80565 -1.1759 0.13154 0.44986 -0.62372 -0.55422 1.1884 0.37873 -0.72388 0.12751 0.15631 0.44118 1.7589 0.23644 -0.29122 1.2623 -0.58321 -0.34936 0.17634 0.86578 -0.85416 -1.3055 1.1952 0.84785 -0.080092 0.19273 -0.75858 0.96594 -0.018784 0.099727 0.13892 -0.48755 -0.08099 0.4909 0.29856 0.50728 -0.76543 0.052649 0.66981
suspicion 0.7406 -0.30928 -0.67725 0.34993 1.0514 0.73521 0.19717 -0.43458 -0.69433 0.54541 -0.56639 0.77387 0.1027 0.055492 -0.10809 0.71101 0.22887 -0.23352 0.10735 1.4911 -0.39193 -1.0369 0.96921 0.0080577 -0.1887 0.24686 0.56471 -0.16381 -0.22952 -0.054802 0.77401 -1.3097 0.26518 0.9366 0.1197 -0.16075 0.89282 0.55643 -0.41001
coil 0.12236 -0.20544 0.70883 -0.1672 0.16733 -0.18236 0.80865 -0.4158 0.75375 -1.4486 1.0797 0.61635 0.69215 0.15991 0.22602 0.015609 -0.58531 -0.11074 0.36384 0.073909 0.91037 -0.22779 0.72736 0.62356 0.55896 1.0165 0.65575 0.056794 0.49259 0.45586 1.4446 0.35654 0.43972 -0.30885 -0.46115 0.42031 0.70205 -0.19734 -0.28366
cat 0.63255 0.24402 -0.14108 -0.7898 0.14287 0.72274 0.20428 0.52533 0.8822 0.51221 0.55387 -0.88044 -0.22814 0.023885 0.58479 -0.28001 -0.60972 -0.68826 0.55636 0.82765 -0.29263 -1.3422 0.41604 0.62203 -0.23446 0.51349 -0.16364 -0.96473 -0.0072484 0.33016 -0.40951 -0.6069 -0.032652 -0.084423 0.24104 0.089068 -0.18185 -0.01523 -0.14532
dollar -1.4209 -0.57764 -0.56379 -0.33205 0.89771 -0.46132 -0.35005 -0.52534 0.9368 -0.11792 0.42938 0.16378 -0.3699 0.5 0.41304 0.17452 -0.50927 0.53948 -0.079716 0.54951 -0.22606 -2.0838 1.8667 -0.35897 -0.63678 0.52131 -0.5356 0.279 -0.63614 0.27277 -0.31372 -1.0534 -1.1086 0.24644 -0.59075 -0.60005 -0.31995 0.20529 -0.052956
sex 1.4578 -0.42379 0.37193 0.21557 -0.1575 -0.24001 1.1324 0.40745 -0.40262 0.58941 -0.31527 0.66625 -0.47809 0.62143 0.04803 -0.28793 0.0094883 -0.63512 0.22962 0.93361 0.24875 -1.6515 1.531 -0.36445 0.38594 -1.2082 1.4753 -0.068286 0.0033251 0.86134 -0.36356 -0.72953 0.2988 -0.057027 -0.85588 -0.12933 0.71268 -0.3494 -0.18915
bridge -1.033 -0.42665 0.38331 -0.10259 0.57865 0.062301 -0.060079 0.82649 -0.83905 -0.12353 0.79925 -1.0376 0.54454 0.0077572 0.0324 0.15308 0.44912 -0.22422 -0.05479 0.90053 -0.1957 -2.5168 1.2185 -0.52423 0.2823 0.49265 -0.28714 -0.32135 0.91551 -0.41252 0.99603 -0.15061 -0.064853 -0.95381 0.74059 0.35511 -0.40895 -0.0038254 -0.28555
score 0.81911 0.34285 -0.24452 0.21837 -0.2298 -0.87261 -0.35052 -0.15262 -0.13715 0.65533 0.37106 -0.57345 0.52812 -1.0266 0.62315 -0.43453 -0.21306 0.19152 -0.28873 0.76361 -0.17835 -2.4791 0.67813 -0.57209 -0.71141 0.34579 0.49524 -0.51939 0.77859 -0.030253 -1.4519 0.21897 -0.98579 -0.44645 0.69575 -0.0032699 -0.68275 0.19004 -0.082002
losses -0.8064 -0.2591 -0.46898 -0.31746 0.40922 0.025984 -0.14648 -1.0188 0.262 0.56175 -0.38251 -0.20719 -0.28959 -0.65156 -0.33975 0.20083 0.07895 -0.036948 -0.16334 0.84938 0.81922 -1.3082 1.6471 -0.63239 -0.69451 0.44465 0.20498 -0.5587 -0.89373 0.071249 -0.50032 -1.1767 0.19416 -0.56717 0.30762 -0.071958 -0.30753 0.31186 0.38211
hamlet 0.69052 0.085965 0.95206 -0.79935 0.53612 -0.083478 0.25999 0.56712 0.079183 1.4761 -0.090068 0.022927 -0.54456 0.18185 -0.4895 0.2473 -0.19644 0.13433 0.068768 0.58966 -0.92771 -1.4327 -0.4168 0.27551 0.73142 -0.12181 0.069048 -0.006605 0.25938 -0.21919 0.59022 0.0795 0.11085 -1.1734 0.26094 0.8829 -0.3502 0.045599 0.26706
latin 0.38841 -0.028594 -0.82394 0.23193 -0.58041 0.044185 0.86515 0.56348 0.61966 0.051727 -0.17413 0.35978 1.1312 0.48619 0.085489 0.21708 -0.13492 0.23707 -0.55555 -0.22613 -0.46515 -2.0381 1.1848 -0.31542 -0.32416 -1.5704 -0.46925 0.020052 -0.47036 -0.12336 -0.73458 -0.59145 -0.30744 -1.2827 -0.84597 -0.19621 -0.65951 -0.12803 -0.72788
young 0.93738 0.18961 -0.44422 -0.18938 -0.47231 0.30958 0.058438 0.46168 -0.43198 0.73152 0.6416 -0.40434 0.10051 0.73959 -0.47383 -0.22336 0.089224 -0.15525 0.24644 0.80447 0.18699 -2.0929 1.3024 0.1683 -0.11304 0.029322 1.011 0.54534 -1.15 -0.39846 -0.15826 -0.041378 -0.28575 0.01602 -0.63888 -0.093641 -0.96419 -0.12825 -0.32742
examiner 0.5534 0.46983 0.55329 -0.43166 0.2953 0.19175 0.42497 1.1695 0.24707 -0.071623 -0.01874 0.77171 -0.57827 -0.23091 0.631 -0.61574 -0.69331 -0.78791 -0.47415 -0.24341 0.30029 -0.12913 0.75399 -0.026565 -0.20611 0.33072 0.034365 -0.36717 0.35552 -0.046903 -0.013921 -1.2804 0.059656 0.43481 -0.32019 0.40133 -0.0097079 0.84162 -0.31233
shoot 0.55794 0.079937 0.3536 0.24073 0.15702 -0.059659 0.011994 -0.75272 -0.79132 0.50206 0.24684 -0.7088 0.6413 -0.28042 0.22082 -0.31072 -0.19903 0.15759 -0.67871 1.3069 0.34603 -1.4548 1.1506 0.016628 -0.4337 0.21646 0.68369 -0.0076268 0.60065 0.17037 -0.25081 -0.092202 -0.38327 0.20569 0.55508 -0.82867 -0.51577 -0.41791 0.40156
aeronautics -1.1694 -0.47062 0.26347 0.56591 -1.2956 0.17525 0.042586 1.1568 0.20237 -0.1321 0.36437 -0.25501 -0.61257 -0.29852 0.0078743 -0.33161 0.38325 0.32267 0.0076974 0.62077 0.15567 -0.014375 1.0388 0.77563 0.32254 0.60092 -0.37597 0.48564 0.07144 -0.14181 0.47992 -1.3385 0.32304 0.53406 -0.92006 0.42132 0.11947 0.66997 0.011175
gospel 1.1216 0.3058 -0.7405 -0.028018 -0.042826 -0.36133 0.62009 0.74958 -0.16888 0.52275 0.10089 0.37213 0.17217 0.62021 1.0863 -0.1117 -0.72622 0.7897 0.1581 -0.22019 0.084349 -1.7724 0.76103 0.70713 -0.019161 -1.2257 0.2412 -0.45899 0.39258 -0.037901 0.06816 0.39404 0.16381 -1.0694 0.55598 0.41029 -0.68647 -1.0553 -0.71342
britain -0.71874 -0.82093 0.11918 -0.36761 -0.18439 -0.49759 1.0078 0.090707 -0.77544 0.011155 0.95211 0.43791 0.51566 0.23352 -0.4687 0.016487 -0.13443 -0.042633 0.70322 1.1616 -0.79235 -2.1745 0.9018 0.86554 0.19242 -0.17718 -0.91509 0.10777 -1.1395 0.014442 0.32584 -1.1173 0.68521 0.32917 -0.014109 -0.11447 -0.88482 0.43184 -0.054048
forswearing 0.73108 -0.33853 -0.24991 0.19277 -0.17302 0.21953 -0.27454 -0.2942 0.65311 0.00053058 -0.15788 0.038331 -0.027674 -0.42248 0.19249 -0.1501 0.43553 0.1542 -0.16384 -0.15729 0.17083 0.77389 -0.6587 -0.11977 -0.055649 -0.10327 0.17922 -0.15228 0.12211 0.26323 0.014632 -0.1152 0.17173 0.37162 0.55592 -0.31726 0.090302 -0.70835 0.71064
odyssey -0.42052 0.93462 0.2997 -0.17739 0.42662 -0.042582 -0.13842 0.52142 0.35741 0.52858 0.93339 -0.32416 0.18183 -0.29595 0.15755 -0.026409 -0.54423 0.23642 0.68211 0.75104 0.22019 -1.0274 0.58156 0.035852 0.50283 -0.21961 -0.25777 0.44229 -0.26936 -0.58028 0.62218 -1.0559 0.77528 -0.50285 -0.16851 -0.69019 0.64007 -0.10666 0.0019631
month -0.35733 0.31654 0.77597 0.23393 -0.0022117 0.25745 -0.18118 -0.26382 -0.55455 -0.16636 0.32032 -0.14221 -0.053476 -0.046911 -0.15633 -0.016067 -0.19135 -0.056881 0.40484 1.0664 -0.60349 -2.5473 2.2094 -0.20195 -0.21362 -0.37952 -0.077741 0.17745 -0.90418 -0.098119 -0.18 -1.6407 -0.059908 0.38962 -0.30023 -0.0267 -0.70729 0.5254 0.46695
scottish 0.77937 -0.057956 -0.9958 -0.094012 -0.28298 0.088591 0.23956 0.54977 -0.22409 0.63726 -0.081863 0.28195 -0.575 -0.19181 -1.284 -0.57707 0.0062828 -0.045773 0.37201 0.17345 -0.47508 -1.6316 0.38525 0.77777 -0.43342 0.25955 -1.0055 -0.64216 0.64976 -0.86481 0.45296 -0.51345 0.44555 0.15221 0.76019 0.84948 -0.44227 0.033158 0.51388
division -0.12661 0.98377 -0.19231 0.52767 -1.3103 0.082113 -0.1086 0.91882 -0.29517 -0.39003 -0.59933 0.83051 0.15448 -0.38433 -0.77227 -0.76207 0.071203 -1.0502 -0.17307 0.96608 0.50497 -1.9909 1.5034 -0.012128 -0.12297 0.34433 -0.36194 0.54093 -0.26433 -0.24099 -0.47102 -1.2081 1.0424 -0.99883 0.17862 1.034 -0.19139 0.13273 0.49872
bronze -0.96599 -0.70058 0.34773 0.1963 0.046594 0.2753 0.4666 0.41146 -0.52745 -0.84349 1.1201 0.32065 0.60686 -0.91813 -0.011438 -0.53446 0.024616 -0.88731 -0.4889 0.86562 -0.43142 -2.0394 0.17595 -0.77675 0.37027 1.3918 0.28842 0.091011 -0.15035 1.282 -0.38194 0.14092 -0.14697 -0.062317 -0.020357 0.65185 -0.36882 -0.90214 -0.44113
french 0.76448 0.68741 -0.70841 0.2313 0.27853 -0.36323 0.23714 0.12831 -0.5305 0.27697 0.62746 -0.067834 0.69382 -0.74804 -1.1347 0.17408 -0.087847 0.12507 -0.039628 0.95245 -1.0367 -2.2442 1.4038 0.92056 -0.083393 -0.33175 -1.0455 0.15655 -0.31146 -0.33961 0.7231 -0.99319 0.68025 0.42506 -1.0161 0.69379 -0.81049 0.48292 -0.50855
sweden -0.35259 -0.035232 0.061812 -0.11949 0.0099263 -0.79092 1.0121 -0.5364 -1.0985 0.55559 0.30737 0.4873 1.1907 -0.63065 0.19268 -0.054274 -1.3909 -0.064973 0.17376 0.41186 -0.83559 -1.9132 0.63794 0.48433 -0.28046 0.58843 -0.73676 0.2643 0.22348 0.74862 -0.11246 -0.27665 0.46676 -0.067669 0.015016 0.13024 -0.40626 0.54992 0.43924
blues 0.72926 0.60656 -0.46857 -0.49276 -0.8338 -1.0197 0.28543 0.27226 0.18824 0.63836 0.2212 -0.50061 0.38305 0.052899 0.96592 -0.30429 -1.0837 -0.10807 1.2651 0.14774 -0.10029 -1.7074 0.61616 -0.27238 -0.84815 -0.23449 -0.085843 -0.72862 0.041852 0.25114 0.079834 0.25612 0.089296 -0.48698 1.213 0.31047 -0.74537 -0.24521 -0.013175
tone 0.38791 -0.080556 -0.73659 0.63227 -0.42899 -0.18285 -0.12003 -0.97257 0.71999 -0.72595 0.30886 -0.099595 0.20965 0.16721 -0.34514 -0.0059363 -0.008308 0.4747 0.58512 0.89215 -0.025619 -2.081 0.59528 0.57361 -0.51565 -0.4095 0.51056 0.089933 0.28052 -0.86075 0.08741 0.51235 -0.023408 -0.0803 -0.24861 0.27006 0.026559 0.64505 -0.56788
con 0.51362 1.1964 0.55661 -0.071186 -0.47841 -0.34577 -0.19581 0.17526 0.12884 0.67695 0.47121 0.032798 0.058482 -0.57419 0.24665 0.69217 -0.30842 -0.49359 -0.51673 -0.26788 -0.60665 -0.72313 0.16506 -0.87041 -0.74286 -1.0106 0.23678 0.38447 -0.83726 -0.43561 0.22972 0.044931 -0.26971 -0.093252 -1.3099 -0.27334 0.74727 0.194 -0.70589
guess -0.025622 0.21732 -0.0035074 0.045821 0.39764 0.3441 -0.38566 -0.57202 -0.31453 0.61625 -0.14767 -0.043522 0.29819 -0.58088 -0.28866 -0.52147 -0.94061 -0.70484 -0.50293 0.27367 -0.24166 -1.33 0.55964 -0.085787 -0.52597 0.0045457 0.3612 0.0272 0.053955 -0.2475 0.14604 -0.038173 -0.39142 -0.3021 -0.14489 -0.4459 -0.32166 0.037693 0.094198
bitter 0.25971 -0.024929 -0.30001 -0.32749 -0.22551 0.3275 0.35634 -0.49982 0.045618 0.10121 0.23014 -0.47405 0.73357 -0.48345 -1.0073 0.27281 0.080456 -1.3554 0.31119 0.994 0.58819 -1.7575 0.20455 0.16449 -0.42493 -0.6957 0.67523 0.002628 -0.33458 0.4531 -0.64572 -1.4497 0.85274 1.0268 -0.37074 0.95038 -0.28397 -0.059593 0.68543
repeal 0.14236 -0.87344 0.67079 0.24122 -0.1307 -1.392 -0.29943 0.43932 -0.49079 -0.075796 0.054971 -0.69193 -0.2856 -0.50565 -0.21852 0.43031 0.6199 -0.17624 -0.71749 -0.054842 -0.034543 -0.20312 0.84862 -0.050953 0.396 -0.0044893 0.02089 0.76457 -0.19461 0.23509 -0.35486 -0.72811 -0.39629 -0.30017 -0.13927 0.37693 -0.42115 -0.69358 0.39032
shortage -0.94808 -0.5992 -0.030837 -0.010233 -0.12543 0.33807 0.44938 -0.42689 0.16528 -0.77188 -0.15868 0.05825 -0.43439 0.30946 0.027108 -0.058793 -0.21405 -0.9206 -0.23127 0.69667 0.83155 -0.90069 0.939 0.14373 -0.19815 0.27967 0.48119 0.0546 -0.76704 0.90895 0.37755 -0.60701 -0.20672 0.008408 -0.27987 -0.47291 -0.4572 0.43267 0.00068276
kremlin 0.51499 -0.27166 -0.50612 0.81442 0.58576 0.85708 -0.17997 -0.51078 -0.30436 -0.93608 -0.22704 -0.32304 0.67982 0.52035 -0.29603 -0.074102 0.079211 -0.45785 0.54442 0.94893 0.020152 -2.1437 0.33211 -0.53952 -0.48016 0.912 -0.0038651 0.13126 -0.21832 0.014681 0.36816 -0.84381 -0.15263 1.294 -0.32036 0.38617 -0.4703 -0.57134 0.036219
water -0.32201 0.29462 1.025 -0.27206 0.10462 -0.16654 0.16812 -0.081805 -0.42493 -0.51661 -0.081205 -1.0971 -0.38722 0.10288 0.19447 -0.093331 0.17799 -1.0351 -0.21731 1.375 -0.33502 -2.21 2.0783 0.091217 -0.082423 1.0019 0.72513 -0.14352 1.0577 0.34072 0.3205 -0.57704 0.83128 0.0153 0.3364 0.0042248 -0.39847 0.21771 -0.17269
charged 0.79287 0.10197 0.34243 0.75854 0.36564 -0.30058 0.24182 -0.035298 -0.81935 0.26862 -0.23724 0.065814 -0.043401 0.83675 -0.23316 0.13323 0.35748 -0.38371 -0.053262 1.2013 -0.63471 -0.79872 1.6809 -0.19557 -0.23481 -0.32083 0.98821 -0.22678 -0.13858 0.1232 0.37153 -0.7976 -0.12876 0.32434 -0.62119 -0.41647 0.57335 0.50091 -0.2094
pakistan -0.41892 -0.92872 0.54463 1.2198 -0.72703 1.0411 0.98861 -0.27541 -0.89097 0.52127 -0.24538 0.62761 0.044693 -0.1248 -0.062973 -0.21281 0.018355 -0.59262 0.47513 1.4492 -0.51227 -1.6309 1.3505 -0.51844 0.31411 -0.1856 0.17216 0.63076 0.093682 -0.83192 -0.081978 -0.93729 -0.75881 0.40621 0.55132 -0.45897 -0.65236 0.69309 0.29766
ocean -0.4853 0.26267 0.56823 -0.094061 0.23551 0.21247 -0.46676 -0.00089015 -0.017698 -0.065572 0.1728 -0.78283 0.27627 -0.60768 0.2967 0.23081 -0.22981 -0.090112 0.033476 0.55065 -0.045642 -2.1594 1.7955 -0.59456 0.068371 -0.31427 -0.45162 0.094224 1.0289 -0.26392 0.48541 -0.16824 0.85321 -0.52169 -0.18184 -0.2748 0.255 0.97766 -0.31903
army 0.54714 0.2447 -0.30044 0.83421 -0.2708 0.27357 0.50757 0.79625 -0.98192 -0.32794 -0.55012 -0.43317 1.0499 -0.38222 -0.76854 -0.5136 0.30809 0.0068617 0.25778 1.3538 -0.11197 -1.4268 1.976 0.51682 0.49918 0.78646 -0.41862 0.99098 -0.68479 -0.86275 0.082006 -1.0763 0.33084 -0.24726 -0.04424 0.93214 -1.0896 -0.33172 -0.10594
dignity 1.2337 -0.78174 -0.29721 0.14693 0.47438 0.63645 -0.50115 0.42908 -1.0587 0.29084 0.7435 -0.39085 0.52872 -0.59027 0.17647 -0.26887 -0.37559 -0.1998 -0.73901 1.1635 0.39328 -0.42606 0.50969 0.074173 -0.62425 -0.83991 0.31549 0.58205 0.56063 -0.12914 -0.54308 -0.6778 0.9983 0.13993 -0.57794 0.64669 -0.22211 0.1954 -0.81301
jerusalem 0.076623 -0.2324 0.16391 0.96795 -0.15182 0.69545 0.81598 -0.083345 -1.5462 0.23391 0.50001 0.27989 0.44389 0.31893 0.98542 0.24217 0.043684 0.1823 -0.38517 0.89485 -1.2605 -2.0262 0.56062 -0.092094 0.77341 -0.70793 0.62746 -0.2691 -0.21065 -0.24623 0.21491 -0.91721 0.79049 -0.71633 0.059728 0.068856 -1.3931 0.84627 0.78359
commuters 0.62156 -0.43045 1.0057 -0.26896 0.096251 0.09595 -0.3483 -0.14034 -0.36769 -0.14368 0.20769 0.06587 0.35343 -0.38835 -0.027909 0.21788 0.70231 0.26695 0.61289 0.76254 -0.38303 -0.40283 1.1753 -0.13488 0.47895 -0.29942 -0.11228 -1.3262 -0.33204 -0.22062 1.2582 0.012898 0.30634 0.61677 0.10383 -1.1386 -0.98537 0.22981 0.85148
louisiana -0.013573 1.003 0.29702 0.19672 -0.34162 -0.36374 -0.51852 0.64037 -0.2048 0.61213 -0.71114 -0.64949 0.070412 -0.3275 0.37303 -0.74998 0.23843 -0.59044 0.45741 -0.59153 -0.50167 -1.189 0.7806 -0.64953 0.70872 -0.84508 -0.43905 0.056598 0.019945 0.43518 0.69685 0.24621 0.22126 -0.53507 -0.65688 0.60886 -1.0067 0.31033 -0.14081
corruption 0.6421 -0.69278 -0.21143 0.79092 1.1099 -0.14899 0.24521 0.29117 -0.57624 0.043575 -0.34892 0.64399 -0.17237 0.14011 0.25536 -0.1728 0.71672 -0.85268 -0.059602 1.8993 -0.31608 -1.0466 1.4005 -1.0729 -0.57502 -0.24276 0.65221 0.75766 -1.1734 0.13222 -0.86161 -1.2303 -0.23597 0.64578 -0.65774 0.66344 1.4512 -0.27774 -0.77111
repair -1.0244 -0.011158 0.75182 1.1332 0.086106 0.47625 -0.085698 0.46103 0.12545 0.59079 0.51235 -1.0225 0.37213 -0.044614 0.10782 -0.45961 0.44196 -0.7705 0.2702 0.3984 0.3031 -1.4561 1.4972 -0.31783 0.39379 1.0153 -0.31518 -0.25119 -0.17185 -0.14837 0.32452 -0.72781 0.91056 0.42823 -0.29448 -0.38205 -0.03881 0.1958 -0.29745
scale -0.69743 -0.11025 0.045771 1.5607 -0.10312 -0.2488 0.0025583 -0.18648 -0.36235 0.12696 0.68935 -0.33832 -0.86935 -0.47662 0.20006 0.93756 -0.020355 0.34724 0.18195 0.9635 -0.16138 -1.7002 1.7275 -0.24102 -0.29533 -0.21347 -0.42027 -0.12963 -0.20412 -0.21611 -0.17874 -0.35828 -0.22766 -0.59114 -0.46225 -0.2242 0.1346 -0.081485 -0.43622
mistake -0.024249 0.18876 -0.01659 0.14401 0.4262 -0.15274 -0.027316 -0.2783 -0.48055 0.40519 -0.13663 -0.54115 0.51129 -0.52031 -0.29807 -0.87463 -0.26909 -0.0074074 -1.0969 0.78021 -0.248 -1.6057 1.0256 -0.38346 -0.4977 0.18014 0.36374 -0.46405 -0.0077575 -0.14238 -0.080272 -0.23741 -0.27436 -0.07907 -0.67312 0.14642 -0.3956 0.20228 -0.31665
withdrawn 0.25352 0.40908 0.64561 0.08902 0.74083 0.38201 -0.15886 -0.026918 -0.11863 -0.54945 -0.353 0.11978 0.5133 0.12407 -0.53383 -0.1374 0.067291 -0.087085 0.39337 0.34671 -0.17805 -0.54227 1.3472 0.75535 -0.30283 0.69137 -0.017959 0.34425 -0.48719 -0.023917 0.031497 -0.73595 0.4129 0.22982 -0.080014 0.49719 -0.24208 0.81178 0.83689
solar -1.1318 0.47272 0.7262 0.92573 -0.66934 -0.16113 -0.45796 -0.22244 1.0084 -0.11968 0.58174 0.22822 -0.26736 0.057578 0.45969 0.21396 -0.37056 -0.029682 0.31337 0.25178 0.060524 -1.0049 1.743 -0.20272 -0.045289 0.9897 -0.28568 0.91562 0.46926 -0.40258 0.87631 -0.50325 0.41198 0.49573 -0.41064 -0.4771 -0.18239 -0.38799 -0.65394
deputy -0.60457 -0.036687 -0.017043 0.12634 -0.40739 0.30918 1.4382 0.055188 -1.1798 -0.45864 -0.97934 0.59961 0.37781 0.58435 -0.20864 -0.12841 0.031684 -0.039906 -0.4553 0.81198 0.049533 -1.1654 0.91463 -0.31029 -0.046135 0.16978 0.65684 0.86785 0.16504 -0.84663 -0.82847 -1.373 -0.71857 0.67556 -0.91066 0.83935 -0.1809 0.25065 0.019023
slaying 0.75329 0.34156 -0.28754 0.75638 0.83821 0.19556 0.51952 -0.63615 -1.0032 0.85476 0.50296 0.31491 -0.34936 0.45773 0.35826 0.20227 -0.16826 -0.2909 0.29283 1.0145 -0.75548 -0.77131 0.15439 -0.5108 0.66486 -1.0319 0.016978 -0.42362 -0.3424 0.47908 0.942 -0.92742 -0.16169 0.5412 -0.57078 0.28859 0.1879 -0.57562 -0.13662
protestant 1.5118 0.058234 -1.1073 0.6597 -0.2515 0.56521 0.94349 -0.053581 -0.79085 0.51232 0.0041355 -0.21642 0.25366 0.2621 -0.70358 0.56803 0.58767 0.086908 0.21828 -0.31497 -0.22315 -1.2005 0.99416 1.1341 0.030775 0.19844 -0.4262 0.033174 -0.41168 -1.0764 0.39315 -0.40197 0.75754 0.034403 0.25986 1.0206 -1.5899 -0.52659 0.073556
singapore -0.83162 -1.3128 0.48772 0.046644 -0.17475 0.005094 0.532 -0.12492 -0.021302 -0.33271 0.39574 1.1948 -0.2424 0.011758 0.14102 0.19333 -0.84346 -0.018536 0.23856 0.51898 -0.9629 -1.0592 2.1219 -0.84636 -0.8008 -0.24053 -0.42912 -0.23468 -0.54058 -0.43988 -0.13667 -0.63239 0.24695 0.49985 0.20424 -0.64953 -0.023579 1.1518 -0.9891
faith 0.70152 -0.40591 -0.79097 -0.14934 0.2696 0.78997 0.39597 0.2136 -1.3083 0.89848 -0.087264 0.22459 -0.13031 0.41296 0.074112 -0.051998 -0.23252 0.42593 0.43028 0.58732 -0.10148 -2.2665 0.89253 0.82143 -0.046786 -0.71849 0.24389 0.26668 0.13996 -0.61017 -0.31939 -0.74076 0.55501 0.15803 -0.2442 0.64946 -0.39519 -0.52829 -0.79461
garfield -0.10539 0.061583 0.81503 -0.72716 -0.3776 -0.16453 0.14261 0.33499 -0.34992 0.36206 0.52565 -0.24902 -0.089636 0.33124 0.73773 0.018738 -0.25529 0.10486 -0.11596 -0.19009 -0.084007 -0.91725 -0.58774 -0.037834 0.22126 0.64484 0.44333 -0.22115 -0.32302 -0.018954 0.27602 -0.52659 -0.68842 -0.40722 -0.3138 -0.090672 -0.89548 0.10646 0.013599
campaign 0.42518 0.4435 -0.028421 0.58533 -0.17747 -0.29341 -0.48998 0.36962 -0.087551 -0.37826 -0.99479 -0.34238 -0.20322 -1.0698 0.14114 -0.488 0.79741 -0.086324 -0.17185 1.3329 0.41414 -2.6787 1.2819 -0.20334 0.31497 -0.18388 -0.17941 0.54095 -0.91381 -0.39369 -0.33536 -1.4939 -0.18219 0.58907 -0.57678 0.6834 0.092827 -0.35182 1.0004
builders -1.0463 -0.41033 0.019031 0.057288 -0.8075 0.57589 -0.71233 0.23307 -0.46228 0.25962 0.059183 -0.80122 -0.34098 -0.37281 0.43417 0.075555 -0.55567 0.067271 0.43373 0.3027 0.074764 -0.13539 1.0136 -0.11806 0.1096 0.88114 0.13611 -0.42455 -1.0023 -0.5468 0.47305 -0.61254 0.25007 -0.5916 -0.14814 -0.42003 -0.30945 -0.26064 -0.46237
insured 0.26111 0.018407 0.10787 -0.29271 0.98947 0.41299 -0.5257 0.50513 0.3317 0.22465 -0.22423 -0.54703 -0.95252 -0.27443 0.64987 -0.055537 -0.21455 0.48892 -0.82334 -0.0080432 0.48793 0.46488 0.99883 0.66893 -0.014804 0.26254 -0.06141 -0.16217 -0.2439 0.64039 0.38998 -1.1337 0.35564 0.18964 -0.23067 -0.6165 -0.3664 0.45267 -0.10898
rescued 0.47004 0.23681 0.10589 -0.44476 1.5318 0.64483 -0.32761 0.42917 -0.7615 0.69778 0.050878 -1.1622 0.14657 0.33488 0.4031 -0.3731 -0.041199 0.60137 0.3366 1.0038 -0.14163 -0.5067 0.57513 -0.12426 -0.35519 0.19235 -0.29945 -0.65946 0.11726 0.4265 -0.17508 -0.9005 0.45678 0.058986 -0.24127 0.21386 -0.89963 0.23863 0.47156
bread 0.36303 1.0135 -0.14802 -0.20326 0.16632 0.61518 1.397 -0.18976 -0.39371 -0.22501 0.23932 -0.16461 -0.34034 -0.44906 -0.95057 0.23231 -1.1206 -0.66337 -0.069351 1.0083 -1.0608 -0.87314 0.61634 0.88094 -0.27161 -0.58026 0.67576 -0.74353 0.29012 0.89377 -0.30693 0.078353 0.87079 -0.11887 0.041883 -0.29424 -1.4912 -1.6548 0.27325
klan 0.84963 0.15652 -0.14206 0.14367 0.31878 -0.17062 -0.15699 0.38954 -0.063381 -0.52296 0.063903 -0.2412 0.22737 -0.37591 0.13018 0.27556 0.54063 0.23983 0.75586 -0.10668 -0.32646 -0.018186 0.3175 -0.62041 -0.11104 0.52881 0.971 0.86496 -0.46405 -0.2205 0.98065 -0.037759 -0.11558 -0.37711 0.4951 0.63156 0.35984 -1.44 -0.34047
sports 0.25401 0.10652 0.49135 -0.11475 -0.91305 0.25738 -0.44816 1.108 -0.59433 0.54188 0.57122 0.46843 -0.21334 0.82496 -0.32657 -0.75724 0.33213 -0.72283 0.2482 0.4574 0.50033 -1.9982 1.8659 -0.48694 -0.31767 -0.44004 0.28952 0.10693 0.24676 0.15782 0.95005 -0.93312 -0.8848 0.23672 -0.48581 -0.16805 -0.17237 -0.012571 -0.18496
quarterback 0.42899 0.78275 -1.3264 -0.060108 0.5569 -0.18171 0.27387 0.78617 -0.17095 0.6414 0.6148 -0.95833 0.071655 0.73157 0.02751 -1.6156 0.44796 0.2146 0.24803 0.10912 0.7201 -1.834 0.22194 -0.41961 -0.3613 0.020383 1.4912 0.072208 -0.36263 0.17068 -0.59101 0.86733 -0.23042 -0.75263 -0.32534 0.11337 -0.83095 0.60459 0.77608
forbes -0.066298 0.5621 -0.51002 -0.088357 0.20084 -0.40401 -1.2124 0.25408 -0.23005 0.046586 -0.3128 0.28549 -0.175 -0.022688 -0.22392 -1.1671 0.87495 0.41117 -0.33901 -0.26341 -0.16722 -1.8075 -0.11201 -0.055856 -0.087725 0.22714 0.88801 0.045877 -0.58794 0.3443 0.42723 -0.72528 -0.75873 -0.80785 -0.84196 -0.35563 -0.8635 -0.28635 -0.14427
money 0.17434 -0.45032 0.093412 -0.13945 0.88155 -0.38892 0.1604 0.30897 0.10067 0.49195 -0.87537 -0.34685 -0.32777 -0.43901 -0.18507 -0.36041 0.11799 -0.3159 -0.023179 0.7854 -0.11591 -2.2916 1.9169 0.12435 -0.28132 0.4376 0.52382 0.073623 -0.58587 -0.10173 -0.15438 -1.1959 -0.65304 0.0041773 -0.70303 -0.77761 -0.23718 -0.5553 0.33944
israel -0.61907 0.010244 0.34232 0.55979 -0.77078 0.32314 0.94634 -0.47358 -1.4824 0.68584 0.63541 -0.18225 1.0884 0.041033 1.0742 0.47114 -0.17976 0.77299 -0.74665 1.6645 -0.91746 -2.0156 1.2012 0.51149 0.6306 -0.62896 0.37489 0.61396 -0.54577 -0.47719 -0.043081 -1.2394 0.56805 0.39477 -0.083506 -0.18069 -1.2595 0.7402 0.58605
electronics -1.7861 0.2637 -0.54113 0.13826 -1.4236 -0.0098513 0.050115 0.34541 0.92283 -0.0082058 -0.020046 0.046018 -0.50765 -0.011776 -0.17101 0.52688 -1.1181 -0.14051 0.3902 -0.42376 0.44699 -0.71356 1.7367 0.68419 -0.11242 0.71043 0.73085 0.024299 -0.2574 -0.24181 0.3246 -0.14107 0.77059 -0.32008 -0.40817 -0.078422 -0.45895 0.74521 -0.67191
summer -0.27147 0.10636 1.0227 -0.095019 -0.6404 0.35748 -0.14664 -0.057655 -0.32757 -0.017158 -0.28157 -0.59077 0.11974 -0.53354 -0.3961 -0.087348 -0.4066 0.071773 1.0044 0.51366 0.0092129 -2.9715 1.342 -0.48805 -0.1306 -0.32415 0.095845 0.0099921 -0.57978 0.51789 0.44394 -0.4677 -0.027604 0.10151 0.15527 0.45589 -0.60991 0.1894 1.0659
close -0.35598 -0.21976 0.065529 -0.10718 0.09245 0.35833 -0.28086 -0.1175 -0.40234 0.62752 0.3701 -0.27326 0.33263 0.054406 0.096274 0.35525 0.38438 -0.20943 -0.068526 1.2063 -0.53784 -2.5094 1.6762 -0.27374 -0.32099 0.30576 0.32751 -0.44481 0.20546 -0.96744 -0.22704 -0.5664 -0.28745 1.0223 -0.16271 0.12526 -0.87547 0.079556 -0.1734
probability -0.069441 0.00066181 -0.045899 0.54858 0.4051 0.24134 -0.31526 -0.63231 0.60089 0.67277 0.066784 1.304 -0.3367 -0.39792 0.33247 0.67252 -0.49831 -0.20466 -1.455 0.66895 0.11506 -1.0283 0.79104 -0.54684 -0.36704 0.17075 -0.40366 -0.68837 0.39941 0.49368 -0.32588 -0.54986 -0.9179 -1.0494 -0.51883 0.13193 0.20094 -0.40029 0.034915
gossip 0.97666 -0.12936 -0.67177 -0.23909 0.078669 0.11391 -0.16921 0.14722 -0.18229 0.19619 0.39647 0.72599 -0.64844 0.28195 -0.44554 -0.61643 -0.14379 -0.60952 1.0666 0.3158 0.068775 -0.66644 0.022907 -0.40858 -0.58285 -0.18436 1.5276 -0.21533 -0.081075 -0.066172 0.89455 -0.77288 0.13288 0.29663 -0.72443 -0.37807 0.22232 -0.42691 -0.66984
manchester 0.21835 -0.020696 0.47304 0.40566 -0.85499 -0.27234 0.078166 0.61288 -0.15935 0.26286 -0.0092243 0.31176 0.039015 -0.064649 -0.40368 -0.39354 0.094096 -0.75524 1.0175 0.2995 -0.073665 -2.4949 -0.345 -0.013545 -0.9372 -0.081197 -0.10839 -0.50426 0.65212 -1.0431 1.2237 -0.59158 0.11117 0.78035 0.22178 0.86577 -0.91225 -0.018268 0.75836
privileges 0.10751 -1.3808 0.59124 -0.75168 0.00041195 0.32306 0.02836 0.41994 -0.57622 0.26948 0.22748 -0.054939 -0.036058 -0.48999 -0.31439 -0.32072 -0.36466 -0.3978 0.40193 0.57075 0.29903 0.13548 1.2499 -0.1745 -0.31273 0.17422 0.59311 -0.27905 0.56088 0.033927 -0.7521 -0.74277 0.018168 -0.32251 -0.32818 -0.07979 -0.076258 0.21891 0.19109
fire 0.52288 0.61285 0.42428 0.43689 -0.24277 0.61373 0.38125 0.0010001 -1.2309 -0.1072 0.24042 -1.0297 -0.28765 -0.024815 0.51925 -0.1062 0.23399 -0.30398 0.045135 1.3542 0.40702 -2.3607 1.6656 0.29794 -0.12086 0.59736 0.5328 -0.21694 0.60013 -0.54825 0.62682 -1.3777 0.060718 0.15217 0.22192 0.9432 -0.75674 0.35979 0.49344
paint -0.05159 -0.02932 0.15283 0.61615 -0.45646 -0.063123 0.17004 0.676 0.53603 -0.3418 -0.17188 -0.3759 -0.26508 -1.2158 0.29039 -0.20423 -0.080649 -0.68042 -0.45883 1.3103 -0.63663 -1.1847 0.63369 0.069276 -0.39125 0.89761 1.4076 -0.30074 0.24721 0.23592 0.096352 0.14288 0.26375 0.10041 -0.065838 -0.13533 0.050152 -0.60427 0.26301
stevenson -0.10633 0.44142 0.0041838 -0.22337 -0.20978 -1.3001 -0.15749 0.48828 -0.53984 -0.49206 0.46605 0.44927 0.18698 0.29673 0.12639 0.04282 0.034151 0.086784 0.7656 -0.15296 0.47793 -0.91991 -0.70567 -0.30851 0.39602 0.27203 0.28192 -0.47832 -0.1549 0.20895 0.39634 -0.52458 -0.25818 -0.44593 -0.55666 0.59877 -0.69945 -0.34915 -0.40504
justice 0.35096 -0.84811 -0.40346 -0.16492 0.042706 -0.48147 0.79093 0.34759 -1.6272 0.61653 0.085163 0.65366 -0.3832 0.32964 0.069931 -0.24579 0.14125 -0.64101 -0.19111 1.3731 -0.2555 -1.1689 1.8805 -0.381 0.011638 -0.92373 -0.28318 0.49692 -0.54511 -1.0 -0.85045 -0.4928 0.32436 0.17493 -0.84832 1.0612 0.62816 0.053861 -0.35237
stock -0.74666 -0.22086 -0.44615 -0.99931 0.45049 -0.059912 -0.57837 -0.5057 0.9825 -0.081571 -0.12948 -0.12811 -0.67719 0.03019 -0.056887 1.2811 -0.72455 -0.58669 0.43015 0.87452 -0.90237 -1.7366 2.7727 -0.40363 -0.30787 0.59202 0.33646 -1.0657 -0.31349 0.23231 -0.23418 -1.0016 -0.19386 -0.57782 0.20123 -0.26205 -0.93676 1.0053 -0.24698
marble 0.050339 -1.0704 0.2834 0.18447 -0.24131 0.13308 0.66293 0.7805 -0.28773 -1.0481 0.46228 -0.074976 -0.4781 -0.71469 0.08229 -0.27752 -0.22308 -0.2442 0.37626 0.45276 -1.3203 -1.5994 0.19723 -0.7792 0.28995 0.71731 1.0157 0.15041 0.53159 0.28522 0.043603 0.61586 0.15779 -0.66991 -0.55997 0.31253 -0.43633 -1.0344 -0.51227
crowded 1.0177 -0.6912 0.66796 0.41166 0.17331 0.21633 -0.29926 -0.40953 -0.10564 -0.44413 0.37862 -0.15699 0.059129 0.52362 0.12374 -0.018593 0.39008 0.4468 0.19183 0.19584 -0.37941 -1.6887 1.3835 -1.0064 0.92025 -0.012926 0.18509 -0.39537 0.36205 -0.22963 0.27715 0.048814 -0.0020568 -0.10152 -0.058083 -0.23846 -0.49765 0.49113 1.2662
clash 0.82684 0.16971 -0.068039 0.28381 0.06907 0.34516 0.29429 -0.28391 -0.52496 0.13766 0.12842 0.12943 0.33057 0.011989 -0.17451 -0.6234 -0.032228 -0.35865 -0.21855 1.074 0.60144 -1.7628 0.093925 -0.70133 -0.046328 -0.52206 -0.53715 0.029318 -0.17594 -0.49261 0.5327 -0.75944 -0.069492 0.6456 -0.01463 0.74757 -0.47064 0.35264 0.64337
challenge -0.16974 -0.096688 -0.16857 -0.14734 0.030256 -0.59602 -0.69686 0.14059 -0.6112 0.10574 0.1875 0.15544 0.014355 -0.29149 -0.32393 -0.74031 -0.044738 -0.67522 -0.4591 1.2924 0.99729 -2.25 1.0309 -0.36536 -0.34566 0.022474 -0.53555 0.076322 -0.72452 -0.49999 -0.077999 -0.68412 0.17301 0.54566 -0.33438 0.12521 0.35619 0.091559 0.057378
vacation -0.072595 -0.06624 1.1507 -0.16252 0.28071 -0.20904 -0.045612 0.26637 -0.24835 0.75716 -0.73131 -0.86261 -0.38064 -0.74844 -0.35168 -0.28423 -0.79025 0.21481 1.0604 0.17285 0.36791 -1.8256 1.6158 -0.094958 0.32855 -1.4761 0.008007 -0.88127 -0.15421 -0.19104 0.23735 -0.37363 -0.32572 0.061988 -1.0444 -0.6795 -0.96553 -0.0035208 0.76954
miniature 0.47615 0.3328 -0.045862 0.14493 -0.14894 0.25261 0.34656 0.82158 0.59894 -0.48833 0.66614 -0.71936 -1.0486 -0.13097 -0.14707 -0.034971 -0.66086 -0.22907 -0.28516 0.35514 0.12446 -0.97223 0.18423 0.19143 0.2699 0.57016 -0.38774 0.0068646 0.74738 0.1726 0.86407 0.16133 0.43058 -0.39588 -0.095814 -0.57211 -0.59181 -1.0254 -0.45965
earth -0.27191 0.1733 0.19129 0.31815 -0.3701 0.71577 -0.26555 0.50233 -0.11394 -0.021928 0.84617 -0.021192 0.77686 -0.11234 0.20793 -0.10423 -0.3895 0.43048 -0.13153 1.0873 -0.058972 -2.126 1.5801 0.025335 -0.39001 -0.14508 0.0063423 0.43341 0.42763 0.41007 0.63831 -0.051332 0.27846 -0.27975 -0.17391 0.49022 -0.20765 -0.33529 -0.23953
gambling 0.44202 -0.34418 0.44217 -0.27087 0.3591 -0.70861 -0.58098 0.62754 -0.49917 0.75003 -0.6578 0.30775 -0.92233 -0.096843 -0.55789 -0.74498 -0.45166 -0.95117 0.40744 0.079138 0.50832 -1.2511 1.3412 -0.82961 0.81957 -0.6542 0.65832 -0.18943 0.60607 0.59515 -0.29604 -0.903 0.0095901 -0.64457 -0.75803 -0.28493 1.1058 -0.5138 0.44402
maxwell 0.18124 0.18795 -0.13373 -0.12762 -0.74271 -0.75192 0.5454 0.37676 -0.34401 0.23965 0.56591 0.24523 0.19812 0.37875 -0.2541 0.24661 0.1461 0.12307 0.3736 -0.087425 0.19221 -0.93231 0.08896 0.36018 -0.56062 0.26139 0.42263 -0.24092 -0.10014 -0.245 0.61077 -0.76295 -0.077247 -0.91928 -0.77844 0.067491 -0.036791 0.14334 -0.17941
liquor 0.59716 0.36006 0.43 -0.36433 -0.43392 -0.17606 0.48089 0.75345 -0.58045 0.05837 -0.59255 0.14513 -0.66839 -0.1145 -0.84696 -0.082207 -0.58591 -0.75724 0.087661 0.11951 -0.009202 -0.19238 1.1872 0.34811 0.4892 0.48646 1.1787 -0.17043 1.1352 0.73099 -0.36258 -1.3549 0.89984 -0.51029 -0.29052 -0.44703 -0.84615 -0.26788 0.48782
brokerage -0.61372 -0.45908 -0.036758 -0.022949 0.36653 -0.06253 -0.075156 -0.12181 0.4568 0.17985 -0.41124 -0.28632 -0.70672 0.21388 -0.24014 0.56985 -1.0452 -0.17827 -0.19209 -0.66047 -0.25286 -0.91792 1.2934 -0.47336 -0.014665 0.73913 0.41636 -0.79557 -0.96718 -1.2455 -0.34604 -1.3905 0.20832 -0.50832 -0.727 -1.0376 0.028409 0.96075 -0.26013
ambitious -0.52129 -0.18122 0.053193 1.0394 0.089537 -0.56194 -1.0334 -0.22786 0.19618 0.15033 -0.0027438 -0.50193 -0.65467 -0.050243 -0.70185 -0.17877 0.38281 0.75323 -0.056698 0.58328 -0.14781 -1.7095 0.84059 0.085482 -0.32829 -0.31829 -0.53368 1.1387 -0.66833 -0.2751 -0.37302 -0.78091 0.092588 0.15601 -0.86029 -0.40942 -0.69695 -0.22328 -0.19989
guild -0.30799 -0.37594 0.094907 -0.34298 -0.99366 0.64469 0.042826 0.69566 0.46967 0.38617 1.4858 0.060462 0.42227 -0.86971 -0.20804 0.02668 -0.25491 0.28226 0.044599 0.35303 -0.52127 -0.49783 0.41721 0.25866 -0.60034 0.10158 -0.21408 -0.11943 -0.35913 -0.44808 -0.026378 -1.1247 -0.37999 -0.1178 -0.058333 0.29412 0.029285 0.088687 0.64913
gasoline -1.3889 -0.025585 0.4597 0.51196 -0.81984 -0.23513 -0.041372 -0.55133 0.50375 -0.19669 -0.1642 -1.0261 -0.41226 0.62162 -0.15459 0.25439 0.30122 -0.45211 -0.23797 0.63805 -0.32262 -1.1996 1.3581 0.49001 -0.16716 0.41344 0.68934 -0.056692 0.43804 0.69141 1.3516 -1.032 0.073164 -0.056392 -0.51142 -0.64563 -1.5566 -0.40399 0.4415
ballots 0.82182 0.42256 0.89241 0.31051 0.41411 0.78544 -0.77408 1.1326 0.82001 0.049266 -0.080507 0.77375 0.31376 -0.48703 -0.035573 0.24045 0.2767 -0.23059 -0.77291 0.71238 -0.35946 -0.41446 1.2659 -0.99662 0.14838 0.65334 -0.27404 -0.97722 -0.10988 -0.36576 -0.67428 -0.61987 -0.49835 0.36893 -0.30375 0.70345 -0.82164 0.27702 0.88241
medium -0.17721 0.52252 -0.34432 0.95159 -0.68491 -0.36106 -0.043206 0.095189 0.51413 0.14246 0.66015 0.15455 -1.6329 0.87067 -0.46524 0.65676 -0.57205 -0.25659 -0.17567 1.2721 0.17436 -1.5936 1.59 0.32544 -0.45329 0.53998 0.33496 0.45997 0.43143 0.033528 -0.61316 0.88249 0.31621 -0.18293 0.3438 -0.96212 -0.95319 0.27819 -0.81621
bankruptcy -0.099114 -0.53298 -0.57244 -0.49947 0.69833 -0.22477 -0.2555 0.77878 0.45168 -0.023539 -0.25853 0.011955 -0.74802 -0.25079 -0.80655 0.37684 -0.4836 -0.36698 -0.0089962 0.35865 0.0070994 -1.1746 2.2745 -0.25738 -0.032771 -0.15082 -0.49937 -0.515 -1.4936 0.1876 -0.31795 -1.2042 0.48524 -0.39523 -0.43476 0.31192 0.8097 0.61657 0.7291
rhythm 1.1251 0.38918 -0.34924 0.10927 -0.07373 -0.56714 0.083908 -0.64555 0.55387 0.069518 0.18449 -0.028086 0.8251 0.11088 0.16201 -0.15217 -0.93233 -0.21483 0.6761 -0.13387 1.1893 -1.7839 0.57453 0.38798 -0.7794 0.12212 0.31072 -0.39206 0.44511 0.021841 -0.015954 0.84886 0.59179 -0.60472 0.61469 0.61911 0.12666 -0.15025 -0.61618
nervous 0.37159 -0.66184 0.054595 -0.90689 -0.22313 0.17688 -0.38273 -1.2197 1.131 -0.25847 -0.077774 0.31182 0.83821 0.70697 -0.30792 -0.15089 0.22305 -0.51196 0.069048 -0.079425 0.31651 -1.1711 0.41487 0.21283 -0.45951 0.33423 0.40912 -0.17365 -0.15581 -0.5095 0.0064655 -0.1769 0.66801 0.44633 -0.51919 0.25622 -0.27495 0.67002 -0.34433
law 0.81627 -0.73765 -0.37069 0.15738 -0.40587 -0.12339 0.6564 1.1309 -1.2164 0.14757 0.28923 -0.087733 -1.1219 -0.18417 -0.16798 -0.057938 0.17258 -0.38069 -0.4291 0.98383 -0.45859 -1.553 2.1612 -0.35161 -0.14506 -0.43789 -0.12746 -0.12859 0.32593 0.24759 -0.17663 -0.98587 -0.416 -0.8779 -0.85358 0.42446 -0.013386 0.72621 -0.60654
sabbath 0.54542 -0.64095 0.64373 -0.067341 -0.99333 0.56687 0.78855 0.54438 -0.46864 0.026407 1.3225 -0.5575 0.13023 0.41128 0.44475 0.36422 -0.40079 1.1523 0.44006 0.031794 -1.2613 -0.71117 0.96961 0.30041 0.35307 -0.64739 0.65464 -1.1855 0.081315 0.54337 0.10319 0.31797 0.93463 -0.10536 1.4084 0.65063 -0.68388 -0.69872 0.50411
body 0.72216 -0.10965 0.93872 0.2184 -0.19954 1.5393 0.15211 0.0031419 0.073187 -0.20624 0.22335 -0.28772 0.48739 0.73993 -0.23599 0.20244 0.15633 -0.80883 -0.56291 1.3075 -0.17614 -2.086 1.8055 0.66115 0.070113 0.6539 -0.30589 0.83567 0.64243 0.18568 -0.38896 -0.54854 -0.10253 -0.057652 0.075128 0.5818 0.27103 0.32466 -1.323
passport 0.6142 -0.37275 0.22491 0.48253 0.58748 0.31375 0.65931 1.3192 0.2131 -0.65834 0.26693 0.89876 0.40563 -0.78134 0.32144 -0.22902 -0.39773 -0.21389 0.26265 0.86055 0.22912 -0.098775 1.7921 0.37721 -0.47323 -0.47618 -0.4386 -1.1604 0.10419 -0.4036 0.14093 -1.4628 -0.24565 -0.37258 -0.16127 -0.87634 0.39373 0.12679 0.0368
alcohol 0.87754 0.17282 0.73836 0.61138 -0.35342 -0.87222 0.96036 0.54603 -0.65836 0.3788 -1.043 0.04267 -0.44857 0.56267 -0.13193 0.475 0.52603 -0.9757 -0.33638 0.54328 0.24647 -0.9403 1.3495 0.69821 0.52887 -0.024673 1.3669 -0.46221 1.023 1.172 -0.28115 -1.083 0.80674 -0.03393 -0.15549 -0.42082 -0.086888 -0.052998 -0.25575
profession 0.29449 -0.37024 -0.14175 0.61709 -0.34448 0.86818 -0.043361 0.67483 -0.39659 0.69781 0.048447 0.1434 0.0044857 -0.053189 -0.95919 -1.0472 -0.46538 -0.38563 -0.16564 0.79046 0.11555 -0.60377 0.86837 0.48487 0.049155 0.10612 0.51441 -0.29814 -0.046461 0.34346 -0.53531 -0.20839 0.051503 -0.56332 -0.78158 0.55404 0.16367 0.45578 -0.43141
crystal -0.28947 0.21961 0.81125 -0.23144 -1.0627 -0.15854 0.85776 0.55076 0.51379 0.10622 0.79208 0.61916 -0.39091 -0.5508 -0.5515 -0.096197 -0.77939 -0.41867 0.67071 0.25955 0.14188 -2.1045 0.13146 -0.34389 -0.49857 0.12664 0.98703 -0.1067 1.0671 0.02412 0.73546 0.19345 0.39671 -0.15511 -0.06684 0.62579 0.097199 -0.58757 -0.31386
oldest 0.12675 0.37268 -0.091766 -0.07618 -0.11686 0.74303 0.43095 1.1218 0.0098366 0.32112 0.24656 -0.090294 0.33723 0.71989 -0.012115 -0.73157 -0.073066 -0.37667 -0.12899 -0.24336 -0.39577 -1.8089 0.99453 -0.22336 0.70998 0.43848 -0.016945 0.22948 0.50569 0.41941 0.16526 -1.1743 0.47576 -0.62035 0.36008 -0.019928 -1.0872 -0.26759 -1.0337
disease -0.13275 0.29043 -0.57434 -0.8253 0.55599 0.64107 0.0357 0.13849 -0.25676 -0.62944 0.13923 0.65858 -0.36453 0.14487 -0.096386 -0.10124 0.71244 -1.2948 -0.94376 0.54923 0.17114 -1.1556 0.76023 0.50245 0.66505 -0.5992 -0.65011 -0.5346 -0.70566 0.45775 -0.3425 -0.99742 0.49063 0.16916 0.97737 0.56397 -0.13606 0.41094 -1.0782
peace -0.32942 0.42312 -0.37062 -0.33796 0.51431 0.78683 0.37359 -0.18301 -0.76536 -0.076158 0.71746 -1.0281 0.57384 -0.69953 0.45879 0.70992 -0.30197 -0.42811 -0.85186 1.4124 0.15792 -2.3149 1.3171 -0.49728 -1.2869 -1.0386 -0.14735 1.1019 -0.53212 -1.4541 -0.189 -1.4498 0.78896 -0.24075 -0.67213 0.68569 -1.0229 0.33633 0.66411
worst -0.19097 -0.33086 -0.37934 0.12135 -0.38937 0.29407 -0.19807 -0.2646 -0.35089 0.86936 -0.1568 -0.29127 0.10922 -0.40979 0.37889 -0.34217 0.12269 0.013424 -0.38352 0.88406 -0.13341 -2.0044 1.4316 -0.84024 -0.90179 -0.52281 0.26326 -0.1372 -0.82502 1.1274 -0.46332 -0.72729 0.3261 -0.37433 0.020877 0.041126 -0.55041 0.54808 0.24759
london -0.28506 -0.68844 0.49135 0.38926 -0.48802 0.15746 0.83178 -0.11207 -0.37159 -0.37951 0.45958 0.43018 0.23089 0.78911 -0.00055543 0.053711 -0.30915 -0.30442 0.994 0.71774 -1.1604 -3.0277 0.61408 -0.26942 -0.83637 0.072481 -0.24832 -1.2594 -0.4897 -0.59699 1.2068 -1.2883 0.31343 -0.16693 0.74412 0.2311 -0.7691 0.94608 0.41467
crash -0.31215 0.39641 0.22949 -0.06869 0.6971 0.24168 0.19415 0.073444 0.075942 0.79539 0.22868 -0.6251 0.32095 -0.30313 0.6133 0.5614 0.83828 -0.4046 -0.23513 1.0855 0.17263 -1.4957 2.1377 -0.41802 0.67669 -0.026205 -0.67624 -1.1018 -0.075393 0.47185 0.92471 -0.92626 -0.2563 -0.13165 0.22371 0.6186 0.069359 1.046 -0.18726
chocolate 0.3776 1.0362 -0.092066 -0.56129 -0.69151 -0.23059 0.92099 0.97544 0.091128 -0.019847 -0.21016 0.10133 -0.40136 -0.95862 -0.665 0.62099 -1.3536 -0.75911 0.56037 0.87853 -0.98386 -1.1147 0.62437 0.71895 0.016767 -0.51991 0.79016 -0.24861 0.0050373 0.95194 0.62736 0.53874 1.0047 -0.043593 -0.63156 0.14419 -0.97081 -1.0288 -0.31912
emotion 0.90047 -0.50543 -0.5574 -0.14553 0.19758 -0.45476 -0.57935 -0.78083 -0.073398 0.02557 0.47809 0.44462 0.71992 -0.065804 0.13365 0.34062 0.093892 -0.20803 0.10842 0.75901 0.45555 -0.7702 0.54468 0.51258 -0.28264 -0.41637 0.99474 0.016312 0.85248 -0.21878 0.084836 -0.18612 0.29626 0.45345 -0.63727 0.84439 0.72344 0.39459 -0.91147
correspondence 0.82064 0.4786 -0.37803 -0.32104 -0.15734 0.19019 0.87422 0.38164 0.15652 -0.36382 0.028255 -0.044218 -0.00016499 -0.05267 -0.30053 -0.34107 0.086292 -0.10563 0.93784 0.076084 0.5278 -0.58191 0.63579 -0.3529 0.036989 -0.20294 0.43739 -0.2183 1.3927 -0.68399 0.42864 -1.0597 -0.38733 -0.54489 -0.46168 0.3249 0.58695 -0.3782 -0.54348
marching 1.4294 -0.46213 0.59121 0.34291 -0.45397 0.14076 -0.20306 0.3579 0.33819 -0.68773 -0.23933 -0.61672 1.454 -0.046242 0.21118 0.026794 -0.2593 0.48816 0.13287 0.28811 -0.36455 -0.9114 0.77068 0.050263 -0.19946 0.49057 -0.15077 0.1713 -0.43621 -0.62641 0.26494 0.8117 -0.22016 -1.0906 0.1026 0.41419 -0.67018 -1.043 0.77925
nature 0.25461 -0.28381 -0.030566 -0.23024 0.050675 0.76222 -0.71437 0.51007 -0.46422 0.58562 -0.10554 -0.011705 -0.71274 0.1867 -0.4032 -0.20618 -0.60018 0.042609 -0.11081 0.75286 0.58025 -1.8739 1.3659 0.038091 -0.23453 -0.63179 0.48907 0.31545 0.56446 -0.086974 0.44573 -0.77118 0.11444 0.22828 -0.23473 0.52855 -0.065719 0.26648 -1.1847
africa -0.24262 0.12002 0.9052 -0.85173 -0.020806 -0.19993 0.73181 0.36914 -0.70289 -0.59126 0.33718 0.47317 0.29119 -0.17729 -0.088735 -0.081529 0.31882 -0.48647 -0.48613 0.67788 -0.11185 -2.1778 1.0323 -0.42215 -0.37774 -1.1053 -0.67563 0.58581 -0.62553 -0.6108 -0.42488 -0.77803 0.091798 -0.31493 0.053256 -0.22149 -0.37251 0.58641 -0.22708
manufacturer -1.0321 0.77852 -0.24817 0.054793 -1.456 0.50809 0.069747 0.90298 0.25143 -0.17184 0.234 -0.1521 -0.45735 -0.27069 -0.18969 0.49674 -0.55203 -0.44774 -0.20197 0.32801 0.1531 -0.66363 1.9095 1.2872 0.27359 1.355 0.16074 -0.39597 -0.22234 0.16723 0.65012 -0.72451 0.81061 -0.28529 -0.28977 -0.10618 0.01184 0.69147 -0.51673
satellite -1.0395 0.42311 0.048214 0.87806 -0.44535 0.47129 -0.20496 0.65948 0.64918 -0.034235 0.2248 0.60032 -0.16127 0.71181 0.90664 -0.11321 -0.08407 0.40971 0.38068 0.76771 0.48653 -1.9234 2.1472 0.10035 0.79403 -0.12167 -0.41973 0.1741 1.0098 -0.19559 0.96345 -0.75431 0.21064 0.47796 0.15294 -0.63267 -0.41894 0.065059 0.042616
wagner -0.54279 -0.031132 -0.19174 -0.034749 -0.40639 -1.0001 0.4541 1.0208 -0.59074 0.26558 0.50748 -0.46955 0.7031 0.37333 -0.40267 0.95166 0.4367 0.66377 0.28543 -0.52153 -0.38776 -0.8009 -0.12888 0.46336 0.0267 0.054919 0.75764 -0.26081 -0.36964 -0.27845 -0.54816 -0.41972 -0.27082 -0.19145 -0.24177 0.61679 0.23977 0.21328 0.0041088
simple 0.9647 -0.21316 0.21171 0.32402 -0.26222 -0.070091 0.12407 -0.38579 0.30197 0.015577 0.22925 -0.36409 -0.67737 -0.30033 -0.90901 0.018089 -0.51322 -0.53508 -0.19505 0.60395 -0.14908 -2.1224 1.5538 -0.33058 -0.08806 -0.20782 0.39101 -0.766 0.29843 -0.16612 -0.18279 -0.2032 -0.28749 -0.35349 -0.062998 0.27917 -0.20046 -0.58449 -1.25
ultimate -0.10095 -0.050686 -0.45357 0.022631 -0.22566 0.21433 -0.52182 0.68675 -0.19319 0.58192 0.449 0.087349 -0.0049642 -0.23319 0.093491 -0.1761 -0.31162 -0.56659 -0.7677 0.7313 0.43284 -1.9909 0.8027 0.11623 -0.69213 -0.19584 -0.65659 -0.1075 -0.13057 0.32171 -0.15737 -0.38532 -0.40638 -0.18597 -0.18884 0.42115 0.034043 -1.1199 -0.42903
shooting 0.762 0.35378 0.65704 0.52776 0.023508 0.26842 -0.12374 -1.243 -1.436 0.67137 0.076952 -0.41274 -0.086549 0.13493 0.19548 -0.29192 0.16914 0.26603 -0.33464 1.3708 0.21265 -2.011 1.1725 -0.7471 0.49648 0.50577 0.78221 -0.64966 0.55639 0.46817 0.67084 -0.48466 -0.32465 0.020718 0.15295 0.13046 -0.3801 -0.14633 0.13207
roles 0.069745 -0.63069 -0.20452 0.14515 -0.74148 0.09298 1.1943 0.096496 0.44152 1.1075 0.031388 0.44027 0.26547 0.65021 -0.84334 0.43901 0.060934 0.80169 -0.52845 1.4859 0.75359 -1.5274 0.13382 -0.42761 0.22345 0.051373 0.51192 0.12867 -0.20073 -0.040443 -1.1681 0.53566 0.14323 -0.28614 -0.66203 0.20873 0.020998 0.49678 -0.11345
investment -1.2327 -0.73211 -0.38541 -0.15251 0.46539 0.042214 -0.19452 0.071967 0.44311 0.22573 -0.9089 0.27807 -0.94931 -0.23106 -0.50128 0.57925 -0.308 0.28356 -0.46259 0.25557 0.0077908 -2.2412 1.9565 -0.23291 -0.52566 0.3061 0.14238 0.12859 -0.92395 -0.94071 -0.38563 -1.1274 -0.25013 -0.90545 -1.0443 -1.2404 -0.17953 1.184 -0.53169
theater 0.1423 0.23572 0.16263 0.25818 -0.66444 -0.13915 0.21592 0.23704 0.46097 0.21807 0.17543 0.10779 0.70977 -0.032428 0.28205 0.15505 -0.8409 0.66047 0.28971 0.2457 -0.22053 -2.5224 0.8891 0.16507 0.159 0.10689 1.1097 0.3902 -0.082491 -0.095636 0.42528 -0.62926 0.20059 -0.40218 -0.33253 0.33319 -0.62008 0.35693 0.061
shariff 0.28112 -0.24165 0.11004 1.0474 -0.1335 0.063887 -0.47504 -0.27026 0.36405 0.19805 -0.83255 -0.14413 -0.33419 -0.13749 0.072703 -0.056117 0.311 -0.6098 -0.21223 -0.20241 0.12988 1.0564 -0.41389 0.046424 0.17682 -0.59871 -0.33147 1.3368 0.54755 -1.6757 0.54707 0.52185 0.34287 -0.2858 -0.75251 0.56933 -0.062846 0.29578 -0.41548
easter 0.48095 -0.018411 0.46671 -1.0721 -0.17849 0.30262 0.89886 0.33677 -0.14657 -0.030408 -0.014905 -0.85689 -0.12849 0.022785 -0.19731 -0.2649 -1.1448 0.48672 0.5659 -0.19433 -0.95387 -1.8398 0.83361 0.087502 0.17315 -0.63018 -0.68658 -0.8076 -0.25545 0.041484 -0.0048035 -0.43278 0.61815 0.22294 0.25896 0.060372 -1.4505 -1.4274 0.45971
expedition -0.9499 1.1941 0.066939 -0.638 0.29605 -0.33192 -1.081 0.94696 -0.71244 -0.19723 -0.79561 -1.0703 0.72288 -1.2159 -0.34623 -0.28534 -0.30277 -0.042454 0.23853 0.67147 0.039157 -1.1762 0.82867 -0.13544 0.77446 0.25088 -1.0267 0.14828 0.11558 0.040964 0.44829 -1.3502 -0.12052 -0.59649 -0.57105 0.062349 -0.025029 -0.10614 -0.090763
warships -0.30815 0.43499 -0.50949 0.82066 -0.48592 0.047421 0.093943 -0.0031392 -0.34544 -0.36559 0.46302 -1.5422 0.64603 -0.1193 -0.27142 0.47961 0.6416 0.58871 0.33635 0.56038 0.0022562 -0.20287 1.2441 -0.68007 0.56772 0.90309 -0.98299 0.56507 0.04494 -0.29038 0.16468 -0.86276 1.2719 -0.1362 -0.66774 -1.0886 -0.036663 0.60305 -0.259
sake 0.64796 -0.17643 -0.44597 0.10344 0.13457 0.079072 0.23328 -0.012573 -0.69356 0.55335 0.10287 -0.74136 -0.23099 0.027691 -0.38861 0.45631 -1.0555 -0.3935 -0.53389 1.1143 -0.05794 -0.55784 0.13944 -0.12436 -0.50965 -0.28297 0.090687 0.52816 0.4524 -0.42552 -0.15485 -0.57884 0.42481 0.097754 -0.22452 -0.0022431 -0.75375 -0.5577 0.0019917
riverside 0.77316 0.36967 1.0099 0.47557 -0.095879 -0.20043 -0.58309 1.1028 -0.07858 0.42239 -0.22889 -0.043582 -0.66826 0.22651 0.39379 -0.02447 -0.17094 -0.30594 0.3929 -0.43751 0.13954 -1.2838 0.41326 -0.92787 0.4698 -0.14471 0.2632 -0.16598 0.47289 -1.0011 0.76558 -0.030962 0.36915 -0.24951 0.52346 0.38837 -0.59592 0.35306 0.50029
jurisdiction 0.61422 -1.3944 0.19405 -0.42994 0.027378 0.65229 0.245 0.24494 -1.0956 0.29305 -0.61531 0.8022 -0.4402 -0.24058 -0.11672 0.22392 -0.027408 -0.59783 0.062473 0.60965 -0.21728 -0.37261 1.9424 0.26475 0.61341 -0.36647 -0.5964 0.2531 0.78688 0.25204 -1.0581 -0.71517 0.59949 0.07291 0.084217 0.036068 0.8368 0.83924 -0.12356
bishops 1.632 -0.95153 -0.39401 -0.75074 -0.48473 0.58528 1.2375 -0.24908 -1.2932 -0.50017 -0.86111 0.49553 0.43788 0.76093 -0.084828 -0.076569 0.72418 -0.59717 -0.13949 -0.077794 -0.75878 -1.0394 0.50181 -0.090953 0.65679 -0.80854 -0.59471 0.23817 -0.3202 -0.41732 -0.49973 -0.24503 1.1132 -0.3313 -0.38649 0.22855 -0.18131 -0.2353 -0.17826
quarantine 0.055922 -0.71719 0.77544 -0.030462 0.41641 0.74553 -0.056892 1.2756 -0.76157 -1.145 0.19959 0.41779 -0.97416 -0.06902 0.6379 -0.34444 -0.67905 -0.040514 -0.12182 0.60564 -0.17124 0.37641 1.3872 0.14379 0.35718 0.18704 -1.3164 -0.975 -0.0016786 0.29756 -0.62434 -0.84566 0.72875 0.58935 0.50337 -0.5891 -0.15716 0.28425 -0.27836
heaven 0.3857 -0.72213 -0.112 -0.39815 0.15143 0.50292 0.37792 0.15372 -0.98416 0.7372 0.5533 -0.030161 0.57285 -0.077538 0.17881 -0.42584 -0.86941 -0.11254 0.33119 0.77458 -0.65507 -1.5772 0.42065 0.37079 -0.17119 -0.28059 0.13334 0.15235 0.42997 0.018576 0.2688 -0.015133 0.15279 -0.88406 0.44627 0.61591 -0.28597 -1.1194 0.02774
forthcoming -0.15692 0.048618 0.35549 0.11947 0.37792 0.47267 -0.2988 -0.03024 0.29508 -0.20383 -0.35396 0.25962 0.10744 0.49499 -0.1728 0.30962 -0.11208 0.2874 -0.017253 -0.37434 -0.49645 -1.1026 0.4605 -0.8953 -0.48187 -0.37752 -0.48779 0.78054 -0.38937 -0.39369 -0.39299 -0.90048 0.20093 0.046466 -0.3971 0.14023 -0.10997 0.023799 0.5839
lincoln -0.0077436 0.60395 0.32639 -0.52244 -0.4678 -0.93 0.2813 1.5591 -0.013217 0.095225 -0.25356 -0.95856 0.06455 0.093328 0.63245 0.32741 0.32439 0.4878 0.027854 -0.29382 -0.28014 -1.8164 0.60071 0.19525 0.3826 0.30758 0.28194 0.014848 0.052181 -1.007 1.2395 -0.53289 0.16396 -0.88638 -0.709 0.96169 -1.0606 -0.3027 0.2895
mystery 0.51813 0.69944 -1.2203 -0.27901 0.88422 0.1765 0.28134 0.57687 0.035832 0.44953 1.1995 0.64766 -0.8448 -0.11516 -0.21508 0.061092 -0.22024 -0.45969 0.48718 0.94252 -0.16132 -2.2001 0.25449 -0.086495 0.065041 -0.65808 0.11418 -0.20741 -0.084233 1.0767 0.3476 -0.94025 0.0039903 0.31337 0.40819 0.054231 -0.2474 0.15329 -0.69792
retiring 0.07121 0.042925 0.057 -0.17315 -0.48679 -0.071582 0.11133 0.26732 0.042027 -0.083629 -0.12792 -0.47835 1.0253 0.68957 -0.92839 -0.93108 -0.083292 -0.1445 -0.27612 0.40694 0.27579 -1.1741 0.42248 -0.2967 0.43502 -0.038764 0.54938 0.067046 -0.91495 0.029103 -0.27214 0.1599 0.068655 0.13385 -0.68369 1.233 -0.39397 0.38132 0.78622
patent -0.76028 0.10769 -0.48142 -0.56066 -0.42625 0.14838 0.16166 0.79832 0.45693 -0.55205 0.78055 0.63703 -0.44688 -0.72601 -0.10129 -0.75941 0.15039 -1.1133 -0.15844 0.54454 -0.2052 -0.14474 1.6675 0.36981 -0.1121 0.67827 0.089699 -0.03157 0.17406 0.18676 -0.4682 -1.7301 0.76057 -0.89419 0.1058 -0.36243 1.3997 0.71164 -0.02083
candidate -0.068211 0.85188 -0.33968 0.32223 0.3465 0.054884 -0.40787 0.34065 0.44444 0.32518 -0.91438 -0.071373 0.81558 -0.17209 -0.043352 -0.54427 0.45608 -0.54527 -1.1905 0.93752 0.23604 -1.9402 0.79856 -0.68726 -0.20239 0.78454 0.26663 -0.0016538 -0.79873 -0.54127 -0.54813 -0.64335 -0.79321 1.0402 -1.3511 1.1436 -0.74752 0.44089 0.14834
african 0.47885 0.20353 0.26233 -0.3779 -0.28067 0.058862 0.20839 0.32588 -0.27468 -0.54797 0.47262 0.24604 0.17809 -0.13984 -0.36375 0.37988 0.868 -0.019914 -0.92599 0.14545 0.10455 -1.7691 1.7558 -0.37486 -0.38572 -0.84957 -0.64434 0.33723 -0.77954 -0.66373 -0.20284 -0.88423 0.099098 0.20919 -0.35565 -0.12211 -0.83547 0.14887 -0.46542
constitution 1.0132 -0.91031 -0.42027 -0.74214 -0.1321 0.039139 -0.067944 0.92223 -0.91847 -0.86217 0.34811 -0.13234 -0.20826 0.082184 -1.0964 0.72131 0.093336 -0.45749 -0.29346 0.65336 -0.55101 -1.2843 1.7186 -0.58372 -0.43058 -0.80416 -0.2078 0.38915 -0.069664 -0.046816 -0.25611 -1.4075 -0.13275 -0.72934 -0.3493 0.735 -0.8004 0.24103 -0.95093
